digraph Tree {
node [shape=box, style="filled, rounded", color="black", fontname="helvetica"] ;
edge [fontname="helvetica"] ;
0 [label=<alcohol &le; 10.65<br/>entropy = 0.935<br/>samples = 2598<br/>value = [511.0, 98.0, 1989.0]<br/>class = High>, fillcolor="#a673ed"] ;
1 [label=<volatile acidity &le; 0.252<br/>entropy = 0.636<br/>samples = 1558<br/>value = [117, 67, 1374]<br/>class = High>, fillcolor="#9152e8"] ;
0 -> 1 [labeldistance=2.5, labelangle=45, headlabel="True"] ;
2 [label=<alcohol &le; 9.05<br/>entropy = 0.752<br/>samples = 531<br/>value = [80, 11, 440]<br/>class = High>, fillcolor="#9a61ea"] ;
1 -> 2 ;
3 [label=<fixed acidity &le; 6.75<br/>entropy = 1.022<br/>samples = 85<br/>value = [30.0, 1.0, 54.0]<br/>class = High>, fillcolor="#c8a9f4"] ;
2 -> 3 ;
4 [label=<fixed acidity &le; 4.35<br/>entropy = 0.455<br/>samples = 27<br/>value = [1, 1, 25]<br/>class = High>, fillcolor="#8b48e7"] ;
3 -> 4 ;
5 [label=<entropy = 0.0<br/>samples = 1<br/>value = [0, 1, 0]<br/>class = Standard>, fillcolor="#39e581"] ;
4 -> 5 ;
6 [label=<free sulfur dioxide &le; 17.0<br/>entropy = 0.235<br/>samples = 26<br/>value = [1, 0, 25]<br/>class = High>, fillcolor="#8641e6"] ;
4 -> 6 ;
7 [label=<entropy = 0.0<br/>samples = 1<br/>value = [1, 0, 0]<br/>class = Low>, fillcolor="#e58139"] ;
6 -> 7 ;
8 [label=<entropy = 0.0<br/>samples = 25<br/>value = [0, 0, 25]<br/>class = High>, fillcolor="#8139e5"] ;
6 -> 8 ;
9 [label=<volatile acidity &le; 0.205<br/>entropy = 1.0<br/>samples = 58<br/>value = [29, 0, 29]<br/>class = Low>, fillcolor="#ffffff"] ;
3 -> 9 ;
10 [label=<citric acid &le; 0.305<br/>entropy = 0.65<br/>samples = 24<br/>value = [20, 0, 4]<br/>class = Low>, fillcolor="#ea9a61"] ;
9 -> 10 ;
11 [label=<entropy = 0.0<br/>samples = 17<br/>value = [17, 0, 0]<br/>class = Low>, fillcolor="#e58139"] ;
10 -> 11 ;
12 [label=<free sulfur dioxide &le; 43.5<br/>entropy = 0.985<br/>samples = 7<br/>value = [3, 0, 4]<br/>class = High>, fillcolor="#e0cef8"] ;
10 -> 12 ;
13 [label=<entropy = 0.0<br/>samples = 3<br/>value = [3, 0, 0]<br/>class = Low>, fillcolor="#e58139"] ;
12 -> 13 ;
14 [label=<entropy = 0.0<br/>samples = 4<br/>value = [0, 0, 4]<br/>class = High>, fillcolor="#8139e5"] ;
12 -> 14 ;
15 [label=<sulphates &le; 0.45<br/>entropy = 0.834<br/>samples = 34<br/>value = [9, 0, 25]<br/>class = High>, fillcolor="#ae80ee"] ;
9 -> 15 ;
16 [label=<volatile acidity &le; 0.245<br/>entropy = 0.31<br/>samples = 18<br/>value = [1, 0, 17]<br/>class = High>, fillcolor="#8845e7"] ;
15 -> 16 ;
17 [label=<entropy = 0.0<br/>samples = 17<br/>value = [0, 0, 17]<br/>class = High>, fillcolor="#8139e5"] ;
16 -> 17 ;
18 [label=<entropy = 0.0<br/>samples = 1<br/>value = [1, 0, 0]<br/>class = Low>, fillcolor="#e58139"] ;
16 -> 18 ;
19 [label=<total sulfur dioxide &le; 188.0<br/>entropy = 1.0<br/>samples = 16<br/>value = [8, 0, 8]<br/>class = Low>, fillcolor="#ffffff"] ;
15 -> 19 ;
20 [label=<density &le; 1.0<br/>entropy = 0.722<br/>samples = 10<br/>value = [2, 0, 8]<br/>class = High>, fillcolor="#a06aec"] ;
19 -> 20 ;
21 [label=<entropy = 0.0<br/>samples = 8<br/>value = [0, 0, 8]<br/>class = High>, fillcolor="#8139e5"] ;
20 -> 21 ;
22 [label=<entropy = 0.0<br/>samples = 2<br/>value = [2, 0, 0]<br/>class = Low>, fillcolor="#e58139"] ;
20 -> 22 ;
23 [label=<entropy = 0.0<br/>samples = 6<br/>value = [6, 0, 0]<br/>class = Low>, fillcolor="#e58139"] ;
19 -> 23 ;
24 [label=<pH &le; 2.995<br/>entropy = 0.657<br/>samples = 446<br/>value = [50, 10, 386]<br/>class = High>, fillcolor="#9457e9"] ;
2 -> 24 ;
25 [label=<residual sugar &le; 11.35<br/>entropy = 0.663<br/>samples = 44<br/>value = [1, 5, 38]<br/>class = High>, fillcolor="#9457e9"] ;
24 -> 25 ;
26 [label=<volatile acidity &le; 0.245<br/>entropy = 0.625<br/>samples = 32<br/>value = [0, 5, 27]<br/>class = High>, fillcolor="#985eea"] ;
25 -> 26 ;
27 [label=<residual sugar &le; 10.5<br/>entropy = 0.48<br/>samples = 29<br/>value = [0, 3, 26]<br/>class = High>, fillcolor="#9050e8"] ;
26 -> 27 ;
28 [label=<pH &le; 2.84<br/>entropy = 0.242<br/>samples = 25<br/>value = [0, 1, 24]<br/>class = High>, fillcolor="#8641e6"] ;
27 -> 28 ;
29 [label=<sulphates &le; 0.365<br/>entropy = 1.0<br/>samples = 2<br/>value = [0, 1, 1]<br/>class = Standard>, fillcolor="#ffffff"] ;
28 -> 29 ;
30 [label=<entropy = 0.0<br/>samples = 1<br/>value = [0, 1, 0]<br/>class = Standard>, fillcolor="#39e581"] ;
29 -> 30 ;
31 [label=<entropy = 0.0<br/>samples = 1<br/>value = [0, 0, 1]<br/>class = High>, fillcolor="#8139e5"] ;
29 -> 31 ;
32 [label=<entropy = 0.0<br/>samples = 23<br/>value = [0, 0, 23]<br/>class = High>, fillcolor="#8139e5"] ;
28 -> 32 ;
33 [label=<density &le; 0.996<br/>entropy = 1.0<br/>samples = 4<br/>value = [0, 2, 2]<br/>class = Standard>, fillcolor="#ffffff"] ;
27 -> 33 ;
34 [label=<entropy = 0.0<br/>samples = 2<br/>value = [0, 0, 2]<br/>class = High>, fillcolor="#8139e5"] ;
33 -> 34 ;
35 [label=<entropy = 0.0<br/>samples = 2<br/>value = [0, 2, 0]<br/>class = Standard>, fillcolor="#39e581"] ;
33 -> 35 ;
36 [label=<chlorides &le; 0.056<br/>entropy = 0.918<br/>samples = 3<br/>value = [0, 2, 1]<br/>class = Standard>, fillcolor="#9cf2c0"] ;
26 -> 36 ;
37 [label=<entropy = 0.0<br/>samples = 1<br/>value = [0, 0, 1]<br/>class = High>, fillcolor="#8139e5"] ;
36 -> 37 ;
38 [label=<entropy = 0.0<br/>samples = 2<br/>value = [0, 2, 0]<br/>class = Standard>, fillcolor="#39e581"] ;
36 -> 38 ;
39 [label=<residual sugar &le; 11.8<br/>entropy = 0.414<br/>samples = 12<br/>value = [1, 0, 11]<br/>class = High>, fillcolor="#8c4be7"] ;
25 -> 39 ;
40 [label=<entropy = 0.0<br/>samples = 1<br/>value = [1, 0, 0]<br/>class = Low>, fillcolor="#e58139"] ;
39 -> 40 ;
41 [label=<entropy = 0.0<br/>samples = 11<br/>value = [0, 0, 11]<br/>class = High>, fillcolor="#8139e5"] ;
39 -> 41 ;
42 [label=<fixed acidity &le; 7.95<br/>entropy = 0.629<br/>samples = 402<br/>value = [49, 5, 348]<br/>class = High>, fillcolor="#9457e9"] ;
24 -> 42 ;
43 [label=<sulphates &le; 0.63<br/>entropy = 0.525<br/>samples = 348<br/>value = [38, 1, 309]<br/>class = High>, fillcolor="#9152e8"] ;
42 -> 43 ;
44 [label=<citric acid &le; 0.355<br/>entropy = 0.445<br/>samples = 302<br/>value = [28, 0, 274]<br/>class = High>, fillcolor="#8e4de8"] ;
43 -> 44 ;
45 [label=<fixed acidity &le; 6.85<br/>entropy = 0.521<br/>samples = 222<br/>value = [26, 0, 196]<br/>class = High>, fillcolor="#9253e8"] ;
44 -> 45 ;
46 [label=<density &le; 0.994<br/>entropy = 0.367<br/>samples = 142<br/>value = [10, 0, 132]<br/>class = High>, fillcolor="#8b48e7"] ;
45 -> 46 ;
47 [label=<pH &le; 3.285<br/>entropy = 0.544<br/>samples = 80<br/>value = [10, 0, 70]<br/>class = High>, fillcolor="#9355e9"] ;
46 -> 47 ;
48 [label=<citric acid &le; 0.325<br/>entropy = 0.239<br/>samples = 51<br/>value = [2, 0, 49]<br/>class = High>, fillcolor="#8641e6"] ;
47 -> 48 ;
49 [label=<entropy = 0.0<br/>samples = 40<br/>value = [0, 0, 40]<br/>class = High>, fillcolor="#8139e5"] ;
48 -> 49 ;
50 [label=<chlorides &le; 0.056<br/>entropy = 0.684<br/>samples = 11<br/>value = [2, 0, 9]<br/>class = High>, fillcolor="#9d65eb"] ;
48 -> 50 ;
51 [label=<entropy = 0.0<br/>samples = 8<br/>value = [0, 0, 8]<br/>class = High>, fillcolor="#8139e5"] ;
50 -> 51 ;
52 [label=<chlorides &le; 0.092<br/>entropy = 0.918<br/>samples = 3<br/>value = [2, 0, 1]<br/>class = Low>, fillcolor="#f2c09c"] ;
50 -> 52 ;
53 [label=<entropy = 0.0<br/>samples = 2<br/>value = [2, 0, 0]<br/>class = Low>, fillcolor="#e58139"] ;
52 -> 53 ;
54 [label=<entropy = 0.0<br/>samples = 1<br/>value = [0, 0, 1]<br/>class = High>, fillcolor="#8139e5"] ;
52 -> 54 ;
55 [label=<fixed acidity &le; 6.55<br/>entropy = 0.85<br/>samples = 29<br/>value = [8, 0, 21]<br/>class = High>, fillcolor="#b184ef"] ;
47 -> 55 ;
56 [label=<citric acid &le; 0.275<br/>entropy = 0.65<br/>samples = 24<br/>value = [4, 0, 20]<br/>class = High>, fillcolor="#9a61ea"] ;
55 -> 56 ;
57 [label=<pH &le; 3.355<br/>entropy = 0.837<br/>samples = 15<br/>value = [4, 0, 11]<br/>class = High>, fillcolor="#af81ee"] ;
56 -> 57 ;
58 [label=<entropy = 0.0<br/>samples = 5<br/>value = [0, 0, 5]<br/>class = High>, fillcolor="#8139e5"] ;
57 -> 58 ;
59 [label=<free sulfur dioxide &le; 27.0<br/>entropy = 0.971<br/>samples = 10<br/>value = [4, 0, 6]<br/>class = High>, fillcolor="#d5bdf6"] ;
57 -> 59 ;
60 [label=<density &le; 0.993<br/>entropy = 0.811<br/>samples = 8<br/>value = [2, 0, 6]<br/>class = High>, fillcolor="#ab7bee"] ;
59 -> 60 ;
61 [label=<entropy = 0.0<br/>samples = 2<br/>value = [2, 0, 0]<br/>class = Low>, fillcolor="#e58139"] ;
60 -> 61 ;
62 [label=<entropy = 0.0<br/>samples = 6<br/>value = [0, 0, 6]<br/>class = High>, fillcolor="#8139e5"] ;
60 -> 62 ;
63 [label=<entropy = 0.0<br/>samples = 2<br/>value = [2, 0, 0]<br/>class = Low>, fillcolor="#e58139"] ;
59 -> 63 ;
64 [label=<entropy = 0.0<br/>samples = 9<br/>value = [0, 0, 9]<br/>class = High>, fillcolor="#8139e5"] ;
56 -> 64 ;
65 [label=<alcohol &le; 10.05<br/>entropy = 0.722<br/>samples = 5<br/>value = [4, 0, 1]<br/>class = Low>, fillcolor="#eca06a"] ;
55 -> 65 ;
66 [label=<entropy = 0.0<br/>samples = 1<br/>value = [0, 0, 1]<br/>class = High>, fillcolor="#8139e5"] ;
65 -> 66 ;
67 [label=<entropy = 0.0<br/>samples = 4<br/>value = [4, 0, 0]<br/>class = Low>, fillcolor="#e58139"] ;
65 -> 67 ;
68 [label=<entropy = 0.0<br/>samples = 62<br/>value = [0, 0, 62]<br/>class = High>, fillcolor="#8139e5"] ;
46 -> 68 ;
69 [label=<chlorides &le; 0.063<br/>entropy = 0.722<br/>samples = 80<br/>value = [16, 0, 64]<br/>class = High>, fillcolor="#a06aec"] ;
45 -> 69 ;
70 [label=<density &le; 0.994<br/>entropy = 0.679<br/>samples = 78<br/>value = [14, 0, 64]<br/>class = High>, fillcolor="#9d64eb"] ;
69 -> 70 ;
71 [label=<density &le; 0.993<br/>entropy = 0.946<br/>samples = 22<br/>value = [8, 0, 14]<br/>class = High>, fillcolor="#c9aaf4"] ;
70 -> 71 ;
72 [label=<entropy = 0.0<br/>samples = 10<br/>value = [0, 0, 10]<br/>class = High>, fillcolor="#8139e5"] ;
71 -> 72 ;
73 [label=<fixed acidity &le; 7.55<br/>entropy = 0.918<br/>samples = 12<br/>value = [8, 0, 4]<br/>class = Low>, fillcolor="#f2c09c"] ;
71 -> 73 ;
74 [label=<residual sugar &le; 5.1<br/>entropy = 0.722<br/>samples = 10<br/>value = [8, 0, 2]<br/>class = Low>, fillcolor="#eca06a"] ;
73 -> 74 ;
75 [label=<entropy = 0.0<br/>samples = 7<br/>value = [7, 0, 0]<br/>class = Low>, fillcolor="#e58139"] ;
74 -> 75 ;
76 [label=<total sulfur dioxide &le; 106.5<br/>entropy = 0.918<br/>samples = 3<br/>value = [1, 0, 2]<br/>class = High>, fillcolor="#c09cf2"] ;
74 -> 76 ;
77 [label=<entropy = 0.0<br/>samples = 1<br/>value = [1, 0, 0]<br/>class = Low>, fillcolor="#e58139"] ;
76 -> 77 ;
78 [label=<entropy = 0.0<br/>samples = 2<br/>value = [0, 0, 2]<br/>class = High>, fillcolor="#8139e5"] ;
76 -> 78 ;
79 [label=<entropy = 0.0<br/>samples = 2<br/>value = [0, 0, 2]<br/>class = High>, fillcolor="#8139e5"] ;
73 -> 79 ;
80 [label=<residual sugar &le; 10.25<br/>entropy = 0.491<br/>samples = 56<br/>value = [6, 0, 50]<br/>class = High>, fillcolor="#9051e8"] ;
70 -> 80 ;
81 [label=<entropy = 0.0<br/>samples = 35<br/>value = [0, 0, 35]<br/>class = High>, fillcolor="#8139e5"] ;
80 -> 81 ;
82 [label=<citric acid &le; 0.305<br/>entropy = 0.863<br/>samples = 21<br/>value = [6, 0, 15]<br/>class = High>, fillcolor="#b388ef"] ;
80 -> 82 ;
83 [label=<residual sugar &le; 13.5<br/>entropy = 0.954<br/>samples = 8<br/>value = [5, 0, 3]<br/>class = Low>, fillcolor="#f5cdb0"] ;
82 -> 83 ;
84 [label=<entropy = 0.0<br/>samples = 4<br/>value = [4, 0, 0]<br/>class = Low>, fillcolor="#e58139"] ;
83 -> 84 ;
85 [label=<pH &le; 3.105<br/>entropy = 0.811<br/>samples = 4<br/>value = [1, 0, 3]<br/>class = High>, fillcolor="#ab7bee"] ;
83 -> 85 ;
86 [label=<entropy = 0.0<br/>samples = 1<br/>value = [1, 0, 0]<br/>class = Low>, fillcolor="#e58139"] ;
85 -> 86 ;
87 [label=<entropy = 0.0<br/>samples = 3<br/>value = [0, 0, 3]<br/>class = High>, fillcolor="#8139e5"] ;
85 -> 87 ;
88 [label=<density &le; 1.0<br/>entropy = 0.391<br/>samples = 13<br/>value = [1, 0, 12]<br/>class = High>, fillcolor="#8c49e7"] ;
82 -> 88 ;
89 [label=<entropy = 0.0<br/>samples = 12<br/>value = [0, 0, 12]<br/>class = High>, fillcolor="#8139e5"] ;
88 -> 89 ;
90 [label=<entropy = 0.0<br/>samples = 1<br/>value = [1, 0, 0]<br/>class = Low>, fillcolor="#e58139"] ;
88 -> 90 ;
91 [label=<entropy = 0.0<br/>samples = 2<br/>value = [2, 0, 0]<br/>class = Low>, fillcolor="#e58139"] ;
69 -> 91 ;
92 [label=<sulphates &le; 0.385<br/>entropy = 0.169<br/>samples = 80<br/>value = [2, 0, 78]<br/>class = High>, fillcolor="#843ee6"] ;
44 -> 92 ;
93 [label=<pH &le; 3.275<br/>entropy = 0.619<br/>samples = 13<br/>value = [2, 0, 11]<br/>class = High>, fillcolor="#985dea"] ;
92 -> 93 ;
94 [label=<entropy = 0.0<br/>samples = 9<br/>value = [0, 0, 9]<br/>class = High>, fillcolor="#8139e5"] ;
93 -> 94 ;
95 [label=<volatile acidity &le; 0.185<br/>entropy = 1.0<br/>samples = 4<br/>value = [2, 0, 2]<br/>class = Low>, fillcolor="#ffffff"] ;
93 -> 95 ;
96 [label=<entropy = 0.0<br/>samples = 2<br/>value = [0, 0, 2]<br/>class = High>, fillcolor="#8139e5"] ;
95 -> 96 ;
97 [label=<entropy = 0.0<br/>samples = 2<br/>value = [2, 0, 0]<br/>class = Low>, fillcolor="#e58139"] ;
95 -> 97 ;
98 [label=<entropy = 0.0<br/>samples = 67<br/>value = [0, 0, 67]<br/>class = High>, fillcolor="#8139e5"] ;
92 -> 98 ;
99 [label=<pH &le; 3.215<br/>entropy = 0.899<br/>samples = 46<br/>value = [10, 1, 35]<br/>class = High>, fillcolor="#a875ed"] ;
43 -> 99 ;
100 [label=<citric acid &le; 0.25<br/>entropy = 0.31<br/>samples = 18<br/>value = [0, 1, 17]<br/>class = High>, fillcolor="#8845e7"] ;
99 -> 100 ;
101 [label=<entropy = 0.0<br/>samples = 1<br/>value = [0, 1, 0]<br/>class = Standard>, fillcolor="#39e581"] ;
100 -> 101 ;
102 [label=<entropy = 0.0<br/>samples = 17<br/>value = [0, 0, 17]<br/>class = High>, fillcolor="#8139e5"] ;
100 -> 102 ;
103 [label=<total sulfur dioxide &le; 180.5<br/>entropy = 0.94<br/>samples = 28<br/>value = [10, 0, 18]<br/>class = High>, fillcolor="#c7a7f3"] ;
99 -> 103 ;
104 [label=<alcohol &le; 9.45<br/>entropy = 0.998<br/>samples = 21<br/>value = [10, 0, 11]<br/>class = High>, fillcolor="#f4edfd"] ;
103 -> 104 ;
105 [label=<entropy = 0.0<br/>samples = 4<br/>value = [0, 0, 4]<br/>class = High>, fillcolor="#8139e5"] ;
104 -> 105 ;
106 [label=<citric acid &le; 0.34<br/>entropy = 0.977<br/>samples = 17<br/>value = [10, 0, 7]<br/>class = Low>, fillcolor="#f7d9c4"] ;
104 -> 106 ;
107 [label=<citric acid &le; 0.295<br/>entropy = 0.881<br/>samples = 10<br/>value = [3, 0, 7]<br/>class = High>, fillcolor="#b78ef0"] ;
106 -> 107 ;
108 [label=<density &le; 0.994<br/>entropy = 0.971<br/>samples = 5<br/>value = [3, 0, 2]<br/>class = Low>, fillcolor="#f6d5bd"] ;
107 -> 108 ;
109 [label=<entropy = 0.0<br/>samples = 3<br/>value = [3, 0, 0]<br/>class = Low>, fillcolor="#e58139"] ;
108 -> 109 ;
110 [label=<entropy = 0.0<br/>samples = 2<br/>value = [0, 0, 2]<br/>class = High>, fillcolor="#8139e5"] ;
108 -> 110 ;
111 [label=<entropy = 0.0<br/>samples = 5<br/>value = [0, 0, 5]<br/>class = High>, fillcolor="#8139e5"] ;
107 -> 111 ;
112 [label=<entropy = 0.0<br/>samples = 7<br/>value = [7, 0, 0]<br/>class = Low>, fillcolor="#e58139"] ;
106 -> 112 ;
113 [label=<entropy = 0.0<br/>samples = 7<br/>value = [0, 0, 7]<br/>class = High>, fillcolor="#8139e5"] ;
103 -> 113 ;
114 [label=<chlorides &le; 0.035<br/>entropy = 1.085<br/>samples = 54<br/>value = [11, 4, 39]<br/>class = High>, fillcolor="#ad7eee"] ;
42 -> 114 ;
115 [label=<alcohol &le; 9.9<br/>entropy = 1.061<br/>samples = 8<br/>value = [6, 1, 1]<br/>class = Low>, fillcolor="#eca572"] ;
114 -> 115 ;
116 [label=<entropy = 0.0<br/>samples = 1<br/>value = [0, 0, 1]<br/>class = High>, fillcolor="#8139e5"] ;
115 -> 116 ;
117 [label=<free sulfur dioxide &le; 21.0<br/>entropy = 0.592<br/>samples = 7<br/>value = [6, 1, 0]<br/>class = Low>, fillcolor="#e9965a"] ;
115 -> 117 ;
118 [label=<chlorides &le; 0.034<br/>entropy = 1.0<br/>samples = 2<br/>value = [1, 1, 0]<br/>class = Low>, fillcolor="#ffffff"] ;
117 -> 118 ;
119 [label=<entropy = 0.0<br/>samples = 1<br/>value = [0, 1, 0]<br/>class = Standard>, fillcolor="#39e581"] ;
118 -> 119 ;
120 [label=<entropy = 0.0<br/>samples = 1<br/>value = [1, 0, 0]<br/>class = Low>, fillcolor="#e58139"] ;
118 -> 120 ;
121 [label=<entropy = 0.0<br/>samples = 5<br/>value = [5, 0, 0]<br/>class = Low>, fillcolor="#e58139"] ;
117 -> 121 ;
122 [label=<fixed acidity &le; 9.15<br/>entropy = 0.833<br/>samples = 46<br/>value = [5, 3, 38]<br/>class = High>, fillcolor="#9a60ea"] ;
114 -> 122 ;
123 [label=<pH &le; 3.425<br/>entropy = 0.523<br/>samples = 34<br/>value = [4, 0, 30]<br/>class = High>, fillcolor="#9253e8"] ;
122 -> 123 ;
124 [label=<fixed acidity &le; 8.05<br/>entropy = 0.439<br/>samples = 33<br/>value = [3, 0, 30]<br/>class = High>, fillcolor="#8e4de8"] ;
123 -> 124 ;
125 [label=<volatile acidity &le; 0.235<br/>entropy = 0.881<br/>samples = 10<br/>value = [3, 0, 7]<br/>class = High>, fillcolor="#b78ef0"] ;
124 -> 125 ;
126 [label=<citric acid &le; 0.335<br/>entropy = 1.0<br/>samples = 6<br/>value = [3, 0, 3]<br/>class = Low>, fillcolor="#ffffff"] ;
125 -> 126 ;
127 [label=<entropy = 0.0<br/>samples = 2<br/>value = [0, 0, 2]<br/>class = High>, fillcolor="#8139e5"] ;
126 -> 127 ;
128 [label=<citric acid &le; 0.445<br/>entropy = 0.811<br/>samples = 4<br/>value = [3, 0, 1]<br/>class = Low>, fillcolor="#eeab7b"] ;
126 -> 128 ;
129 [label=<entropy = 0.0<br/>samples = 3<br/>value = [3, 0, 0]<br/>class = Low>, fillcolor="#e58139"] ;
128 -> 129 ;
130 [label=<entropy = 0.0<br/>samples = 1<br/>value = [0, 0, 1]<br/>class = High>, fillcolor="#8139e5"] ;
128 -> 130 ;
131 [label=<entropy = 0.0<br/>samples = 4<br/>value = [0, 0, 4]<br/>class = High>, fillcolor="#8139e5"] ;
125 -> 131 ;
132 [label=<entropy = 0.0<br/>samples = 23<br/>value = [0, 0, 23]<br/>class = High>, fillcolor="#8139e5"] ;
124 -> 132 ;
133 [label=<entropy = 0.0<br/>samples = 1<br/>value = [1, 0, 0]<br/>class = Low>, fillcolor="#e58139"] ;
123 -> 133 ;
134 [label=<sulphates &le; 0.57<br/>entropy = 1.189<br/>samples = 12<br/>value = [1, 3, 8]<br/>class = High>, fillcolor="#b991f1"] ;
122 -> 134 ;
135 [label=<chlorides &le; 0.043<br/>entropy = 1.371<br/>samples = 5<br/>value = [1, 3, 1]<br/>class = Standard>, fillcolor="#9cf2c0"] ;
134 -> 135 ;
136 [label=<free sulfur dioxide &le; 36.5<br/>entropy = 1.0<br/>samples = 2<br/>value = [1, 0, 1]<br/>class = Low>, fillcolor="#ffffff"] ;
135 -> 136 ;
137 [label=<entropy = 0.0<br/>samples = 1<br/>value = [0, 0, 1]<br/>class = High>, fillcolor="#8139e5"] ;
136 -> 137 ;
138 [label=<entropy = 0.0<br/>samples = 1<br/>value = [1, 0, 0]<br/>class = Low>, fillcolor="#e58139"] ;
136 -> 138 ;
139 [label=<entropy = 0.0<br/>samples = 3<br/>value = [0, 3, 0]<br/>class = Standard>, fillcolor="#39e581"] ;
135 -> 139 ;
140 [label=<entropy = 0.0<br/>samples = 7<br/>value = [0, 0, 7]<br/>class = High>, fillcolor="#8139e5"] ;
134 -> 140 ;
141 [label=<alcohol &le; 9.95<br/>entropy = 0.526<br/>samples = 1027<br/>value = [37, 56, 934]<br/>class = High>, fillcolor="#8d4ce7"] ;
1 -> 141 ;
142 [label=<free sulfur dioxide &le; 12.5<br/>entropy = 0.394<br/>samples = 726<br/>value = [8, 40, 678]<br/>class = High>, fillcolor="#8a47e7"] ;
141 -> 142 ;
143 [label=<sulphates &le; 0.575<br/>entropy = 0.675<br/>samples = 150<br/>value = [5, 15, 130]<br/>class = High>, fillcolor="#9456e9"] ;
142 -> 143 ;
144 [label=<fixed acidity &le; 6.75<br/>entropy = 0.845<br/>samples = 82<br/>value = [2, 15, 65]<br/>class = High>, fillcolor="#a16bec"] ;
143 -> 144 ;
145 [label=<volatile acidity &le; 0.41<br/>entropy = 1.296<br/>samples = 14<br/>value = [1, 7, 6]<br/>class = Standard>, fillcolor="#e6fcef"] ;
144 -> 145 ;
146 [label=<chlorides &le; 0.055<br/>entropy = 1.295<br/>samples = 10<br/>value = [1, 3, 6]<br/>class = High>, fillcolor="#c9aaf4"] ;
145 -> 146 ;
147 [label=<alcohol &le; 9.75<br/>entropy = 0.592<br/>samples = 7<br/>value = [0, 1, 6]<br/>class = High>, fillcolor="#965ae9"] ;
146 -> 147 ;
148 [label=<entropy = 0.0<br/>samples = 6<br/>value = [0, 0, 6]<br/>class = High>, fillcolor="#8139e5"] ;
147 -> 148 ;
149 [label=<entropy = 0.0<br/>samples = 1<br/>value = [0, 1, 0]<br/>class = Standard>, fillcolor="#39e581"] ;
147 -> 149 ;
150 [label=<chlorides &le; 0.056<br/>entropy = 0.918<br/>samples = 3<br/>value = [1, 2, 0]<br/>class = Standard>, fillcolor="#9cf2c0"] ;
146 -> 150 ;
151 [label=<entropy = 0.0<br/>samples = 1<br/>value = [1, 0, 0]<br/>class = Low>, fillcolor="#e58139"] ;
150 -> 151 ;
152 [label=<entropy = 0.0<br/>samples = 2<br/>value = [0, 2, 0]<br/>class = Standard>, fillcolor="#39e581"] ;
150 -> 152 ;
153 [label=<entropy = 0.0<br/>samples = 4<br/>value = [0, 4, 0]<br/>class = Standard>, fillcolor="#39e581"] ;
145 -> 153 ;
154 [label=<pH &le; 3.285<br/>entropy = 0.63<br/>samples = 68<br/>value = [1, 8, 59]<br/>class = High>, fillcolor="#9457e9"] ;
144 -> 154 ;
155 [label=<chlorides &le; 0.046<br/>entropy = 0.169<br/>samples = 40<br/>value = [0, 1, 39]<br/>class = High>, fillcolor="#843ee6"] ;
154 -> 155 ;
156 [label=<chlorides &le; 0.045<br/>entropy = 0.811<br/>samples = 4<br/>value = [0, 1, 3]<br/>class = High>, fillcolor="#ab7bee"] ;
155 -> 156 ;
157 [label=<entropy = 0.0<br/>samples = 3<br/>value = [0, 0, 3]<br/>class = High>, fillcolor="#8139e5"] ;
156 -> 157 ;
158 [label=<entropy = 0.0<br/>samples = 1<br/>value = [0, 1, 0]<br/>class = Standard>, fillcolor="#39e581"] ;
156 -> 158 ;
159 [label=<entropy = 0.0<br/>samples = 36<br/>value = [0, 0, 36]<br/>class = High>, fillcolor="#8139e5"] ;
155 -> 159 ;
160 [label=<sulphates &le; 0.565<br/>entropy = 1.018<br/>samples = 28<br/>value = [1, 7, 20]<br/>class = High>, fillcolor="#b184ef"] ;
154 -> 160 ;
161 [label=<sulphates &le; 0.445<br/>entropy = 0.826<br/>samples = 27<br/>value = [0, 7, 20]<br/>class = High>, fillcolor="#ad7eee"] ;
160 -> 161 ;
162 [label=<entropy = 0.0<br/>samples = 2<br/>value = [0, 2, 0]<br/>class = Standard>, fillcolor="#39e581"] ;
161 -> 162 ;
163 [label=<pH &le; 3.385<br/>entropy = 0.722<br/>samples = 25<br/>value = [0, 5, 20]<br/>class = High>, fillcolor="#a06aec"] ;
161 -> 163 ;
164 [label=<volatile acidity &le; 0.582<br/>entropy = 0.918<br/>samples = 15<br/>value = [0, 5, 10]<br/>class = High>, fillcolor="#c09cf2"] ;
163 -> 164 ;
165 [label=<entropy = 0.0<br/>samples = 6<br/>value = [0, 0, 6]<br/>class = High>, fillcolor="#8139e5"] ;
164 -> 165 ;
166 [label=<free sulfur dioxide &le; 8.5<br/>entropy = 0.991<br/>samples = 9<br/>value = [0, 5, 4]<br/>class = Standard>, fillcolor="#d7fae6"] ;
164 -> 166 ;
167 [label=<volatile acidity &le; 0.797<br/>entropy = 0.918<br/>samples = 6<br/>value = [0, 2, 4]<br/>class = High>, fillcolor="#c09cf2"] ;
166 -> 167 ;
168 [label=<density &le; 0.998<br/>entropy = 0.918<br/>samples = 3<br/>value = [0, 2, 1]<br/>class = Standard>, fillcolor="#9cf2c0"] ;
167 -> 168 ;
169 [label=<entropy = 0.0<br/>samples = 2<br/>value = [0, 2, 0]<br/>class = Standard>, fillcolor="#39e581"] ;
168 -> 169 ;
170 [label=<entropy = 0.0<br/>samples = 1<br/>value = [0, 0, 1]<br/>class = High>, fillcolor="#8139e5"] ;
168 -> 170 ;
171 [label=<entropy = 0.0<br/>samples = 3<br/>value = [0, 0, 3]<br/>class = High>, fillcolor="#8139e5"] ;
167 -> 171 ;
172 [label=<entropy = 0.0<br/>samples = 3<br/>value = [0, 3, 0]<br/>class = Standard>, fillcolor="#39e581"] ;
166 -> 172 ;
173 [label=<entropy = 0.0<br/>samples = 10<br/>value = [0, 0, 10]<br/>class = High>, fillcolor="#8139e5"] ;
163 -> 173 ;
174 [label=<entropy = 0.0<br/>samples = 1<br/>value = [1, 0, 0]<br/>class = Low>, fillcolor="#e58139"] ;
160 -> 174 ;
175 [label=<fixed acidity &le; 12.35<br/>entropy = 0.261<br/>samples = 68<br/>value = [3, 0, 65]<br/>class = High>, fillcolor="#8742e6"] ;
143 -> 175 ;
176 [label=<alcohol &le; 9.65<br/>entropy = 0.115<br/>samples = 65<br/>value = [1, 0, 64]<br/>class = High>, fillcolor="#833ce5"] ;
175 -> 176 ;
177 [label=<entropy = 0.0<br/>samples = 52<br/>value = [0, 0, 52]<br/>class = High>, fillcolor="#8139e5"] ;
176 -> 177 ;
178 [label=<fixed acidity &le; 9.55<br/>entropy = 0.391<br/>samples = 13<br/>value = [1, 0, 12]<br/>class = High>, fillcolor="#8c49e7"] ;
176 -> 178 ;
179 [label=<entropy = 0.0<br/>samples = 11<br/>value = [0, 0, 11]<br/>class = High>, fillcolor="#8139e5"] ;
178 -> 179 ;
180 [label=<alcohol &le; 9.75<br/>entropy = 1.0<br/>samples = 2<br/>value = [1, 0, 1]<br/>class = Low>, fillcolor="#ffffff"] ;
178 -> 180 ;
181 [label=<entropy = 0.0<br/>samples = 1<br/>value = [1, 0, 0]<br/>class = Low>, fillcolor="#e58139"] ;
180 -> 181 ;
182 [label=<entropy = 0.0<br/>samples = 1<br/>value = [0, 0, 1]<br/>class = High>, fillcolor="#8139e5"] ;
180 -> 182 ;
183 [label=<pH &le; 2.87<br/>entropy = 0.918<br/>samples = 3<br/>value = [2, 0, 1]<br/>class = Low>, fillcolor="#f2c09c"] ;
175 -> 183 ;
184 [label=<entropy = 0.0<br/>samples = 1<br/>value = [0, 0, 1]<br/>class = High>, fillcolor="#8139e5"] ;
183 -> 184 ;
185 [label=<entropy = 0.0<br/>samples = 2<br/>value = [2, 0, 0]<br/>class = Low>, fillcolor="#e58139"] ;
183 -> 185 ;
186 [label=<density &le; 0.998<br/>entropy = 0.304<br/>samples = 576<br/>value = [3, 25, 548]<br/>class = High>, fillcolor="#8743e6"] ;
142 -> 186 ;
187 [label=<residual sugar &le; 7.65<br/>entropy = 0.172<br/>samples = 391<br/>value = [0, 10, 381]<br/>class = High>, fillcolor="#843ee6"] ;
186 -> 187 ;
188 [label=<chlorides &le; 0.078<br/>entropy = 0.236<br/>samples = 259<br/>value = [0, 10, 249]<br/>class = High>, fillcolor="#8641e6"] ;
187 -> 188 ;
189 [label=<citric acid &le; 0.5<br/>entropy = 0.323<br/>samples = 170<br/>value = [0, 10, 160]<br/>class = High>, fillcolor="#8945e7"] ;
188 -> 189 ;
190 [label=<alcohol &le; 8.75<br/>entropy = 0.279<br/>samples = 166<br/>value = [0, 8, 158]<br/>class = High>, fillcolor="#8743e6"] ;
189 -> 190 ;
191 [label=<total sulfur dioxide &le; 146.0<br/>entropy = 1.0<br/>samples = 4<br/>value = [0, 2, 2]<br/>class = Standard>, fillcolor="#ffffff"] ;
190 -> 191 ;
192 [label=<entropy = 0.0<br/>samples = 2<br/>value = [0, 0, 2]<br/>class = High>, fillcolor="#8139e5"] ;
191 -> 192 ;
193 [label=<entropy = 0.0<br/>samples = 2<br/>value = [0, 2, 0]<br/>class = Standard>, fillcolor="#39e581"] ;
191 -> 193 ;
194 [label=<volatile acidity &le; 0.91<br/>entropy = 0.229<br/>samples = 162<br/>value = [0, 6, 156]<br/>class = High>, fillcolor="#8641e6"] ;
190 -> 194 ;
195 [label=<sulphates &le; 0.345<br/>entropy = 0.2<br/>samples = 161<br/>value = [0, 5, 156]<br/>class = High>, fillcolor="#853fe6"] ;
194 -> 195 ;
196 [label=<free sulfur dioxide &le; 22.0<br/>entropy = 0.918<br/>samples = 6<br/>value = [0, 2, 4]<br/>class = High>, fillcolor="#c09cf2"] ;
195 -> 196 ;
197 [label=<entropy = 0.0<br/>samples = 3<br/>value = [0, 0, 3]<br/>class = High>, fillcolor="#8139e5"] ;
196 -> 197 ;
198 [label=<alcohol &le; 9.05<br/>entropy = 0.918<br/>samples = 3<br/>value = [0, 2, 1]<br/>class = Standard>, fillcolor="#9cf2c0"] ;
196 -> 198 ;
199 [label=<entropy = 0.0<br/>samples = 1<br/>value = [0, 0, 1]<br/>class = High>, fillcolor="#8139e5"] ;
198 -> 199 ;
200 [label=<entropy = 0.0<br/>samples = 2<br/>value = [0, 2, 0]<br/>class = Standard>, fillcolor="#39e581"] ;
198 -> 200 ;
201 [label=<pH &le; 3.63<br/>entropy = 0.138<br/>samples = 155<br/>value = [0, 3, 152]<br/>class = High>, fillcolor="#833de6"] ;
195 -> 201 ;
202 [label=<total sulfur dioxide &le; 188.0<br/>entropy = 0.1<br/>samples = 154<br/>value = [0, 2, 152]<br/>class = High>, fillcolor="#833ce5"] ;
201 -> 202 ;
203 [label=<entropy = 0.0<br/>samples = 125<br/>value = [0, 0, 125]<br/>class = High>, fillcolor="#8139e5"] ;
202 -> 203 ;
204 [label=<alcohol &le; 9.7<br/>entropy = 0.362<br/>samples = 29<br/>value = [0, 2, 27]<br/>class = High>, fillcolor="#8a48e7"] ;
202 -> 204 ;
205 [label=<entropy = 0.0<br/>samples = 22<br/>value = [0, 0, 22]<br/>class = High>, fillcolor="#8139e5"] ;
204 -> 205 ;
206 [label=<sulphates &le; 0.57<br/>entropy = 0.863<br/>samples = 7<br/>value = [0, 2, 5]<br/>class = High>, fillcolor="#b388ef"] ;
204 -> 206 ;
207 [label=<residual sugar &le; 5.4<br/>entropy = 0.918<br/>samples = 3<br/>value = [0, 2, 1]<br/>class = Standard>, fillcolor="#9cf2c0"] ;
206 -> 207 ;
208 [label=<entropy = 0.0<br/>samples = 2<br/>value = [0, 2, 0]<br/>class = Standard>, fillcolor="#39e581"] ;
207 -> 208 ;
209 [label=<entropy = 0.0<br/>samples = 1<br/>value = [0, 0, 1]<br/>class = High>, fillcolor="#8139e5"] ;
207 -> 209 ;
210 [label=<entropy = 0.0<br/>samples = 4<br/>value = [0, 0, 4]<br/>class = High>, fillcolor="#8139e5"] ;
206 -> 210 ;
211 [label=<entropy = 0.0<br/>samples = 1<br/>value = [0, 1, 0]<br/>class = Standard>, fillcolor="#39e581"] ;
201 -> 211 ;
212 [label=<entropy = 0.0<br/>samples = 1<br/>value = [0, 1, 0]<br/>class = Standard>, fillcolor="#39e581"] ;
194 -> 212 ;
213 [label=<density &le; 0.994<br/>entropy = 1.0<br/>samples = 4<br/>value = [0, 2, 2]<br/>class = Standard>, fillcolor="#ffffff"] ;
189 -> 213 ;
214 [label=<entropy = 0.0<br/>samples = 2<br/>value = [0, 0, 2]<br/>class = High>, fillcolor="#8139e5"] ;
213 -> 214 ;
215 [label=<entropy = 0.0<br/>samples = 2<br/>value = [0, 2, 0]<br/>class = Standard>, fillcolor="#39e581"] ;
213 -> 215 ;
216 [label=<entropy = 0.0<br/>samples = 89<br/>value = [0, 0, 89]<br/>class = High>, fillcolor="#8139e5"] ;
188 -> 216 ;
217 [label=<entropy = 0.0<br/>samples = 132<br/>value = [0, 0, 132]<br/>class = High>, fillcolor="#8139e5"] ;
187 -> 217 ;
218 [label=<residual sugar &le; 15.475<br/>entropy = 0.524<br/>samples = 185<br/>value = [3, 15, 167]<br/>class = High>, fillcolor="#8e4ee8"] ;
186 -> 218 ;
219 [label=<fixed acidity &le; 7.05<br/>entropy = 0.653<br/>samples = 135<br/>value = [3, 15, 117]<br/>class = High>, fillcolor="#9457e9"] ;
218 -> 219 ;
220 [label=<chlorides &le; 0.058<br/>entropy = 0.745<br/>samples = 34<br/>value = [3, 2, 29]<br/>class = High>, fillcolor="#9559e9"] ;
219 -> 220 ;
221 [label=<volatile acidity &le; 0.365<br/>entropy = 0.544<br/>samples = 24<br/>value = [3, 0, 21]<br/>class = High>, fillcolor="#9355e9"] ;
220 -> 221 ;
222 [label=<sulphates &le; 0.585<br/>entropy = 0.881<br/>samples = 10<br/>value = [3, 0, 7]<br/>class = High>, fillcolor="#b78ef0"] ;
221 -> 222 ;
223 [label=<chlorides &le; 0.043<br/>entropy = 0.544<br/>samples = 8<br/>value = [1, 0, 7]<br/>class = High>, fillcolor="#9355e9"] ;
222 -> 223 ;
224 [label=<free sulfur dioxide &le; 33.5<br/>entropy = 1.0<br/>samples = 2<br/>value = [1, 0, 1]<br/>class = Low>, fillcolor="#ffffff"] ;
223 -> 224 ;
225 [label=<entropy = 0.0<br/>samples = 1<br/>value = [1, 0, 0]<br/>class = Low>, fillcolor="#e58139"] ;
224 -> 225 ;
226 [label=<entropy = 0.0<br/>samples = 1<br/>value = [0, 0, 1]<br/>class = High>, fillcolor="#8139e5"] ;
224 -> 226 ;
227 [label=<entropy = 0.0<br/>samples = 6<br/>value = [0, 0, 6]<br/>class = High>, fillcolor="#8139e5"] ;
223 -> 227 ;
228 [label=<entropy = 0.0<br/>samples = 2<br/>value = [2, 0, 0]<br/>class = Low>, fillcolor="#e58139"] ;
222 -> 228 ;
229 [label=<entropy = 0.0<br/>samples = 14<br/>value = [0, 0, 14]<br/>class = High>, fillcolor="#8139e5"] ;
221 -> 229 ;
230 [label=<free sulfur dioxide &le; 39.0<br/>entropy = 0.722<br/>samples = 10<br/>value = [0, 2, 8]<br/>class = High>, fillcolor="#a06aec"] ;
220 -> 230 ;
231 [label=<wine_type &le; 0.5<br/>entropy = 1.0<br/>samples = 4<br/>value = [0, 2, 2]<br/>class = Standard>, fillcolor="#ffffff"] ;
230 -> 231 ;
232 [label=<entropy = 0.0<br/>samples = 2<br/>value = [0, 0, 2]<br/>class = High>, fillcolor="#8139e5"] ;
231 -> 232 ;
233 [label=<entropy = 0.0<br/>samples = 2<br/>value = [0, 2, 0]<br/>class = Standard>, fillcolor="#39e581"] ;
231 -> 233 ;
234 [label=<entropy = 0.0<br/>samples = 6<br/>value = [0, 0, 6]<br/>class = High>, fillcolor="#8139e5"] ;
230 -> 234 ;
235 [label=<citric acid &le; 0.615<br/>entropy = 0.554<br/>samples = 101<br/>value = [0, 13, 88]<br/>class = High>, fillcolor="#9456e9"] ;
219 -> 235 ;
236 [label=<chlorides &le; 0.054<br/>entropy = 0.466<br/>samples = 91<br/>value = [0, 9, 82]<br/>class = High>, fillcolor="#8f4fe8"] ;
235 -> 236 ;
237 [label=<entropy = 0.0<br/>samples = 28<br/>value = [0, 0, 28]<br/>class = High>, fillcolor="#8139e5"] ;
236 -> 237 ;
238 [label=<chlorides &le; 0.071<br/>entropy = 0.592<br/>samples = 63<br/>value = [0, 9, 54]<br/>class = High>, fillcolor="#965ae9"] ;
236 -> 238 ;
239 [label=<density &le; 0.998<br/>entropy = 0.996<br/>samples = 13<br/>value = [0, 6, 7]<br/>class = High>, fillcolor="#ede3fb"] ;
238 -> 239 ;
240 [label=<entropy = 0.0<br/>samples = 4<br/>value = [0, 0, 4]<br/>class = High>, fillcolor="#8139e5"] ;
239 -> 240 ;
241 [label=<residual sugar &le; 14.1<br/>entropy = 0.918<br/>samples = 9<br/>value = [0, 6, 3]<br/>class = Standard>, fillcolor="#9cf2c0"] ;
239 -> 241 ;
242 [label=<entropy = 0.0<br/>samples = 5<br/>value = [0, 5, 0]<br/>class = Standard>, fillcolor="#39e581"] ;
241 -> 242 ;
243 [label=<chlorides &le; 0.058<br/>entropy = 0.811<br/>samples = 4<br/>value = [0, 1, 3]<br/>class = High>, fillcolor="#ab7bee"] ;
241 -> 243 ;
244 [label=<entropy = 0.0<br/>samples = 3<br/>value = [0, 0, 3]<br/>class = High>, fillcolor="#8139e5"] ;
243 -> 244 ;
245 [label=<entropy = 0.0<br/>samples = 1<br/>value = [0, 1, 0]<br/>class = Standard>, fillcolor="#39e581"] ;
243 -> 245 ;
246 [label=<total sulfur dioxide &le; 63.0<br/>entropy = 0.327<br/>samples = 50<br/>value = [0, 3, 47]<br/>class = High>, fillcolor="#8946e7"] ;
238 -> 246 ;
247 [label=<chlorides &le; 0.087<br/>entropy = 0.629<br/>samples = 19<br/>value = [0, 3, 16]<br/>class = High>, fillcolor="#995eea"] ;
246 -> 247 ;
248 [label=<entropy = 0.0<br/>samples = 11<br/>value = [0, 0, 11]<br/>class = High>, fillcolor="#8139e5"] ;
247 -> 248 ;
249 [label=<citric acid &le; 0.28<br/>entropy = 0.954<br/>samples = 8<br/>value = [0, 3, 5]<br/>class = High>, fillcolor="#cdb0f5"] ;
247 -> 249 ;
250 [label=<citric acid &le; 0.05<br/>entropy = 0.65<br/>samples = 6<br/>value = [0, 1, 5]<br/>class = High>, fillcolor="#9a61ea"] ;
249 -> 250 ;
251 [label=<entropy = 0.0<br/>samples = 1<br/>value = [0, 1, 0]<br/>class = Standard>, fillcolor="#39e581"] ;
250 -> 251 ;
252 [label=<entropy = 0.0<br/>samples = 5<br/>value = [0, 0, 5]<br/>class = High>, fillcolor="#8139e5"] ;
250 -> 252 ;
253 [label=<entropy = 0.0<br/>samples = 2<br/>value = [0, 2, 0]<br/>class = Standard>, fillcolor="#39e581"] ;
249 -> 253 ;
254 [label=<entropy = 0.0<br/>samples = 31<br/>value = [0, 0, 31]<br/>class = High>, fillcolor="#8139e5"] ;
246 -> 254 ;
255 [label=<alcohol &le; 8.65<br/>entropy = 0.971<br/>samples = 10<br/>value = [0, 4, 6]<br/>class = High>, fillcolor="#d5bdf6"] ;
235 -> 255 ;
256 [label=<entropy = 0.0<br/>samples = 2<br/>value = [0, 2, 0]<br/>class = Standard>, fillcolor="#39e581"] ;
255 -> 256 ;
257 [label=<density &le; 0.998<br/>entropy = 0.811<br/>samples = 8<br/>value = [0, 2, 6]<br/>class = High>, fillcolor="#ab7bee"] ;
255 -> 257 ;
258 [label=<entropy = 0.0<br/>samples = 5<br/>value = [0, 0, 5]<br/>class = High>, fillcolor="#8139e5"] ;
257 -> 258 ;
259 [label=<sulphates &le; 0.42<br/>entropy = 0.918<br/>samples = 3<br/>value = [0, 2, 1]<br/>class = Standard>, fillcolor="#9cf2c0"] ;
257 -> 259 ;
260 [label=<entropy = 0.0<br/>samples = 1<br/>value = [0, 0, 1]<br/>class = High>, fillcolor="#8139e5"] ;
259 -> 260 ;
261 [label=<entropy = 0.0<br/>samples = 2<br/>value = [0, 2, 0]<br/>class = Standard>, fillcolor="#39e581"] ;
259 -> 261 ;
262 [label=<entropy = 0.0<br/>samples = 50<br/>value = [0, 0, 50]<br/>class = High>, fillcolor="#8139e5"] ;
218 -> 262 ;
263 [label=<sulphates &le; 0.645<br/>entropy = 0.749<br/>samples = 301<br/>value = [29.0, 16.0, 256.0]<br/>class = High>, fillcolor="#965ae9"] ;
141 -> 263 ;
264 [label=<pH &le; 3.445<br/>entropy = 0.66<br/>samples = 227<br/>value = [12, 16, 199]<br/>class = High>, fillcolor="#9253e8"] ;
263 -> 264 ;
265 [label=<residual sugar &le; 10.9<br/>entropy = 0.524<br/>samples = 204<br/>value = [5.0, 14.0, 185.0]<br/>class = High>, fillcolor="#8e4de8"] ;
264 -> 265 ;
266 [label=<free sulfur dioxide &le; 4.5<br/>entropy = 0.447<br/>samples = 178<br/>value = [1, 14, 163]<br/>class = High>, fillcolor="#8d4be7"] ;
265 -> 266 ;
267 [label=<chlorides &le; 0.069<br/>entropy = 0.971<br/>samples = 5<br/>value = [0, 3, 2]<br/>class = Standard>, fillcolor="#bdf6d5"] ;
266 -> 267 ;
268 [label=<entropy = 0.0<br/>samples = 2<br/>value = [0, 2, 0]<br/>class = Standard>, fillcolor="#39e581"] ;
267 -> 268 ;
269 [label=<citric acid &le; 0.515<br/>entropy = 0.918<br/>samples = 3<br/>value = [0, 1, 2]<br/>class = High>, fillcolor="#c09cf2"] ;
267 -> 269 ;
270 [label=<entropy = 0.0<br/>samples = 2<br/>value = [0, 0, 2]<br/>class = High>, fillcolor="#8139e5"] ;
269 -> 270 ;
271 [label=<entropy = 0.0<br/>samples = 1<br/>value = [0, 1, 0]<br/>class = Standard>, fillcolor="#39e581"] ;
269 -> 271 ;
272 [label=<residual sugar &le; 1.65<br/>entropy = 0.392<br/>samples = 173<br/>value = [1, 11, 161]<br/>class = High>, fillcolor="#8a48e7"] ;
266 -> 272 ;
273 [label=<pH &le; 3.265<br/>entropy = 0.716<br/>samples = 45<br/>value = [1, 6, 38]<br/>class = High>, fillcolor="#985dea"] ;
272 -> 273 ;
274 [label=<alcohol &le; 10.45<br/>entropy = 0.722<br/>samples = 30<br/>value = [0, 6, 24]<br/>class = High>, fillcolor="#a06aec"] ;
273 -> 274 ;
275 [label=<residual sugar &le; 1.25<br/>entropy = 0.9<br/>samples = 19<br/>value = [0, 6, 13]<br/>class = High>, fillcolor="#bb94f1"] ;
274 -> 275 ;
276 [label=<entropy = 0.0<br/>samples = 6<br/>value = [0, 0, 6]<br/>class = High>, fillcolor="#8139e5"] ;
275 -> 276 ;
277 [label=<alcohol &le; 10.15<br/>entropy = 0.996<br/>samples = 13<br/>value = [0, 6, 7]<br/>class = High>, fillcolor="#ede3fb"] ;
275 -> 277 ;
278 [label=<total sulfur dioxide &le; 201.25<br/>entropy = 0.764<br/>samples = 9<br/>value = [0, 2, 7]<br/>class = High>, fillcolor="#a572ec"] ;
277 -> 278 ;
279 [label=<free sulfur dioxide &le; 5.5<br/>entropy = 0.544<br/>samples = 8<br/>value = [0, 1, 7]<br/>class = High>, fillcolor="#9355e9"] ;
278 -> 279 ;
280 [label=<entropy = 0.0<br/>samples = 1<br/>value = [0, 1, 0]<br/>class = Standard>, fillcolor="#39e581"] ;
279 -> 280 ;
281 [label=<entropy = 0.0<br/>samples = 7<br/>value = [0, 0, 7]<br/>class = High>, fillcolor="#8139e5"] ;
279 -> 281 ;
282 [label=<entropy = 0.0<br/>samples = 1<br/>value = [0, 1, 0]<br/>class = Standard>, fillcolor="#39e581"] ;
278 -> 282 ;
283 [label=<entropy = 0.0<br/>samples = 4<br/>value = [0, 4, 0]<br/>class = Standard>, fillcolor="#39e581"] ;
277 -> 283 ;
284 [label=<entropy = 0.0<br/>samples = 11<br/>value = [0, 0, 11]<br/>class = High>, fillcolor="#8139e5"] ;
274 -> 284 ;
285 [label=<chlorides &le; 0.038<br/>entropy = 0.353<br/>samples = 15<br/>value = [1, 0, 14]<br/>class = High>, fillcolor="#8a47e7"] ;
273 -> 285 ;
286 [label=<chlorides &le; 0.036<br/>entropy = 0.811<br/>samples = 4<br/>value = [1, 0, 3]<br/>class = High>, fillcolor="#ab7bee"] ;
285 -> 286 ;
287 [label=<entropy = 0.0<br/>samples = 3<br/>value = [0, 0, 3]<br/>class = High>, fillcolor="#8139e5"] ;
286 -> 287 ;
288 [label=<entropy = 0.0<br/>samples = 1<br/>value = [1, 0, 0]<br/>class = Low>, fillcolor="#e58139"] ;
286 -> 288 ;
289 [label=<entropy = 0.0<br/>samples = 11<br/>value = [0, 0, 11]<br/>class = High>, fillcolor="#8139e5"] ;
285 -> 289 ;
290 [label=<citric acid &le; 0.345<br/>entropy = 0.238<br/>samples = 128<br/>value = [0, 5, 123]<br/>class = High>, fillcolor="#8641e6"] ;
272 -> 290 ;
291 [label=<citric acid &le; 0.01<br/>entropy = 0.081<br/>samples = 99<br/>value = [0, 1, 98]<br/>class = High>, fillcolor="#823be5"] ;
290 -> 291 ;
292 [label=<alcohol &le; 10.45<br/>entropy = 0.722<br/>samples = 5<br/>value = [0, 1, 4]<br/>class = High>, fillcolor="#a06aec"] ;
291 -> 292 ;
293 [label=<entropy = 0.0<br/>samples = 4<br/>value = [0, 0, 4]<br/>class = High>, fillcolor="#8139e5"] ;
292 -> 293 ;
294 [label=<entropy = 0.0<br/>samples = 1<br/>value = [0, 1, 0]<br/>class = Standard>, fillcolor="#39e581"] ;
292 -> 294 ;
295 [label=<entropy = 0.0<br/>samples = 94<br/>value = [0, 0, 94]<br/>class = High>, fillcolor="#8139e5"] ;
291 -> 295 ;
296 [label=<citric acid &le; 0.365<br/>entropy = 0.579<br/>samples = 29<br/>value = [0, 4, 25]<br/>class = High>, fillcolor="#9559e9"] ;
290 -> 296 ;
297 [label=<alcohol &le; 10.45<br/>entropy = 0.971<br/>samples = 5<br/>value = [0, 3, 2]<br/>class = Standard>, fillcolor="#bdf6d5"] ;
296 -> 297 ;
298 [label=<entropy = 0.0<br/>samples = 3<br/>value = [0, 3, 0]<br/>class = Standard>, fillcolor="#39e581"] ;
297 -> 298 ;
299 [label=<entropy = 0.0<br/>samples = 2<br/>value = [0, 0, 2]<br/>class = High>, fillcolor="#8139e5"] ;
297 -> 299 ;
300 [label=<volatile acidity &le; 0.885<br/>entropy = 0.25<br/>samples = 24<br/>value = [0, 1, 23]<br/>class = High>, fillcolor="#8642e6"] ;
296 -> 300 ;
301 [label=<entropy = 0.0<br/>samples = 22<br/>value = [0, 0, 22]<br/>class = High>, fillcolor="#8139e5"] ;
300 -> 301 ;
302 [label=<density &le; 0.999<br/>entropy = 1.0<br/>samples = 2<br/>value = [0, 1, 1]<br/>class = Standard>, fillcolor="#ffffff"] ;
300 -> 302 ;
303 [label=<entropy = 0.0<br/>samples = 1<br/>value = [0, 0, 1]<br/>class = High>, fillcolor="#8139e5"] ;
302 -> 303 ;
304 [label=<entropy = 0.0<br/>samples = 1<br/>value = [0, 1, 0]<br/>class = Standard>, fillcolor="#39e581"] ;
302 -> 304 ;
305 [label=<free sulfur dioxide &le; 47.5<br/>entropy = 0.619<br/>samples = 26<br/>value = [4, 0, 22]<br/>class = High>, fillcolor="#985dea"] ;
265 -> 305 ;
306 [label=<entropy = 0.0<br/>samples = 18<br/>value = [0, 0, 18]<br/>class = High>, fillcolor="#8139e5"] ;
305 -> 306 ;
307 [label=<pH &le; 3.095<br/>entropy = 1.0<br/>samples = 8<br/>value = [4, 0, 4]<br/>class = Low>, fillcolor="#ffffff"] ;
305 -> 307 ;
308 [label=<sulphates &le; 0.575<br/>entropy = 0.722<br/>samples = 5<br/>value = [4, 0, 1]<br/>class = Low>, fillcolor="#eca06a"] ;
307 -> 308 ;
309 [label=<entropy = 0.0<br/>samples = 4<br/>value = [4, 0, 0]<br/>class = Low>, fillcolor="#e58139"] ;
308 -> 309 ;
310 [label=<entropy = 0.0<br/>samples = 1<br/>value = [0, 0, 1]<br/>class = High>, fillcolor="#8139e5"] ;
308 -> 310 ;
311 [label=<entropy = 0.0<br/>samples = 3<br/>value = [0, 0, 3]<br/>class = High>, fillcolor="#8139e5"] ;
307 -> 311 ;
312 [label=<chlorides &le; 0.044<br/>entropy = 1.265<br/>samples = 23<br/>value = [7, 2, 14]<br/>class = High>, fillcolor="#c8a8f4"] ;
264 -> 312 ;
313 [label=<alcohol &le; 10.35<br/>entropy = 0.863<br/>samples = 7<br/>value = [5, 0, 2]<br/>class = Low>, fillcolor="#efb388"] ;
312 -> 313 ;
314 [label=<entropy = 0.0<br/>samples = 4<br/>value = [4, 0, 0]<br/>class = Low>, fillcolor="#e58139"] ;
313 -> 314 ;
315 [label=<volatile acidity &le; 0.398<br/>entropy = 0.918<br/>samples = 3<br/>value = [1, 0, 2]<br/>class = High>, fillcolor="#c09cf2"] ;
313 -> 315 ;
316 [label=<entropy = 0.0<br/>samples = 2<br/>value = [0, 0, 2]<br/>class = High>, fillcolor="#8139e5"] ;
315 -> 316 ;
317 [label=<entropy = 0.0<br/>samples = 1<br/>value = [1, 0, 0]<br/>class = Low>, fillcolor="#e58139"] ;
315 -> 317 ;
318 [label=<fixed acidity &le; 6.45<br/>entropy = 1.061<br/>samples = 16<br/>value = [2, 2, 12]<br/>class = High>, fillcolor="#a572ec"] ;
312 -> 318 ;
319 [label=<volatile acidity &le; 0.31<br/>entropy = 0.918<br/>samples = 6<br/>value = [0, 2, 4]<br/>class = High>, fillcolor="#c09cf2"] ;
318 -> 319 ;
320 [label=<entropy = 0.0<br/>samples = 3<br/>value = [0, 0, 3]<br/>class = High>, fillcolor="#8139e5"] ;
319 -> 320 ;
321 [label=<chlorides &le; 0.075<br/>entropy = 0.918<br/>samples = 3<br/>value = [0, 2, 1]<br/>class = Standard>, fillcolor="#9cf2c0"] ;
319 -> 321 ;
322 [label=<entropy = 0.0<br/>samples = 2<br/>value = [0, 2, 0]<br/>class = Standard>, fillcolor="#39e581"] ;
321 -> 322 ;
323 [label=<entropy = 0.0<br/>samples = 1<br/>value = [0, 0, 1]<br/>class = High>, fillcolor="#8139e5"] ;
321 -> 323 ;
324 [label=<residual sugar &le; 2.25<br/>entropy = 0.722<br/>samples = 10<br/>value = [2, 0, 8]<br/>class = High>, fillcolor="#a06aec"] ;
318 -> 324 ;
325 [label=<total sulfur dioxide &le; 25.5<br/>entropy = 0.918<br/>samples = 3<br/>value = [2, 0, 1]<br/>class = Low>, fillcolor="#f2c09c"] ;
324 -> 325 ;
326 [label=<entropy = 0.0<br/>samples = 1<br/>value = [0, 0, 1]<br/>class = High>, fillcolor="#8139e5"] ;
325 -> 326 ;
327 [label=<entropy = 0.0<br/>samples = 2<br/>value = [2, 0, 0]<br/>class = Low>, fillcolor="#e58139"] ;
325 -> 327 ;
328 [label=<entropy = 0.0<br/>samples = 7<br/>value = [0, 0, 7]<br/>class = High>, fillcolor="#8139e5"] ;
324 -> 328 ;
329 [label=<pH &le; 2.935<br/>entropy = 0.778<br/>samples = 74<br/>value = [17, 0, 57]<br/>class = High>, fillcolor="#a774ed"] ;
263 -> 329 ;
330 [label=<entropy = 0.0<br/>samples = 3<br/>value = [3, 0, 0]<br/>class = Low>, fillcolor="#e58139"] ;
329 -> 330 ;
331 [label=<total sulfur dioxide &le; 55.5<br/>entropy = 0.716<br/>samples = 71<br/>value = [14.0, 0.0, 57.0]<br/>class = High>, fillcolor="#a06aeb"] ;
329 -> 331 ;
332 [label=<pH &le; 3.455<br/>entropy = 0.935<br/>samples = 37<br/>value = [13, 0, 24]<br/>class = High>, fillcolor="#c5a4f3"] ;
331 -> 332 ;
333 [label=<citric acid &le; 0.65<br/>entropy = 0.981<br/>samples = 31<br/>value = [13, 0, 18]<br/>class = High>, fillcolor="#dcc8f8"] ;
332 -> 333 ;
334 [label=<citric acid &le; 0.39<br/>entropy = 0.958<br/>samples = 29<br/>value = [11, 0, 18]<br/>class = High>, fillcolor="#ceb2f5"] ;
333 -> 334 ;
335 [label=<volatile acidity &le; 0.41<br/>entropy = 0.991<br/>samples = 18<br/>value = [10, 0, 8]<br/>class = Low>, fillcolor="#fae6d7"] ;
334 -> 335 ;
336 [label=<entropy = 0.0<br/>samples = 6<br/>value = [6, 0, 0]<br/>class = Low>, fillcolor="#e58139"] ;
335 -> 336 ;
337 [label=<free sulfur dioxide &le; 5.5<br/>entropy = 0.918<br/>samples = 12<br/>value = [4, 0, 8]<br/>class = High>, fillcolor="#c09cf2"] ;
335 -> 337 ;
338 [label=<entropy = 0.0<br/>samples = 2<br/>value = [2, 0, 0]<br/>class = Low>, fillcolor="#e58139"] ;
337 -> 338 ;
339 [label=<sulphates &le; 0.66<br/>entropy = 0.722<br/>samples = 10<br/>value = [2, 0, 8]<br/>class = High>, fillcolor="#a06aec"] ;
337 -> 339 ;
340 [label=<fixed acidity &le; 8.35<br/>entropy = 0.918<br/>samples = 3<br/>value = [2, 0, 1]<br/>class = Low>, fillcolor="#f2c09c"] ;
339 -> 340 ;
341 [label=<entropy = 0.0<br/>samples = 2<br/>value = [2, 0, 0]<br/>class = Low>, fillcolor="#e58139"] ;
340 -> 341 ;
342 [label=<entropy = 0.0<br/>samples = 1<br/>value = [0, 0, 1]<br/>class = High>, fillcolor="#8139e5"] ;
340 -> 342 ;
343 [label=<entropy = 0.0<br/>samples = 7<br/>value = [0, 0, 7]<br/>class = High>, fillcolor="#8139e5"] ;
339 -> 343 ;
344 [label=<density &le; 1.0<br/>entropy = 0.439<br/>samples = 11<br/>value = [1, 0, 10]<br/>class = High>, fillcolor="#8e4de8"] ;
334 -> 344 ;
345 [label=<entropy = 0.0<br/>samples = 9<br/>value = [0, 0, 9]<br/>class = High>, fillcolor="#8139e5"] ;
344 -> 345 ;
346 [label=<alcohol &le; 10.35<br/>entropy = 1.0<br/>samples = 2<br/>value = [1, 0, 1]<br/>class = Low>, fillcolor="#ffffff"] ;
344 -> 346 ;
347 [label=<entropy = 0.0<br/>samples = 1<br/>value = [0, 0, 1]<br/>class = High>, fillcolor="#8139e5"] ;
346 -> 347 ;
348 [label=<entropy = 0.0<br/>samples = 1<br/>value = [1, 0, 0]<br/>class = Low>, fillcolor="#e58139"] ;
346 -> 348 ;
349 [label=<entropy = 0.0<br/>samples = 2<br/>value = [2, 0, 0]<br/>class = Low>, fillcolor="#e58139"] ;
333 -> 349 ;
350 [label=<entropy = 0.0<br/>samples = 6<br/>value = [0, 0, 6]<br/>class = High>, fillcolor="#8139e5"] ;
332 -> 350 ;
351 [label=<density &le; 0.993<br/>entropy = 0.191<br/>samples = 34<br/>value = [1, 0, 33]<br/>class = High>, fillcolor="#853fe6"] ;
331 -> 351 ;
352 [label=<chlorides &le; 0.045<br/>entropy = 0.918<br/>samples = 3<br/>value = [1, 0, 2]<br/>class = High>, fillcolor="#c09cf2"] ;
351 -> 352 ;
353 [label=<entropy = 0.0<br/>samples = 2<br/>value = [0, 0, 2]<br/>class = High>, fillcolor="#8139e5"] ;
352 -> 353 ;
354 [label=<entropy = 0.0<br/>samples = 1<br/>value = [1, 0, 0]<br/>class = Low>, fillcolor="#e58139"] ;
352 -> 354 ;
355 [label=<entropy = 0.0<br/>samples = 31<br/>value = [0, 0, 31]<br/>class = High>, fillcolor="#8139e5"] ;
351 -> 355 ;
356 [label=<alcohol &le; 11.725<br/>entropy = 1.13<br/>samples = 1040<br/>value = [394, 31, 615]<br/>class = High>, fillcolor="#d4bbf6"] ;
0 -> 356 [labeldistance=2.5, labelangle=-45, headlabel="False"] ;
357 [label=<volatile acidity &le; 0.455<br/>entropy = 1.079<br/>samples = 564<br/>value = [148.0, 26.0, 390.0]<br/>class = High>, fillcolor="#b68cf0"] ;
356 -> 357 ;
358 [label=<sulphates &le; 0.625<br/>entropy = 1.046<br/>samples = 466<br/>value = [142, 12, 312]<br/>class = High>, fillcolor="#bd97f1"] ;
357 -> 358 ;
359 [label=<free sulfur dioxide &le; 21.5<br/>entropy = 1.007<br/>samples = 369<br/>value = [96.0, 11.0, 262.0]<br/>class = High>, fillcolor="#b287ef"] ;
358 -> 359 ;
360 [label=<chlorides &le; 0.035<br/>entropy = 0.98<br/>samples = 102<br/>value = [15, 8, 79]<br/>class = High>, fillcolor="#a26dec"] ;
359 -> 360 ;
361 [label=<free sulfur dioxide &le; 11.5<br/>entropy = 1.226<br/>samples = 32<br/>value = [11, 2, 19]<br/>class = High>, fillcolor="#cfb4f5"] ;
360 -> 361 ;
362 [label=<pH &le; 2.94<br/>entropy = 0.544<br/>samples = 8<br/>value = [0, 1, 7]<br/>class = High>, fillcolor="#9355e9"] ;
361 -> 362 ;
363 [label=<entropy = 0.0<br/>samples = 1<br/>value = [0, 1, 0]<br/>class = Standard>, fillcolor="#39e581"] ;
362 -> 363 ;
364 [label=<entropy = 0.0<br/>samples = 7<br/>value = [0, 0, 7]<br/>class = High>, fillcolor="#8139e5"] ;
362 -> 364 ;
365 [label=<sulphates &le; 0.375<br/>entropy = 1.207<br/>samples = 24<br/>value = [11, 1, 12]<br/>class = High>, fillcolor="#f5f0fd"] ;
361 -> 365 ;
366 [label=<free sulfur dioxide &le; 18.0<br/>entropy = 0.918<br/>samples = 3<br/>value = [2, 1, 0]<br/>class = Low>, fillcolor="#f2c09c"] ;
365 -> 366 ;
367 [label=<entropy = 0.0<br/>samples = 2<br/>value = [2, 0, 0]<br/>class = Low>, fillcolor="#e58139"] ;
366 -> 367 ;
368 [label=<entropy = 0.0<br/>samples = 1<br/>value = [0, 1, 0]<br/>class = Standard>, fillcolor="#39e581"] ;
366 -> 368 ;
369 [label=<residual sugar &le; 1.25<br/>entropy = 0.985<br/>samples = 21<br/>value = [9, 0, 12]<br/>class = High>, fillcolor="#e0cef8"] ;
365 -> 369 ;
370 [label=<entropy = 0.0<br/>samples = 5<br/>value = [0, 0, 5]<br/>class = High>, fillcolor="#8139e5"] ;
369 -> 370 ;
371 [label=<sulphates &le; 0.515<br/>entropy = 0.989<br/>samples = 16<br/>value = [9, 0, 7]<br/>class = Low>, fillcolor="#f9e3d3"] ;
369 -> 371 ;
372 [label=<total sulfur dioxide &le; 118.5<br/>entropy = 0.918<br/>samples = 9<br/>value = [3, 0, 6]<br/>class = High>, fillcolor="#c09cf2"] ;
371 -> 372 ;
373 [label=<residual sugar &le; 1.45<br/>entropy = 0.592<br/>samples = 7<br/>value = [1, 0, 6]<br/>class = High>, fillcolor="#965ae9"] ;
372 -> 373 ;
374 [label=<entropy = 0.0<br/>samples = 1<br/>value = [1, 0, 0]<br/>class = Low>, fillcolor="#e58139"] ;
373 -> 374 ;
375 [label=<entropy = 0.0<br/>samples = 6<br/>value = [0, 0, 6]<br/>class = High>, fillcolor="#8139e5"] ;
373 -> 375 ;
376 [label=<entropy = 0.0<br/>samples = 2<br/>value = [2, 0, 0]<br/>class = Low>, fillcolor="#e58139"] ;
372 -> 376 ;
377 [label=<fixed acidity &le; 6.1<br/>entropy = 0.592<br/>samples = 7<br/>value = [6, 0, 1]<br/>class = Low>, fillcolor="#e9965a"] ;
371 -> 377 ;
378 [label=<entropy = 0.0<br/>samples = 1<br/>value = [0, 0, 1]<br/>class = High>, fillcolor="#8139e5"] ;
377 -> 378 ;
379 [label=<entropy = 0.0<br/>samples = 6<br/>value = [6, 0, 0]<br/>class = Low>, fillcolor="#e58139"] ;
377 -> 379 ;
380 [label=<alcohol &le; 11.15<br/>entropy = 0.73<br/>samples = 70<br/>value = [4, 6, 60]<br/>class = High>, fillcolor="#9558e9"] ;
360 -> 380 ;
381 [label=<entropy = 0.0<br/>samples = 27<br/>value = [0, 0, 27]<br/>class = High>, fillcolor="#8139e5"] ;
380 -> 381 ;
382 [label=<total sulfur dioxide &le; 10.5<br/>entropy = 1.008<br/>samples = 43<br/>value = [4, 6, 33]<br/>class = High>, fillcolor="#a36fec"] ;
380 -> 382 ;
383 [label=<entropy = 0.0<br/>samples = 2<br/>value = [2, 0, 0]<br/>class = Low>, fillcolor="#e58139"] ;
382 -> 383 ;
384 [label=<citric acid &le; 0.36<br/>entropy = 0.87<br/>samples = 41<br/>value = [2, 6, 33]<br/>class = High>, fillcolor="#9e66eb"] ;
382 -> 384 ;
385 [label=<free sulfur dioxide &le; 12.5<br/>entropy = 1.14<br/>samples = 26<br/>value = [2, 6, 18]<br/>class = High>, fillcolor="#b388ef"] ;
384 -> 385 ;
386 [label=<density &le; 0.991<br/>entropy = 1.53<br/>samples = 9<br/>value = [2, 4, 3]<br/>class = Standard>, fillcolor="#defbea"] ;
385 -> 386 ;
387 [label=<entropy = 0.0<br/>samples = 2<br/>value = [0, 0, 2]<br/>class = High>, fillcolor="#8139e5"] ;
386 -> 387 ;
388 [label=<total sulfur dioxide &le; 46.0<br/>entropy = 1.379<br/>samples = 7<br/>value = [2, 4, 1]<br/>class = Standard>, fillcolor="#b0f5cd"] ;
386 -> 388 ;
389 [label=<entropy = 0.0<br/>samples = 1<br/>value = [0, 0, 1]<br/>class = High>, fillcolor="#8139e5"] ;
388 -> 389 ;
390 [label=<citric acid &le; 0.315<br/>entropy = 0.918<br/>samples = 6<br/>value = [2, 4, 0]<br/>class = Standard>, fillcolor="#9cf2c0"] ;
388 -> 390 ;
391 [label=<pH &le; 3.285<br/>entropy = 0.918<br/>samples = 3<br/>value = [2, 1, 0]<br/>class = Low>, fillcolor="#f2c09c"] ;
390 -> 391 ;
392 [label=<entropy = 0.0<br/>samples = 2<br/>value = [2, 0, 0]<br/>class = Low>, fillcolor="#e58139"] ;
391 -> 392 ;
393 [label=<entropy = 0.0<br/>samples = 1<br/>value = [0, 1, 0]<br/>class = Standard>, fillcolor="#39e581"] ;
391 -> 393 ;
394 [label=<entropy = 0.0<br/>samples = 3<br/>value = [0, 3, 0]<br/>class = Standard>, fillcolor="#39e581"] ;
390 -> 394 ;
395 [label=<volatile acidity &le; 0.31<br/>entropy = 0.523<br/>samples = 17<br/>value = [0, 2, 15]<br/>class = High>, fillcolor="#9253e8"] ;
385 -> 395 ;
396 [label=<entropy = 0.0<br/>samples = 14<br/>value = [0, 0, 14]<br/>class = High>, fillcolor="#8139e5"] ;
395 -> 396 ;
397 [label=<citric acid &le; 0.325<br/>entropy = 0.918<br/>samples = 3<br/>value = [0, 2, 1]<br/>class = Standard>, fillcolor="#9cf2c0"] ;
395 -> 397 ;
398 [label=<entropy = 0.0<br/>samples = 2<br/>value = [0, 2, 0]<br/>class = Standard>, fillcolor="#39e581"] ;
397 -> 398 ;
399 [label=<entropy = 0.0<br/>samples = 1<br/>value = [0, 0, 1]<br/>class = High>, fillcolor="#8139e5"] ;
397 -> 399 ;
400 [label=<entropy = 0.0<br/>samples = 15<br/>value = [0, 0, 15]<br/>class = High>, fillcolor="#8139e5"] ;
384 -> 400 ;
401 [label=<fixed acidity &le; 8.15<br/>entropy = 0.968<br/>samples = 267<br/>value = [81, 3, 183]<br/>class = High>, fillcolor="#ba92f1"] ;
359 -> 401 ;
402 [label=<residual sugar &le; 11.4<br/>entropy = 0.891<br/>samples = 253<br/>value = [78, 0, 175]<br/>class = High>, fillcolor="#b991f1"] ;
401 -> 402 ;
403 [label=<residual sugar &le; 9.75<br/>entropy = 0.91<br/>samples = 240<br/>value = [78, 0, 162]<br/>class = High>, fillcolor="#be98f2"] ;
402 -> 403 ;
404 [label=<volatile acidity &le; 0.142<br/>entropy = 0.876<br/>samples = 223<br/>value = [66, 0, 157]<br/>class = High>, fillcolor="#b68cf0"] ;
403 -> 404 ;
405 [label=<free sulfur dioxide &le; 32.0<br/>entropy = 0.722<br/>samples = 10<br/>value = [8, 0, 2]<br/>class = Low>, fillcolor="#eca06a"] ;
404 -> 405 ;
406 [label=<sulphates &le; 0.47<br/>entropy = 0.918<br/>samples = 3<br/>value = [1, 0, 2]<br/>class = High>, fillcolor="#c09cf2"] ;
405 -> 406 ;
407 [label=<entropy = 0.0<br/>samples = 1<br/>value = [1, 0, 0]<br/>class = Low>, fillcolor="#e58139"] ;
406 -> 407 ;
408 [label=<entropy = 0.0<br/>samples = 2<br/>value = [0, 0, 2]<br/>class = High>, fillcolor="#8139e5"] ;
406 -> 408 ;
409 [label=<entropy = 0.0<br/>samples = 7<br/>value = [7, 0, 0]<br/>class = Low>, fillcolor="#e58139"] ;
405 -> 409 ;
410 [label=<chlorides &le; 0.03<br/>entropy = 0.845<br/>samples = 213<br/>value = [58, 0, 155]<br/>class = High>, fillcolor="#b083ef"] ;
404 -> 410 ;
411 [label=<sulphates &le; 0.435<br/>entropy = 1.0<br/>samples = 32<br/>value = [16, 0, 16]<br/>class = Low>, fillcolor="#ffffff"] ;
410 -> 411 ;
412 [label=<fixed acidity &le; 7.85<br/>entropy = 0.811<br/>samples = 20<br/>value = [15, 0, 5]<br/>class = Low>, fillcolor="#eeab7b"] ;
411 -> 412 ;
413 [label=<volatile acidity &le; 0.345<br/>entropy = 0.65<br/>samples = 18<br/>value = [15, 0, 3]<br/>class = Low>, fillcolor="#ea9a61"] ;
412 -> 413 ;
414 [label=<total sulfur dioxide &le; 166.5<br/>entropy = 0.337<br/>samples = 16<br/>value = [15, 0, 1]<br/>class = Low>, fillcolor="#e78946"] ;
413 -> 414 ;
415 [label=<entropy = 0.0<br/>samples = 14<br/>value = [14, 0, 0]<br/>class = Low>, fillcolor="#e58139"] ;
414 -> 415 ;
416 [label=<citric acid &le; 0.36<br/>entropy = 1.0<br/>samples = 2<br/>value = [1, 0, 1]<br/>class = Low>, fillcolor="#ffffff"] ;
414 -> 416 ;
417 [label=<entropy = 0.0<br/>samples = 1<br/>value = [1, 0, 0]<br/>class = Low>, fillcolor="#e58139"] ;
416 -> 417 ;
418 [label=<entropy = 0.0<br/>samples = 1<br/>value = [0, 0, 1]<br/>class = High>, fillcolor="#8139e5"] ;
416 -> 418 ;
419 [label=<entropy = 0.0<br/>samples = 2<br/>value = [0, 0, 2]<br/>class = High>, fillcolor="#8139e5"] ;
413 -> 419 ;
420 [label=<entropy = 0.0<br/>samples = 2<br/>value = [0, 0, 2]<br/>class = High>, fillcolor="#8139e5"] ;
412 -> 420 ;
421 [label=<total sulfur dioxide &le; 88.0<br/>entropy = 0.414<br/>samples = 12<br/>value = [1, 0, 11]<br/>class = High>, fillcolor="#8c4be7"] ;
411 -> 421 ;
422 [label=<free sulfur dioxide &le; 28.5<br/>entropy = 1.0<br/>samples = 2<br/>value = [1, 0, 1]<br/>class = Low>, fillcolor="#ffffff"] ;
421 -> 422 ;
423 [label=<entropy = 0.0<br/>samples = 1<br/>value = [1, 0, 0]<br/>class = Low>, fillcolor="#e58139"] ;
422 -> 423 ;
424 [label=<entropy = 0.0<br/>samples = 1<br/>value = [0, 0, 1]<br/>class = High>, fillcolor="#8139e5"] ;
422 -> 424 ;
425 [label=<entropy = 0.0<br/>samples = 10<br/>value = [0, 0, 10]<br/>class = High>, fillcolor="#8139e5"] ;
421 -> 425 ;
426 [label=<free sulfur dioxide &le; 25.5<br/>entropy = 0.782<br/>samples = 181<br/>value = [42, 0, 139]<br/>class = High>, fillcolor="#a775ed"] ;
410 -> 426 ;
427 [label=<entropy = 0.0<br/>samples = 22<br/>value = [0, 0, 22]<br/>class = High>, fillcolor="#8139e5"] ;
426 -> 427 ;
428 [label=<citric acid &le; 0.275<br/>entropy = 0.833<br/>samples = 159<br/>value = [42.0, 0.0, 117.0]<br/>class = High>, fillcolor="#ae80ee"] ;
426 -> 428 ;
429 [label=<pH &le; 3.345<br/>entropy = 0.469<br/>samples = 40<br/>value = [4, 0, 36]<br/>class = High>, fillcolor="#8f4fe8"] ;
428 -> 429 ;
430 [label=<volatile acidity &le; 0.385<br/>entropy = 0.201<br/>samples = 32<br/>value = [1, 0, 31]<br/>class = High>, fillcolor="#853fe6"] ;
429 -> 430 ;
431 [label=<entropy = 0.0<br/>samples = 28<br/>value = [0, 0, 28]<br/>class = High>, fillcolor="#8139e5"] ;
430 -> 431 ;
432 [label=<free sulfur dioxide &le; 44.0<br/>entropy = 0.811<br/>samples = 4<br/>value = [1, 0, 3]<br/>class = High>, fillcolor="#ab7bee"] ;
430 -> 432 ;
433 [label=<entropy = 0.0<br/>samples = 3<br/>value = [0, 0, 3]<br/>class = High>, fillcolor="#8139e5"] ;
432 -> 433 ;
434 [label=<entropy = 0.0<br/>samples = 1<br/>value = [1, 0, 0]<br/>class = Low>, fillcolor="#e58139"] ;
432 -> 434 ;
435 [label=<pH &le; 3.435<br/>entropy = 0.954<br/>samples = 8<br/>value = [3, 0, 5]<br/>class = High>, fillcolor="#cdb0f5"] ;
429 -> 435 ;
436 [label=<volatile acidity &le; 0.305<br/>entropy = 0.811<br/>samples = 4<br/>value = [3, 0, 1]<br/>class = Low>, fillcolor="#eeab7b"] ;
435 -> 436 ;
437 [label=<entropy = 0.0<br/>samples = 3<br/>value = [3, 0, 0]<br/>class = Low>, fillcolor="#e58139"] ;
436 -> 437 ;
438 [label=<entropy = 0.0<br/>samples = 1<br/>value = [0, 0, 1]<br/>class = High>, fillcolor="#8139e5"] ;
436 -> 438 ;
439 [label=<entropy = 0.0<br/>samples = 4<br/>value = [0, 0, 4]<br/>class = High>, fillcolor="#8139e5"] ;
435 -> 439 ;
440 [label=<total sulfur dioxide &le; 106.5<br/>entropy = 0.904<br/>samples = 119<br/>value = [38, 0, 81]<br/>class = High>, fillcolor="#bc96f1"] ;
428 -> 440 ;
441 [label=<sulphates &le; 0.375<br/>entropy = 0.439<br/>samples = 22<br/>value = [2, 0, 20]<br/>class = High>, fillcolor="#8e4de8"] ;
440 -> 441 ;
442 [label=<entropy = 0.0<br/>samples = 1<br/>value = [1, 0, 0]<br/>class = Low>, fillcolor="#e58139"] ;
441 -> 442 ;
443 [label=<fixed acidity &le; 7.45<br/>entropy = 0.276<br/>samples = 21<br/>value = [1, 0, 20]<br/>class = High>, fillcolor="#8743e6"] ;
441 -> 443 ;
444 [label=<entropy = 0.0<br/>samples = 19<br/>value = [0, 0, 19]<br/>class = High>, fillcolor="#8139e5"] ;
443 -> 444 ;
445 [label=<alcohol &le; 11.475<br/>entropy = 1.0<br/>samples = 2<br/>value = [1, 0, 1]<br/>class = Low>, fillcolor="#ffffff"] ;
443 -> 445 ;
446 [label=<entropy = 0.0<br/>samples = 1<br/>value = [0, 0, 1]<br/>class = High>, fillcolor="#8139e5"] ;
445 -> 446 ;
447 [label=<entropy = 0.0<br/>samples = 1<br/>value = [1, 0, 0]<br/>class = Low>, fillcolor="#e58139"] ;
445 -> 447 ;
448 [label=<pH &le; 3.245<br/>entropy = 0.952<br/>samples = 97<br/>value = [36, 0, 61]<br/>class = High>, fillcolor="#cbaef4"] ;
440 -> 448 ;
449 [label=<pH &le; 3.195<br/>entropy = 0.804<br/>samples = 57<br/>value = [14, 0, 43]<br/>class = High>, fillcolor="#aa79ed"] ;
448 -> 449 ;
450 [label=<volatile acidity &le; 0.245<br/>entropy = 0.918<br/>samples = 42<br/>value = [14, 0, 28]<br/>class = High>, fillcolor="#c09cf2"] ;
449 -> 450 ;
451 [label=<citric acid &le; 0.455<br/>entropy = 0.954<br/>samples = 16<br/>value = [10, 0, 6]<br/>class = Low>, fillcolor="#f5cdb0"] ;
450 -> 451 ;
452 [label=<citric acid &le; 0.355<br/>entropy = 1.0<br/>samples = 12<br/>value = [6, 0, 6]<br/>class = Low>, fillcolor="#ffffff"] ;
451 -> 452 ;
453 [label=<citric acid &le; 0.285<br/>entropy = 0.863<br/>samples = 7<br/>value = [5, 0, 2]<br/>class = Low>, fillcolor="#efb388"] ;
452 -> 453 ;
454 [label=<entropy = 0.0<br/>samples = 2<br/>value = [0, 0, 2]<br/>class = High>, fillcolor="#8139e5"] ;
453 -> 454 ;
455 [label=<entropy = 0.0<br/>samples = 5<br/>value = [5, 0, 0]<br/>class = Low>, fillcolor="#e58139"] ;
453 -> 455 ;
456 [label=<pH &le; 3.095<br/>entropy = 0.722<br/>samples = 5<br/>value = [1, 0, 4]<br/>class = High>, fillcolor="#a06aec"] ;
452 -> 456 ;
457 [label=<entropy = 0.0<br/>samples = 1<br/>value = [1, 0, 0]<br/>class = Low>, fillcolor="#e58139"] ;
456 -> 457 ;
458 [label=<entropy = 0.0<br/>samples = 4<br/>value = [0, 0, 4]<br/>class = High>, fillcolor="#8139e5"] ;
456 -> 458 ;
459 [label=<entropy = 0.0<br/>samples = 4<br/>value = [4, 0, 0]<br/>class = Low>, fillcolor="#e58139"] ;
451 -> 459 ;
460 [label=<total sulfur dioxide &le; 122.5<br/>entropy = 0.619<br/>samples = 26<br/>value = [4, 0, 22]<br/>class = High>, fillcolor="#985dea"] ;
450 -> 460 ;
461 [label=<pH &le; 3.17<br/>entropy = 0.971<br/>samples = 5<br/>value = [3, 0, 2]<br/>class = Low>, fillcolor="#f6d5bd"] ;
460 -> 461 ;
462 [label=<total sulfur dioxide &le; 120.5<br/>entropy = 0.918<br/>samples = 3<br/>value = [1, 0, 2]<br/>class = High>, fillcolor="#c09cf2"] ;
461 -> 462 ;
463 [label=<entropy = 0.0<br/>samples = 2<br/>value = [0, 0, 2]<br/>class = High>, fillcolor="#8139e5"] ;
462 -> 463 ;
464 [label=<entropy = 0.0<br/>samples = 1<br/>value = [1, 0, 0]<br/>class = Low>, fillcolor="#e58139"] ;
462 -> 464 ;
465 [label=<entropy = 0.0<br/>samples = 2<br/>value = [2, 0, 0]<br/>class = Low>, fillcolor="#e58139"] ;
461 -> 465 ;
466 [label=<volatile acidity &le; 0.365<br/>entropy = 0.276<br/>samples = 21<br/>value = [1, 0, 20]<br/>class = High>, fillcolor="#8743e6"] ;
460 -> 466 ;
467 [label=<entropy = 0.0<br/>samples = 20<br/>value = [0, 0, 20]<br/>class = High>, fillcolor="#8139e5"] ;
466 -> 467 ;
468 [label=<entropy = 0.0<br/>samples = 1<br/>value = [1, 0, 0]<br/>class = Low>, fillcolor="#e58139"] ;
466 -> 468 ;
469 [label=<entropy = 0.0<br/>samples = 15<br/>value = [0, 0, 15]<br/>class = High>, fillcolor="#8139e5"] ;
449 -> 469 ;
470 [label=<citric acid &le; 0.305<br/>entropy = 0.993<br/>samples = 40<br/>value = [22, 0, 18]<br/>class = Low>, fillcolor="#fae8db"] ;
448 -> 470 ;
471 [label=<alcohol &le; 10.95<br/>entropy = 0.439<br/>samples = 11<br/>value = [10, 0, 1]<br/>class = Low>, fillcolor="#e88e4d"] ;
470 -> 471 ;
472 [label=<entropy = 0.0<br/>samples = 1<br/>value = [0, 0, 1]<br/>class = High>, fillcolor="#8139e5"] ;
471 -> 472 ;
473 [label=<entropy = 0.0<br/>samples = 10<br/>value = [10, 0, 0]<br/>class = Low>, fillcolor="#e58139"] ;
471 -> 473 ;
474 [label=<free sulfur dioxide &le; 46.5<br/>entropy = 0.978<br/>samples = 29<br/>value = [12, 0, 17]<br/>class = High>, fillcolor="#dac5f7"] ;
470 -> 474 ;
475 [label=<free sulfur dioxide &le; 30.5<br/>entropy = 0.985<br/>samples = 21<br/>value = [12, 0, 9]<br/>class = Low>, fillcolor="#f8e0ce"] ;
474 -> 475 ;
476 [label=<total sulfur dioxide &le; 158.5<br/>entropy = 0.592<br/>samples = 7<br/>value = [1, 0, 6]<br/>class = High>, fillcolor="#965ae9"] ;
475 -> 476 ;
477 [label=<entropy = 0.0<br/>samples = 6<br/>value = [0, 0, 6]<br/>class = High>, fillcolor="#8139e5"] ;
476 -> 477 ;
478 [label=<entropy = 0.0<br/>samples = 1<br/>value = [1, 0, 0]<br/>class = Low>, fillcolor="#e58139"] ;
476 -> 478 ;
479 [label=<citric acid &le; 0.315<br/>entropy = 0.75<br/>samples = 14<br/>value = [11, 0, 3]<br/>class = Low>, fillcolor="#eca36f"] ;
475 -> 479 ;
480 [label=<entropy = 0.0<br/>samples = 2<br/>value = [0, 0, 2]<br/>class = High>, fillcolor="#8139e5"] ;
479 -> 480 ;
481 [label=<free sulfur dioxide &le; 40.0<br/>entropy = 0.414<br/>samples = 12<br/>value = [11, 0, 1]<br/>class = Low>, fillcolor="#e78c4b"] ;
479 -> 481 ;
482 [label=<entropy = 0.0<br/>samples = 10<br/>value = [10, 0, 0]<br/>class = Low>, fillcolor="#e58139"] ;
481 -> 482 ;
483 [label=<sulphates &le; 0.485<br/>entropy = 1.0<br/>samples = 2<br/>value = [1, 0, 1]<br/>class = Low>, fillcolor="#ffffff"] ;
481 -> 483 ;
484 [label=<entropy = 0.0<br/>samples = 1<br/>value = [1, 0, 0]<br/>class = Low>, fillcolor="#e58139"] ;
483 -> 484 ;
485 [label=<entropy = 0.0<br/>samples = 1<br/>value = [0, 0, 1]<br/>class = High>, fillcolor="#8139e5"] ;
483 -> 485 ;
486 [label=<entropy = 0.0<br/>samples = 8<br/>value = [0, 0, 8]<br/>class = High>, fillcolor="#8139e5"] ;
474 -> 486 ;
487 [label=<free sulfur dioxide &le; 46.0<br/>entropy = 0.874<br/>samples = 17<br/>value = [12, 0, 5]<br/>class = Low>, fillcolor="#f0b58b"] ;
403 -> 487 ;
488 [label=<total sulfur dioxide &le; 97.5<br/>entropy = 0.414<br/>samples = 12<br/>value = [11, 0, 1]<br/>class = Low>, fillcolor="#e78c4b"] ;
487 -> 488 ;
489 [label=<entropy = 0.0<br/>samples = 1<br/>value = [0, 0, 1]<br/>class = High>, fillcolor="#8139e5"] ;
488 -> 489 ;
490 [label=<entropy = 0.0<br/>samples = 11<br/>value = [11, 0, 0]<br/>class = Low>, fillcolor="#e58139"] ;
488 -> 490 ;
491 [label=<citric acid &le; 0.395<br/>entropy = 0.722<br/>samples = 5<br/>value = [1, 0, 4]<br/>class = High>, fillcolor="#a06aec"] ;
487 -> 491 ;
492 [label=<entropy = 0.0<br/>samples = 4<br/>value = [0, 0, 4]<br/>class = High>, fillcolor="#8139e5"] ;
491 -> 492 ;
493 [label=<entropy = 0.0<br/>samples = 1<br/>value = [1, 0, 0]<br/>class = Low>, fillcolor="#e58139"] ;
491 -> 493 ;
494 [label=<entropy = 0.0<br/>samples = 13<br/>value = [0, 0, 13]<br/>class = High>, fillcolor="#8139e5"] ;
402 -> 494 ;
495 [label=<residual sugar &le; 1.85<br/>entropy = 1.414<br/>samples = 14<br/>value = [3, 3, 8]<br/>class = High>, fillcolor="#c6a5f3"] ;
401 -> 495 ;
496 [label=<sulphates &le; 0.365<br/>entropy = 0.811<br/>samples = 4<br/>value = [3, 1, 0]<br/>class = Low>, fillcolor="#eeab7b"] ;
495 -> 496 ;
497 [label=<entropy = 0.0<br/>samples = 1<br/>value = [0, 1, 0]<br/>class = Standard>, fillcolor="#39e581"] ;
496 -> 497 ;
498 [label=<entropy = 0.0<br/>samples = 3<br/>value = [3, 0, 0]<br/>class = Low>, fillcolor="#e58139"] ;
496 -> 498 ;
499 [label=<alcohol &le; 11.1<br/>entropy = 0.722<br/>samples = 10<br/>value = [0, 2, 8]<br/>class = High>, fillcolor="#a06aec"] ;
495 -> 499 ;
500 [label=<volatile acidity &le; 0.325<br/>entropy = 0.918<br/>samples = 3<br/>value = [0, 2, 1]<br/>class = Standard>, fillcolor="#9cf2c0"] ;
499 -> 500 ;
501 [label=<entropy = 0.0<br/>samples = 2<br/>value = [0, 2, 0]<br/>class = Standard>, fillcolor="#39e581"] ;
500 -> 501 ;
502 [label=<entropy = 0.0<br/>samples = 1<br/>value = [0, 0, 1]<br/>class = High>, fillcolor="#8139e5"] ;
500 -> 502 ;
503 [label=<entropy = 0.0<br/>samples = 7<br/>value = [0, 0, 7]<br/>class = High>, fillcolor="#8139e5"] ;
499 -> 503 ;
504 [label=<pH &le; 3.01<br/>entropy = 1.071<br/>samples = 97<br/>value = [46.0, 1.0, 50.0]<br/>class = High>, fillcolor="#f5effd"] ;
358 -> 504 ;
505 [label=<sulphates &le; 0.775<br/>entropy = 0.722<br/>samples = 5<br/>value = [0, 1, 4]<br/>class = High>, fillcolor="#a06aec"] ;
504 -> 505 ;
506 [label=<entropy = 0.0<br/>samples = 4<br/>value = [0, 0, 4]<br/>class = High>, fillcolor="#8139e5"] ;
505 -> 506 ;
507 [label=<entropy = 0.0<br/>samples = 1<br/>value = [0, 1, 0]<br/>class = Standard>, fillcolor="#39e581"] ;
505 -> 507 ;
508 [label=<free sulfur dioxide &le; 36.5<br/>entropy = 1.0<br/>samples = 92<br/>value = [46, 0, 46]<br/>class = Low>, fillcolor="#ffffff"] ;
504 -> 508 ;
509 [label=<residual sugar &le; 1.95<br/>entropy = 0.98<br/>samples = 72<br/>value = [30, 0, 42]<br/>class = High>, fillcolor="#dbc6f8"] ;
508 -> 509 ;
510 [label=<chlorides &le; 0.039<br/>entropy = 0.65<br/>samples = 24<br/>value = [4, 0, 20]<br/>class = High>, fillcolor="#9a61ea"] ;
509 -> 510 ;
511 [label=<pH &le; 3.22<br/>entropy = 1.0<br/>samples = 6<br/>value = [3, 0, 3]<br/>class = Low>, fillcolor="#ffffff"] ;
510 -> 511 ;
512 [label=<entropy = 0.0<br/>samples = 3<br/>value = [0, 0, 3]<br/>class = High>, fillcolor="#8139e5"] ;
511 -> 512 ;
513 [label=<entropy = 0.0<br/>samples = 3<br/>value = [3, 0, 0]<br/>class = Low>, fillcolor="#e58139"] ;
511 -> 513 ;
514 [label=<sulphates &le; 0.96<br/>entropy = 0.31<br/>samples = 18<br/>value = [1, 0, 17]<br/>class = High>, fillcolor="#8845e7"] ;
510 -> 514 ;
515 [label=<entropy = 0.0<br/>samples = 16<br/>value = [0, 0, 16]<br/>class = High>, fillcolor="#8139e5"] ;
514 -> 515 ;
516 [label=<alcohol &le; 10.9<br/>entropy = 1.0<br/>samples = 2<br/>value = [1, 0, 1]<br/>class = Low>, fillcolor="#ffffff"] ;
514 -> 516 ;
517 [label=<entropy = 0.0<br/>samples = 1<br/>value = [1, 0, 0]<br/>class = Low>, fillcolor="#e58139"] ;
516 -> 517 ;
518 [label=<entropy = 0.0<br/>samples = 1<br/>value = [0, 0, 1]<br/>class = High>, fillcolor="#8139e5"] ;
516 -> 518 ;
519 [label=<total sulfur dioxide &le; 35.5<br/>entropy = 0.995<br/>samples = 48<br/>value = [26, 0, 22]<br/>class = Low>, fillcolor="#fbece1"] ;
509 -> 519 ;
520 [label=<density &le; 0.996<br/>entropy = 0.773<br/>samples = 22<br/>value = [17, 0, 5]<br/>class = Low>, fillcolor="#eda673"] ;
519 -> 520 ;
521 [label=<entropy = 0.0<br/>samples = 10<br/>value = [10, 0, 0]<br/>class = Low>, fillcolor="#e58139"] ;
520 -> 521 ;
522 [label=<citric acid &le; 0.37<br/>entropy = 0.98<br/>samples = 12<br/>value = [7, 0, 5]<br/>class = Low>, fillcolor="#f8dbc6"] ;
520 -> 522 ;
523 [label=<entropy = 0.0<br/>samples = 2<br/>value = [0, 0, 2]<br/>class = High>, fillcolor="#8139e5"] ;
522 -> 523 ;
524 [label=<volatile acidity &le; 0.43<br/>entropy = 0.881<br/>samples = 10<br/>value = [7, 0, 3]<br/>class = Low>, fillcolor="#f0b78e"] ;
522 -> 524 ;
525 [label=<total sulfur dioxide &le; 30.5<br/>entropy = 0.544<br/>samples = 8<br/>value = [7, 0, 1]<br/>class = Low>, fillcolor="#e99355"] ;
524 -> 525 ;
526 [label=<entropy = 0.0<br/>samples = 7<br/>value = [7, 0, 0]<br/>class = Low>, fillcolor="#e58139"] ;
525 -> 526 ;
527 [label=<entropy = 0.0<br/>samples = 1<br/>value = [0, 0, 1]<br/>class = High>, fillcolor="#8139e5"] ;
525 -> 527 ;
528 [label=<entropy = 0.0<br/>samples = 2<br/>value = [0, 0, 2]<br/>class = High>, fillcolor="#8139e5"] ;
524 -> 528 ;
529 [label=<density &le; 0.993<br/>entropy = 0.931<br/>samples = 26<br/>value = [9, 0, 17]<br/>class = High>, fillcolor="#c4a2f3"] ;
519 -> 529 ;
530 [label=<total sulfur dioxide &le; 84.0<br/>entropy = 0.592<br/>samples = 7<br/>value = [6, 0, 1]<br/>class = Low>, fillcolor="#e9965a"] ;
529 -> 530 ;
531 [label=<entropy = 0.0<br/>samples = 1<br/>value = [0, 0, 1]<br/>class = High>, fillcolor="#8139e5"] ;
530 -> 531 ;
532 [label=<entropy = 0.0<br/>samples = 6<br/>value = [6, 0, 0]<br/>class = Low>, fillcolor="#e58139"] ;
530 -> 532 ;
533 [label=<fixed acidity &le; 7.45<br/>entropy = 0.629<br/>samples = 19<br/>value = [3, 0, 16]<br/>class = High>, fillcolor="#995eea"] ;
529 -> 533 ;
534 [label=<sulphates &le; 0.705<br/>entropy = 0.918<br/>samples = 9<br/>value = [3, 0, 6]<br/>class = High>, fillcolor="#c09cf2"] ;
533 -> 534 ;
535 [label=<entropy = 0.0<br/>samples = 5<br/>value = [0, 0, 5]<br/>class = High>, fillcolor="#8139e5"] ;
534 -> 535 ;
536 [label=<alcohol &le; 11.25<br/>entropy = 0.811<br/>samples = 4<br/>value = [3, 0, 1]<br/>class = Low>, fillcolor="#eeab7b"] ;
534 -> 536 ;
537 [label=<entropy = 0.0<br/>samples = 3<br/>value = [3, 0, 0]<br/>class = Low>, fillcolor="#e58139"] ;
536 -> 537 ;
538 [label=<entropy = 0.0<br/>samples = 1<br/>value = [0, 0, 1]<br/>class = High>, fillcolor="#8139e5"] ;
536 -> 538 ;
539 [label=<entropy = 0.0<br/>samples = 10<br/>value = [0, 0, 10]<br/>class = High>, fillcolor="#8139e5"] ;
533 -> 539 ;
540 [label=<pH &le; 3.35<br/>entropy = 0.722<br/>samples = 20<br/>value = [16, 0, 4]<br/>class = Low>, fillcolor="#eca06a"] ;
508 -> 540 ;
541 [label=<chlorides &le; 0.024<br/>entropy = 0.337<br/>samples = 16<br/>value = [15, 0, 1]<br/>class = Low>, fillcolor="#e78946"] ;
540 -> 541 ;
542 [label=<entropy = 0.0<br/>samples = 1<br/>value = [0, 0, 1]<br/>class = High>, fillcolor="#8139e5"] ;
541 -> 542 ;
543 [label=<entropy = 0.0<br/>samples = 15<br/>value = [15, 0, 0]<br/>class = Low>, fillcolor="#e58139"] ;
541 -> 543 ;
544 [label=<volatile acidity &le; 0.385<br/>entropy = 0.811<br/>samples = 4<br/>value = [1, 0, 3]<br/>class = High>, fillcolor="#ab7bee"] ;
540 -> 544 ;
545 [label=<entropy = 0.0<br/>samples = 3<br/>value = [0, 0, 3]<br/>class = High>, fillcolor="#8139e5"] ;
544 -> 545 ;
546 [label=<entropy = 0.0<br/>samples = 1<br/>value = [1, 0, 0]<br/>class = Low>, fillcolor="#e58139"] ;
544 -> 546 ;
547 [label=<volatile acidity &le; 0.925<br/>entropy = 0.91<br/>samples = 98<br/>value = [6, 14, 78]<br/>class = High>, fillcolor="#9f68eb"] ;
357 -> 547 ;
548 [label=<density &le; 0.991<br/>entropy = 0.783<br/>samples = 89<br/>value = [6, 8, 75]<br/>class = High>, fillcolor="#975be9"] ;
547 -> 548 ;
549 [label=<entropy = 0.0<br/>samples = 3<br/>value = [0, 3, 0]<br/>class = Standard>, fillcolor="#39e581"] ;
548 -> 549 ;
550 [label=<residual sugar &le; 3.675<br/>entropy = 0.679<br/>samples = 86<br/>value = [6, 5, 75]<br/>class = High>, fillcolor="#9254e9"] ;
548 -> 550 ;
551 [label=<free sulfur dioxide &le; 3.5<br/>entropy = 0.473<br/>samples = 71<br/>value = [5, 1, 65]<br/>class = High>, fillcolor="#8c4be7"] ;
550 -> 551 ;
552 [label=<citric acid &le; 0.07<br/>entropy = 0.918<br/>samples = 3<br/>value = [0, 1, 2]<br/>class = High>, fillcolor="#c09cf2"] ;
551 -> 552 ;
553 [label=<entropy = 0.0<br/>samples = 1<br/>value = [0, 1, 0]<br/>class = Standard>, fillcolor="#39e581"] ;
552 -> 553 ;
554 [label=<entropy = 0.0<br/>samples = 2<br/>value = [0, 0, 2]<br/>class = High>, fillcolor="#8139e5"] ;
552 -> 554 ;
555 [label=<citric acid &le; 0.565<br/>entropy = 0.379<br/>samples = 68<br/>value = [5, 0, 63]<br/>class = High>, fillcolor="#8b49e7"] ;
551 -> 555 ;
556 [label=<fixed acidity &le; 7.45<br/>entropy = 0.326<br/>samples = 67<br/>value = [4, 0, 63]<br/>class = High>, fillcolor="#8946e7"] ;
555 -> 556 ;
557 [label=<fixed acidity &le; 7.25<br/>entropy = 0.513<br/>samples = 35<br/>value = [4, 0, 31]<br/>class = High>, fillcolor="#9153e8"] ;
556 -> 557 ;
558 [label=<free sulfur dioxide &le; 24.5<br/>entropy = 0.337<br/>samples = 32<br/>value = [2, 0, 30]<br/>class = High>, fillcolor="#8946e7"] ;
557 -> 558 ;
559 [label=<entropy = 0.0<br/>samples = 24<br/>value = [0, 0, 24]<br/>class = High>, fillcolor="#8139e5"] ;
558 -> 559 ;
560 [label=<sulphates &le; 0.62<br/>entropy = 0.811<br/>samples = 8<br/>value = [2, 0, 6]<br/>class = High>, fillcolor="#ab7bee"] ;
558 -> 560 ;
561 [label=<entropy = 0.0<br/>samples = 4<br/>value = [0, 0, 4]<br/>class = High>, fillcolor="#8139e5"] ;
560 -> 561 ;
562 [label=<volatile acidity &le; 0.555<br/>entropy = 1.0<br/>samples = 4<br/>value = [2, 0, 2]<br/>class = Low>, fillcolor="#ffffff"] ;
560 -> 562 ;
563 [label=<entropy = 0.0<br/>samples = 2<br/>value = [0, 0, 2]<br/>class = High>, fillcolor="#8139e5"] ;
562 -> 563 ;
564 [label=<entropy = 0.0<br/>samples = 2<br/>value = [2, 0, 0]<br/>class = Low>, fillcolor="#e58139"] ;
562 -> 564 ;
565 [label=<chlorides &le; 0.072<br/>entropy = 0.918<br/>samples = 3<br/>value = [2, 0, 1]<br/>class = Low>, fillcolor="#f2c09c"] ;
557 -> 565 ;
566 [label=<entropy = 0.0<br/>samples = 1<br/>value = [0, 0, 1]<br/>class = High>, fillcolor="#8139e5"] ;
565 -> 566 ;
567 [label=<entropy = 0.0<br/>samples = 2<br/>value = [2, 0, 0]<br/>class = Low>, fillcolor="#e58139"] ;
565 -> 567 ;
568 [label=<entropy = 0.0<br/>samples = 32<br/>value = [0, 0, 32]<br/>class = High>, fillcolor="#8139e5"] ;
556 -> 568 ;
569 [label=<entropy = 0.0<br/>samples = 1<br/>value = [1, 0, 0]<br/>class = Low>, fillcolor="#e58139"] ;
555 -> 569 ;
570 [label=<chlorides &le; 0.069<br/>entropy = 1.159<br/>samples = 15<br/>value = [1, 4, 10]<br/>class = High>, fillcolor="#ba93f1"] ;
550 -> 570 ;
571 [label=<residual sugar &le; 6.15<br/>entropy = 1.449<br/>samples = 7<br/>value = [1, 3, 3]<br/>class = Standard>, fillcolor="#ffffff"] ;
570 -> 571 ;
572 [label=<residual sugar &le; 5.6<br/>entropy = 0.918<br/>samples = 3<br/>value = [1, 2, 0]<br/>class = Standard>, fillcolor="#9cf2c0"] ;
571 -> 572 ;
573 [label=<entropy = 0.0<br/>samples = 2<br/>value = [0, 2, 0]<br/>class = Standard>, fillcolor="#39e581"] ;
572 -> 573 ;
574 [label=<entropy = 0.0<br/>samples = 1<br/>value = [1, 0, 0]<br/>class = Low>, fillcolor="#e58139"] ;
572 -> 574 ;
575 [label=<residual sugar &le; 13.85<br/>entropy = 0.811<br/>samples = 4<br/>value = [0, 1, 3]<br/>class = High>, fillcolor="#ab7bee"] ;
571 -> 575 ;
576 [label=<entropy = 0.0<br/>samples = 3<br/>value = [0, 0, 3]<br/>class = High>, fillcolor="#8139e5"] ;
575 -> 576 ;
577 [label=<entropy = 0.0<br/>samples = 1<br/>value = [0, 1, 0]<br/>class = Standard>, fillcolor="#39e581"] ;
575 -> 577 ;
578 [label=<citric acid &le; 0.035<br/>entropy = 0.544<br/>samples = 8<br/>value = [0, 1, 7]<br/>class = High>, fillcolor="#9355e9"] ;
570 -> 578 ;
579 [label=<entropy = 0.0<br/>samples = 1<br/>value = [0, 1, 0]<br/>class = Standard>, fillcolor="#39e581"] ;
578 -> 579 ;
580 [label=<entropy = 0.0<br/>samples = 7<br/>value = [0, 0, 7]<br/>class = High>, fillcolor="#8139e5"] ;
578 -> 580 ;
581 [label=<citric acid &le; 0.23<br/>entropy = 0.918<br/>samples = 9<br/>value = [0, 6, 3]<br/>class = Standard>, fillcolor="#9cf2c0"] ;
547 -> 581 ;
582 [label=<residual sugar &le; 1.9<br/>entropy = 0.592<br/>samples = 7<br/>value = [0, 6, 1]<br/>class = Standard>, fillcolor="#5ae996"] ;
581 -> 582 ;
583 [label=<entropy = 0.0<br/>samples = 1<br/>value = [0, 0, 1]<br/>class = High>, fillcolor="#8139e5"] ;
582 -> 583 ;
584 [label=<entropy = 0.0<br/>samples = 6<br/>value = [0, 6, 0]<br/>class = Standard>, fillcolor="#39e581"] ;
582 -> 584 ;
585 [label=<entropy = 0.0<br/>samples = 2<br/>value = [0, 0, 2]<br/>class = High>, fillcolor="#8139e5"] ;
581 -> 585 ;
586 [label=<volatile acidity &le; 0.545<br/>entropy = 1.072<br/>samples = 476<br/>value = [246.0, 5.0, 225.0]<br/>class = Low>, fillcolor="#fdf4ee"] ;
356 -> 586 ;
587 [label=<residual sugar &le; 1.725<br/>entropy = 1.032<br/>samples = 445<br/>value = [240, 2, 203]<br/>class = Low>, fillcolor="#fbece1"] ;
586 -> 587 ;
588 [label=<pH &le; 3.295<br/>entropy = 0.952<br/>samples = 105<br/>value = [39, 0, 66]<br/>class = High>, fillcolor="#cbaef4"] ;
587 -> 588 ;
589 [label=<density &le; 0.991<br/>entropy = 0.822<br/>samples = 74<br/>value = [19, 0, 55]<br/>class = High>, fillcolor="#ad7dee"] ;
588 -> 589 ;
590 [label=<volatile acidity &le; 0.345<br/>entropy = 0.901<br/>samples = 60<br/>value = [19, 0, 41]<br/>class = High>, fillcolor="#bb95f1"] ;
589 -> 590 ;
591 [label=<residual sugar &le; 0.95<br/>entropy = 0.856<br/>samples = 57<br/>value = [16, 0, 41]<br/>class = High>, fillcolor="#b286ef"] ;
590 -> 591 ;
592 [label=<entropy = 0.0<br/>samples = 8<br/>value = [0, 0, 8]<br/>class = High>, fillcolor="#8139e5"] ;
591 -> 592 ;
593 [label=<sulphates &le; 0.745<br/>entropy = 0.911<br/>samples = 49<br/>value = [16.0, 0.0, 33.0]<br/>class = High>, fillcolor="#be99f2"] ;
591 -> 593 ;
594 [label=<fixed acidity &le; 7.65<br/>entropy = 0.879<br/>samples = 47<br/>value = [14, 0, 33]<br/>class = High>, fillcolor="#b68df0"] ;
593 -> 594 ;
595 [label=<total sulfur dioxide &le; 122.0<br/>entropy = 0.82<br/>samples = 43<br/>value = [11, 0, 32]<br/>class = High>, fillcolor="#ac7dee"] ;
594 -> 595 ;
596 [label=<total sulfur dioxide &le; 108.5<br/>entropy = 0.637<br/>samples = 31<br/>value = [5, 0, 26]<br/>class = High>, fillcolor="#995fea"] ;
595 -> 596 ;
597 [label=<fixed acidity &le; 6.7<br/>entropy = 0.811<br/>samples = 20<br/>value = [5, 0, 15]<br/>class = High>, fillcolor="#ab7bee"] ;
596 -> 597 ;
598 [label=<citric acid &le; 0.365<br/>entropy = 0.94<br/>samples = 14<br/>value = [5, 0, 9]<br/>class = High>, fillcolor="#c7a7f3"] ;
597 -> 598 ;
599 [label=<sulphates &le; 0.425<br/>entropy = 1.0<br/>samples = 10<br/>value = [5, 0, 5]<br/>class = Low>, fillcolor="#ffffff"] ;
598 -> 599 ;
600 [label=<volatile acidity &le; 0.22<br/>entropy = 0.863<br/>samples = 7<br/>value = [2, 0, 5]<br/>class = High>, fillcolor="#b388ef"] ;
599 -> 600 ;
601 [label=<entropy = 0.0<br/>samples = 2<br/>value = [2, 0, 0]<br/>class = Low>, fillcolor="#e58139"] ;
600 -> 601 ;
602 [label=<entropy = 0.0<br/>samples = 5<br/>value = [0, 0, 5]<br/>class = High>, fillcolor="#8139e5"] ;
600 -> 602 ;
603 [label=<entropy = 0.0<br/>samples = 3<br/>value = [3, 0, 0]<br/>class = Low>, fillcolor="#e58139"] ;
599 -> 603 ;
604 [label=<entropy = 0.0<br/>samples = 4<br/>value = [0, 0, 4]<br/>class = High>, fillcolor="#8139e5"] ;
598 -> 604 ;
605 [label=<entropy = 0.0<br/>samples = 6<br/>value = [0, 0, 6]<br/>class = High>, fillcolor="#8139e5"] ;
597 -> 605 ;
606 [label=<entropy = 0.0<br/>samples = 11<br/>value = [0, 0, 11]<br/>class = High>, fillcolor="#8139e5"] ;
596 -> 606 ;
607 [label=<total sulfur dioxide &le; 129.5<br/>entropy = 1.0<br/>samples = 12<br/>value = [6, 0, 6]<br/>class = Low>, fillcolor="#ffffff"] ;
595 -> 607 ;
608 [label=<entropy = 0.0<br/>samples = 5<br/>value = [5, 0, 0]<br/>class = Low>, fillcolor="#e58139"] ;
607 -> 608 ;
609 [label=<sulphates &le; 0.59<br/>entropy = 0.592<br/>samples = 7<br/>value = [1, 0, 6]<br/>class = High>, fillcolor="#965ae9"] ;
607 -> 609 ;
610 [label=<entropy = 0.0<br/>samples = 6<br/>value = [0, 0, 6]<br/>class = High>, fillcolor="#8139e5"] ;
609 -> 610 ;
611 [label=<entropy = 0.0<br/>samples = 1<br/>value = [1, 0, 0]<br/>class = Low>, fillcolor="#e58139"] ;
609 -> 611 ;
612 [label=<volatile acidity &le; 0.195<br/>entropy = 0.811<br/>samples = 4<br/>value = [3, 0, 1]<br/>class = Low>, fillcolor="#eeab7b"] ;
594 -> 612 ;
613 [label=<entropy = 0.0<br/>samples = 1<br/>value = [0, 0, 1]<br/>class = High>, fillcolor="#8139e5"] ;
612 -> 613 ;
614 [label=<entropy = 0.0<br/>samples = 3<br/>value = [3, 0, 0]<br/>class = Low>, fillcolor="#e58139"] ;
612 -> 614 ;
615 [label=<entropy = 0.0<br/>samples = 2<br/>value = [2, 0, 0]<br/>class = Low>, fillcolor="#e58139"] ;
593 -> 615 ;
616 [label=<entropy = 0.0<br/>samples = 3<br/>value = [3, 0, 0]<br/>class = Low>, fillcolor="#e58139"] ;
590 -> 616 ;
617 [label=<entropy = 0.0<br/>samples = 14<br/>value = [0, 0, 14]<br/>class = High>, fillcolor="#8139e5"] ;
589 -> 617 ;
618 [label=<density &le; 0.99<br/>entropy = 0.938<br/>samples = 31<br/>value = [20, 0, 11]<br/>class = Low>, fillcolor="#f3c6a6"] ;
588 -> 618 ;
619 [label=<residual sugar &le; 1.65<br/>entropy = 0.391<br/>samples = 13<br/>value = [12, 0, 1]<br/>class = Low>, fillcolor="#e78c49"] ;
618 -> 619 ;
620 [label=<entropy = 0.0<br/>samples = 12<br/>value = [12, 0, 0]<br/>class = Low>, fillcolor="#e58139"] ;
619 -> 620 ;
621 [label=<entropy = 0.0<br/>samples = 1<br/>value = [0, 0, 1]<br/>class = High>, fillcolor="#8139e5"] ;
619 -> 621 ;
622 [label=<total sulfur dioxide &le; 97.0<br/>entropy = 0.991<br/>samples = 18<br/>value = [8, 0, 10]<br/>class = High>, fillcolor="#e6d7fa"] ;
618 -> 622 ;
623 [label=<alcohol &le; 11.95<br/>entropy = 0.544<br/>samples = 8<br/>value = [1, 0, 7]<br/>class = High>, fillcolor="#9355e9"] ;
622 -> 623 ;
624 [label=<entropy = 0.0<br/>samples = 1<br/>value = [1, 0, 0]<br/>class = Low>, fillcolor="#e58139"] ;
623 -> 624 ;
625 [label=<entropy = 0.0<br/>samples = 7<br/>value = [0, 0, 7]<br/>class = High>, fillcolor="#8139e5"] ;
623 -> 625 ;
626 [label=<alcohol &le; 12.45<br/>entropy = 0.881<br/>samples = 10<br/>value = [7, 0, 3]<br/>class = Low>, fillcolor="#f0b78e"] ;
622 -> 626 ;
627 [label=<entropy = 0.0<br/>samples = 5<br/>value = [5, 0, 0]<br/>class = Low>, fillcolor="#e58139"] ;
626 -> 627 ;
628 [label=<sulphates &le; 0.435<br/>entropy = 0.971<br/>samples = 5<br/>value = [2, 0, 3]<br/>class = High>, fillcolor="#d5bdf6"] ;
626 -> 628 ;
629 [label=<entropy = 0.0<br/>samples = 2<br/>value = [0, 0, 2]<br/>class = High>, fillcolor="#8139e5"] ;
628 -> 629 ;
630 [label=<volatile acidity &le; 0.245<br/>entropy = 0.918<br/>samples = 3<br/>value = [2, 0, 1]<br/>class = Low>, fillcolor="#f2c09c"] ;
628 -> 630 ;
631 [label=<entropy = 0.0<br/>samples = 1<br/>value = [0, 0, 1]<br/>class = High>, fillcolor="#8139e5"] ;
630 -> 631 ;
632 [label=<entropy = 0.0<br/>samples = 2<br/>value = [2, 0, 0]<br/>class = Low>, fillcolor="#e58139"] ;
630 -> 632 ;
633 [label=<free sulfur dioxide &le; 21.5<br/>entropy = 1.02<br/>samples = 340<br/>value = [201, 2, 137]<br/>class = Low>, fillcolor="#f7d7c1"] ;
587 -> 633 ;
634 [label=<sulphates &le; 0.675<br/>entropy = 1.112<br/>samples = 110<br/>value = [52.0, 2.0, 56.0]<br/>class = High>, fillcolor="#f6f1fd"] ;
633 -> 634 ;
635 [label=<citric acid &le; 0.295<br/>entropy = 1.087<br/>samples = 80<br/>value = [28, 2, 50]<br/>class = High>, fillcolor="#caabf4"] ;
634 -> 635 ;
636 [label=<density &le; 0.989<br/>entropy = 0.605<br/>samples = 27<br/>value = [4, 0, 23]<br/>class = High>, fillcolor="#975bea"] ;
635 -> 636 ;
637 [label=<entropy = 0.0<br/>samples = 2<br/>value = [2, 0, 0]<br/>class = Low>, fillcolor="#e58139"] ;
636 -> 637 ;
638 [label=<sulphates &le; 0.305<br/>entropy = 0.402<br/>samples = 25<br/>value = [2, 0, 23]<br/>class = High>, fillcolor="#8c4ae7"] ;
636 -> 638 ;
639 [label=<entropy = 0.0<br/>samples = 1<br/>value = [1, 0, 0]<br/>class = Low>, fillcolor="#e58139"] ;
638 -> 639 ;
640 [label=<pH &le; 2.985<br/>entropy = 0.25<br/>samples = 24<br/>value = [1, 0, 23]<br/>class = High>, fillcolor="#8642e6"] ;
638 -> 640 ;
641 [label=<pH &le; 2.895<br/>entropy = 1.0<br/>samples = 2<br/>value = [1, 0, 1]<br/>class = Low>, fillcolor="#ffffff"] ;
640 -> 641 ;
642 [label=<entropy = 0.0<br/>samples = 1<br/>value = [0, 0, 1]<br/>class = High>, fillcolor="#8139e5"] ;
641 -> 642 ;
643 [label=<entropy = 0.0<br/>samples = 1<br/>value = [1, 0, 0]<br/>class = Low>, fillcolor="#e58139"] ;
641 -> 643 ;
644 [label=<entropy = 0.0<br/>samples = 22<br/>value = [0, 0, 22]<br/>class = High>, fillcolor="#8139e5"] ;
640 -> 644 ;
645 [label=<volatile acidity &le; 0.325<br/>entropy = 1.192<br/>samples = 53<br/>value = [24, 2, 27]<br/>class = High>, fillcolor="#f2ebfc"] ;
635 -> 645 ;
646 [label=<pH &le; 3.045<br/>entropy = 1.152<br/>samples = 28<br/>value = [7, 2, 19]<br/>class = High>, fillcolor="#b78ef0"] ;
645 -> 646 ;
647 [label=<alcohol &le; 12.2<br/>entropy = 0.918<br/>samples = 3<br/>value = [1, 2, 0]<br/>class = Standard>, fillcolor="#9cf2c0"] ;
646 -> 647 ;
648 [label=<entropy = 0.0<br/>samples = 1<br/>value = [1, 0, 0]<br/>class = Low>, fillcolor="#e58139"] ;
647 -> 648 ;
649 [label=<entropy = 0.0<br/>samples = 2<br/>value = [0, 2, 0]<br/>class = Standard>, fillcolor="#39e581"] ;
647 -> 649 ;
650 [label=<alcohol &le; 13.05<br/>entropy = 0.795<br/>samples = 25<br/>value = [6, 0, 19]<br/>class = High>, fillcolor="#a978ed"] ;
646 -> 650 ;
651 [label=<chlorides &le; 0.088<br/>entropy = 0.667<br/>samples = 23<br/>value = [4, 0, 19]<br/>class = High>, fillcolor="#9c63ea"] ;
650 -> 651 ;
652 [label=<chlorides &le; 0.019<br/>entropy = 0.454<br/>samples = 21<br/>value = [2, 0, 19]<br/>class = High>, fillcolor="#8e4ee8"] ;
651 -> 652 ;
653 [label=<entropy = 0.0<br/>samples = 1<br/>value = [1, 0, 0]<br/>class = Low>, fillcolor="#e58139"] ;
652 -> 653 ;
654 [label=<citric acid &le; 0.305<br/>entropy = 0.286<br/>samples = 20<br/>value = [1, 0, 19]<br/>class = High>, fillcolor="#8843e6"] ;
652 -> 654 ;
655 [label=<fixed acidity &le; 6.55<br/>entropy = 1.0<br/>samples = 2<br/>value = [1, 0, 1]<br/>class = Low>, fillcolor="#ffffff"] ;
654 -> 655 ;
656 [label=<entropy = 0.0<br/>samples = 1<br/>value = [0, 0, 1]<br/>class = High>, fillcolor="#8139e5"] ;
655 -> 656 ;
657 [label=<entropy = 0.0<br/>samples = 1<br/>value = [1, 0, 0]<br/>class = Low>, fillcolor="#e58139"] ;
655 -> 657 ;
658 [label=<entropy = 0.0<br/>samples = 18<br/>value = [0, 0, 18]<br/>class = High>, fillcolor="#8139e5"] ;
654 -> 658 ;
659 [label=<entropy = 0.0<br/>samples = 2<br/>value = [2, 0, 0]<br/>class = Low>, fillcolor="#e58139"] ;
651 -> 659 ;
660 [label=<entropy = 0.0<br/>samples = 2<br/>value = [2, 0, 0]<br/>class = Low>, fillcolor="#e58139"] ;
650 -> 660 ;
661 [label=<chlorides &le; 0.111<br/>entropy = 0.904<br/>samples = 25<br/>value = [17, 0, 8]<br/>class = Low>, fillcolor="#f1bc96"] ;
645 -> 661 ;
662 [label=<alcohol &le; 12.15<br/>entropy = 0.773<br/>samples = 22<br/>value = [17, 0, 5]<br/>class = Low>, fillcolor="#eda673"] ;
661 -> 662 ;
663 [label=<entropy = 0.0<br/>samples = 10<br/>value = [10, 0, 0]<br/>class = Low>, fillcolor="#e58139"] ;
662 -> 663 ;
664 [label=<free sulfur dioxide &le; 10.5<br/>entropy = 0.98<br/>samples = 12<br/>value = [7, 0, 5]<br/>class = Low>, fillcolor="#f8dbc6"] ;
662 -> 664 ;
665 [label=<pH &le; 3.4<br/>entropy = 0.592<br/>samples = 7<br/>value = [6, 0, 1]<br/>class = Low>, fillcolor="#e9965a"] ;
664 -> 665 ;
666 [label=<entropy = 0.0<br/>samples = 6<br/>value = [6, 0, 0]<br/>class = Low>, fillcolor="#e58139"] ;
665 -> 666 ;
667 [label=<entropy = 0.0<br/>samples = 1<br/>value = [0, 0, 1]<br/>class = High>, fillcolor="#8139e5"] ;
665 -> 667 ;
668 [label=<alcohol &le; 13.1<br/>entropy = 0.722<br/>samples = 5<br/>value = [1, 0, 4]<br/>class = High>, fillcolor="#a06aec"] ;
664 -> 668 ;
669 [label=<entropy = 0.0<br/>samples = 4<br/>value = [0, 0, 4]<br/>class = High>, fillcolor="#8139e5"] ;
668 -> 669 ;
670 [label=<entropy = 0.0<br/>samples = 1<br/>value = [1, 0, 0]<br/>class = Low>, fillcolor="#e58139"] ;
668 -> 670 ;
671 [label=<entropy = 0.0<br/>samples = 3<br/>value = [0, 0, 3]<br/>class = High>, fillcolor="#8139e5"] ;
661 -> 671 ;
672 [label=<chlorides &le; 0.152<br/>entropy = 0.722<br/>samples = 30<br/>value = [24, 0, 6]<br/>class = Low>, fillcolor="#eca06a"] ;
634 -> 672 ;
673 [label=<pH &le; 3.19<br/>entropy = 0.592<br/>samples = 28<br/>value = [24, 0, 4]<br/>class = Low>, fillcolor="#e9965a"] ;
672 -> 673 ;
674 [label=<chlorides &le; 0.035<br/>entropy = 0.971<br/>samples = 5<br/>value = [2, 0, 3]<br/>class = High>, fillcolor="#d5bdf6"] ;
673 -> 674 ;
675 [label=<citric acid &le; 0.29<br/>entropy = 0.918<br/>samples = 3<br/>value = [2, 0, 1]<br/>class = Low>, fillcolor="#f2c09c"] ;
674 -> 675 ;
676 [label=<entropy = 0.0<br/>samples = 2<br/>value = [2, 0, 0]<br/>class = Low>, fillcolor="#e58139"] ;
675 -> 676 ;
677 [label=<entropy = 0.0<br/>samples = 1<br/>value = [0, 0, 1]<br/>class = High>, fillcolor="#8139e5"] ;
675 -> 677 ;
678 [label=<entropy = 0.0<br/>samples = 2<br/>value = [0, 0, 2]<br/>class = High>, fillcolor="#8139e5"] ;
674 -> 678 ;
679 [label=<residual sugar &le; 4.8<br/>entropy = 0.258<br/>samples = 23<br/>value = [22, 0, 1]<br/>class = Low>, fillcolor="#e68742"] ;
673 -> 679 ;
680 [label=<entropy = 0.0<br/>samples = 21<br/>value = [21, 0, 0]<br/>class = Low>, fillcolor="#e58139"] ;
679 -> 680 ;
681 [label=<pH &le; 3.275<br/>entropy = 1.0<br/>samples = 2<br/>value = [1, 0, 1]<br/>class = Low>, fillcolor="#ffffff"] ;
679 -> 681 ;
682 [label=<entropy = 0.0<br/>samples = 1<br/>value = [1, 0, 0]<br/>class = Low>, fillcolor="#e58139"] ;
681 -> 682 ;
683 [label=<entropy = 0.0<br/>samples = 1<br/>value = [0, 0, 1]<br/>class = High>, fillcolor="#8139e5"] ;
681 -> 683 ;
684 [label=<entropy = 0.0<br/>samples = 2<br/>value = [0, 0, 2]<br/>class = High>, fillcolor="#8139e5"] ;
672 -> 684 ;
685 [label=<total sulfur dioxide &le; 169.5<br/>entropy = 0.936<br/>samples = 230<br/>value = [149, 0, 81]<br/>class = Low>, fillcolor="#f3c5a5"] ;
633 -> 685 ;
686 [label=<total sulfur dioxide &le; 73.0<br/>entropy = 0.909<br/>samples = 216<br/>value = [146, 0, 70]<br/>class = Low>, fillcolor="#f1bd98"] ;
685 -> 686 ;
687 [label=<total sulfur dioxide &le; 54.0<br/>entropy = 0.764<br/>samples = 9<br/>value = [2, 0, 7]<br/>class = High>, fillcolor="#a572ec"] ;
686 -> 687 ;
688 [label=<entropy = 0.0<br/>samples = 2<br/>value = [2, 0, 0]<br/>class = Low>, fillcolor="#e58139"] ;
687 -> 688 ;
689 [label=<entropy = 0.0<br/>samples = 7<br/>value = [0, 0, 7]<br/>class = High>, fillcolor="#8139e5"] ;
687 -> 689 ;
690 [label=<sulphates &le; 0.425<br/>entropy = 0.887<br/>samples = 207<br/>value = [144.0, 0.0, 63.0]<br/>class = Low>, fillcolor="#f0b890"] ;
686 -> 690 ;
691 [label=<chlorides &le; 0.048<br/>entropy = 0.981<br/>samples = 86<br/>value = [50, 0, 36]<br/>class = Low>, fillcolor="#f8dcc8"] ;
690 -> 691 ;
692 [label=<alcohol &le; 12.55<br/>entropy = 0.965<br/>samples = 82<br/>value = [50, 0, 32]<br/>class = Low>, fillcolor="#f6d2b8"] ;
691 -> 692 ;
693 [label=<chlorides &le; 0.027<br/>entropy = 1.0<br/>samples = 51<br/>value = [25, 0, 26]<br/>class = High>, fillcolor="#faf7fe"] ;
692 -> 693 ;
694 [label=<entropy = 0.0<br/>samples = 6<br/>value = [0, 0, 6]<br/>class = High>, fillcolor="#8139e5"] ;
693 -> 694 ;
695 [label=<citric acid &le; 0.275<br/>entropy = 0.991<br/>samples = 45<br/>value = [25, 0, 20]<br/>class = Low>, fillcolor="#fae6d7"] ;
693 -> 695 ;
696 [label=<entropy = 0.0<br/>samples = 8<br/>value = [8, 0, 0]<br/>class = Low>, fillcolor="#e58139"] ;
695 -> 696 ;
697 [label=<sulphates &le; 0.315<br/>entropy = 0.995<br/>samples = 37<br/>value = [17, 0, 20]<br/>class = High>, fillcolor="#ece1fb"] ;
695 -> 697 ;
698 [label=<entropy = 0.0<br/>samples = 5<br/>value = [5, 0, 0]<br/>class = Low>, fillcolor="#e58139"] ;
697 -> 698 ;
699 [label=<total sulfur dioxide &le; 155.5<br/>entropy = 0.954<br/>samples = 32<br/>value = [12, 0, 20]<br/>class = High>, fillcolor="#cdb0f5"] ;
697 -> 699 ;
700 [label=<citric acid &le; 0.39<br/>entropy = 0.795<br/>samples = 25<br/>value = [6, 0, 19]<br/>class = High>, fillcolor="#a978ed"] ;
699 -> 700 ;
701 [label=<free sulfur dioxide &le; 25.0<br/>entropy = 0.9<br/>samples = 19<br/>value = [6, 0, 13]<br/>class = High>, fillcolor="#bb94f1"] ;
700 -> 701 ;
702 [label=<entropy = 0.0<br/>samples = 2<br/>value = [2, 0, 0]<br/>class = Low>, fillcolor="#e58139"] ;
701 -> 702 ;
703 [label=<fixed acidity &le; 7.45<br/>entropy = 0.787<br/>samples = 17<br/>value = [4, 0, 13]<br/>class = High>, fillcolor="#a876ed"] ;
701 -> 703 ;
704 [label=<residual sugar &le; 8.6<br/>entropy = 0.414<br/>samples = 12<br/>value = [1, 0, 11]<br/>class = High>, fillcolor="#8c4be7"] ;
703 -> 704 ;
705 [label=<entropy = 0.0<br/>samples = 11<br/>value = [0, 0, 11]<br/>class = High>, fillcolor="#8139e5"] ;
704 -> 705 ;
706 [label=<entropy = 0.0<br/>samples = 1<br/>value = [1, 0, 0]<br/>class = Low>, fillcolor="#e58139"] ;
704 -> 706 ;
707 [label=<fixed acidity &le; 8.05<br/>entropy = 0.971<br/>samples = 5<br/>value = [3, 0, 2]<br/>class = Low>, fillcolor="#f6d5bd"] ;
703 -> 707 ;
708 [label=<entropy = 0.0<br/>samples = 3<br/>value = [3, 0, 0]<br/>class = Low>, fillcolor="#e58139"] ;
707 -> 708 ;
709 [label=<entropy = 0.0<br/>samples = 2<br/>value = [0, 0, 2]<br/>class = High>, fillcolor="#8139e5"] ;
707 -> 709 ;
710 [label=<entropy = 0.0<br/>samples = 6<br/>value = [0, 0, 6]<br/>class = High>, fillcolor="#8139e5"] ;
700 -> 710 ;
711 [label=<pH &le; 3.075<br/>entropy = 0.592<br/>samples = 7<br/>value = [6, 0, 1]<br/>class = Low>, fillcolor="#e9965a"] ;
699 -> 711 ;
712 [label=<entropy = 0.0<br/>samples = 1<br/>value = [0, 0, 1]<br/>class = High>, fillcolor="#8139e5"] ;
711 -> 712 ;
713 [label=<entropy = 0.0<br/>samples = 6<br/>value = [6, 0, 0]<br/>class = Low>, fillcolor="#e58139"] ;
711 -> 713 ;
714 [label=<density &le; 0.989<br/>entropy = 0.709<br/>samples = 31<br/>value = [25, 0, 6]<br/>class = Low>, fillcolor="#eb9f69"] ;
692 -> 714 ;
715 [label=<entropy = 0.0<br/>samples = 10<br/>value = [10, 0, 0]<br/>class = Low>, fillcolor="#e58139"] ;
714 -> 715 ;
716 [label=<sulphates &le; 0.395<br/>entropy = 0.863<br/>samples = 21<br/>value = [15, 0, 6]<br/>class = Low>, fillcolor="#efb388"] ;
714 -> 716 ;
717 [label=<volatile acidity &le; 0.215<br/>entropy = 0.65<br/>samples = 18<br/>value = [15, 0, 3]<br/>class = Low>, fillcolor="#ea9a61"] ;
716 -> 717 ;
718 [label=<entropy = 0.0<br/>samples = 2<br/>value = [0, 0, 2]<br/>class = High>, fillcolor="#8139e5"] ;
717 -> 718 ;
719 [label=<residual sugar &le; 2.15<br/>entropy = 0.337<br/>samples = 16<br/>value = [15, 0, 1]<br/>class = Low>, fillcolor="#e78946"] ;
717 -> 719 ;
720 [label=<entropy = 0.0<br/>samples = 1<br/>value = [0, 0, 1]<br/>class = High>, fillcolor="#8139e5"] ;
719 -> 720 ;
721 [label=<entropy = 0.0<br/>samples = 15<br/>value = [15, 0, 0]<br/>class = Low>, fillcolor="#e58139"] ;
719 -> 721 ;
722 [label=<entropy = 0.0<br/>samples = 3<br/>value = [0, 0, 3]<br/>class = High>, fillcolor="#8139e5"] ;
716 -> 722 ;
723 [label=<entropy = 0.0<br/>samples = 4<br/>value = [0, 0, 4]<br/>class = High>, fillcolor="#8139e5"] ;
691 -> 723 ;
724 [label=<total sulfur dioxide &le; 119.5<br/>entropy = 0.766<br/>samples = 121<br/>value = [94, 0, 27]<br/>class = Low>, fillcolor="#eca572"] ;
690 -> 724 ;
725 [label=<residual sugar &le; 5.6<br/>entropy = 0.873<br/>samples = 75<br/>value = [53, 0, 22]<br/>class = Low>, fillcolor="#f0b58b"] ;
724 -> 725 ;
726 [label=<total sulfur dioxide &le; 92.5<br/>entropy = 0.934<br/>samples = 60<br/>value = [39, 0, 21]<br/>class = Low>, fillcolor="#f3c5a4"] ;
725 -> 726 ;
727 [label=<free sulfur dioxide &le; 23.0<br/>entropy = 0.544<br/>samples = 16<br/>value = [14, 0, 2]<br/>class = Low>, fillcolor="#e99355"] ;
726 -> 727 ;
728 [label=<residual sugar &le; 4.4<br/>entropy = 0.918<br/>samples = 3<br/>value = [1, 0, 2]<br/>class = High>, fillcolor="#c09cf2"] ;
727 -> 728 ;
729 [label=<entropy = 0.0<br/>samples = 2<br/>value = [0, 0, 2]<br/>class = High>, fillcolor="#8139e5"] ;
728 -> 729 ;
730 [label=<entropy = 0.0<br/>samples = 1<br/>value = [1, 0, 0]<br/>class = Low>, fillcolor="#e58139"] ;
728 -> 730 ;
731 [label=<entropy = 0.0<br/>samples = 13<br/>value = [13, 0, 0]<br/>class = Low>, fillcolor="#e58139"] ;
727 -> 731 ;
732 [label=<free sulfur dioxide &le; 26.5<br/>entropy = 0.987<br/>samples = 44<br/>value = [25.0, 0.0, 19.0]<br/>class = Low>, fillcolor="#f9e1cf"] ;
726 -> 732 ;
733 [label=<entropy = 0.0<br/>samples = 8<br/>value = [8, 0, 0]<br/>class = Low>, fillcolor="#e58139"] ;
732 -> 733 ;
734 [label=<chlorides &le; 0.025<br/>entropy = 0.998<br/>samples = 36<br/>value = [17, 0, 19]<br/>class = High>, fillcolor="#f2eafc"] ;
732 -> 734 ;
735 [label=<entropy = 0.0<br/>samples = 4<br/>value = [4, 0, 0]<br/>class = Low>, fillcolor="#e58139"] ;
734 -> 735 ;
736 [label=<chlorides &le; 0.027<br/>entropy = 0.974<br/>samples = 32<br/>value = [13, 0, 19]<br/>class = High>, fillcolor="#d7c0f7"] ;
734 -> 736 ;
737 [label=<entropy = 0.0<br/>samples = 5<br/>value = [0, 0, 5]<br/>class = High>, fillcolor="#8139e5"] ;
736 -> 737 ;
738 [label=<volatile acidity &le; 0.225<br/>entropy = 0.999<br/>samples = 27<br/>value = [13, 0, 14]<br/>class = High>, fillcolor="#f6f1fd"] ;
736 -> 738 ;
739 [label=<entropy = 0.0<br/>samples = 4<br/>value = [0, 0, 4]<br/>class = High>, fillcolor="#8139e5"] ;
738 -> 739 ;
740 [label=<alcohol &le; 11.95<br/>entropy = 0.988<br/>samples = 23<br/>value = [13.0, 0.0, 10.0]<br/>class = Low>, fillcolor="#f9e2d1"] ;
738 -> 740 ;
741 [label=<entropy = 0.0<br/>samples = 3<br/>value = [3, 0, 0]<br/>class = Low>, fillcolor="#e58139"] ;
740 -> 741 ;
