digraph Tree {
node [shape=box, style="filled, rounded", color="black", fontname="helvetica"] ;
edge [fontname="helvetica"] ;
0 [label=<alcohol &le; 10.85<br/>entropy = 0.971<br/>samples = 2938<br/>value = [636, 110, 2192]<br/>class = High>, fillcolor="#aa79ed"] ;
1 [label=<volatile acidity &le; 0.233<br/>entropy = 0.731<br/>samples = 1865<br/>value = [189, 84, 1592]<br/>class = High>, fillcolor="#9659e9"] ;
0 -> 1 [labeldistance=2.5, labelangle=45, headlabel="True"] ;
2 [label=<alcohol &le; 9.15<br/>entropy = 0.887<br/>samples = 703<br/>value = [141, 18, 544]<br/>class = High>, fillcolor="#a571ec"] ;
1 -> 2 ;
3 [label=<fixed acidity &le; 6.75<br/>entropy = 1.076<br/>samples = 140<br/>value = [50, 3, 87]<br/>class = High>, fillcolor="#cbaef4"] ;
2 -> 3 ;
4 [label=<fixed acidity &le; 4.35<br/>entropy = 0.287<br/>samples = 49<br/>value = [1.0, 1.0, 47.0]<br/>class = High>, fillcolor="#8641e6"] ;
3 -> 4 ;
5 [label=<entropy = 0.0<br/>samples = 1<br/>value = [0, 1, 0]<br/>class = Standard>, fillcolor="#39e581"] ;
4 -> 5 ;
6 [label=<free sulfur dioxide &le; 17.0<br/>entropy = 0.146<br/>samples = 48<br/>value = [1, 0, 47]<br/>class = High>, fillcolor="#843de6"] ;
4 -> 6 ;
7 [label=<free sulfur dioxide &le; 15.5<br/>entropy = 1.0<br/>samples = 2<br/>value = [1, 0, 1]<br/>class = Low>, fillcolor="#ffffff"] ;
6 -> 7 ;
8 [label=<entropy = 0.0<br/>samples = 1<br/>value = [0, 0, 1]<br/>class = High>, fillcolor="#8139e5"] ;
7 -> 8 ;
9 [label=<entropy = 0.0<br/>samples = 1<br/>value = [1, 0, 0]<br/>class = Low>, fillcolor="#e58139"] ;
7 -> 9 ;
10 [label=<entropy = 0.0<br/>samples = 46<br/>value = [0, 0, 46]<br/>class = High>, fillcolor="#8139e5"] ;
6 -> 10 ;
11 [label=<citric acid &le; 0.34<br/>entropy = 1.123<br/>samples = 91<br/>value = [49, 2, 40]<br/>class = Low>, fillcolor="#fae9dc"] ;
3 -> 11 ;
12 [label=<pH &le; 3.04<br/>entropy = 0.9<br/>samples = 47<br/>value = [37, 2, 8]<br/>class = Low>, fillcolor="#eca16c"] ;
11 -> 12 ;
13 [label=<entropy = 0.0<br/>samples = 27<br/>value = [27, 0, 0]<br/>class = Low>, fillcolor="#e58139"] ;
12 -> 13 ;
14 [label=<total sulfur dioxide &le; 204.75<br/>entropy = 1.361<br/>samples = 20<br/>value = [10, 2, 8]<br/>class = Low>, fillcolor="#fbeade"] ;
12 -> 14 ;
15 [label=<fixed acidity &le; 7.85<br/>entropy = 1.252<br/>samples = 12<br/>value = [2, 2, 8]<br/>class = High>, fillcolor="#b388ef"] ;
14 -> 15 ;
16 [label=<entropy = 0.0<br/>samples = 8<br/>value = [0, 0, 8]<br/>class = High>, fillcolor="#8139e5"] ;
15 -> 16 ;
17 [label=<residual sugar &le; 9.1<br/>entropy = 1.0<br/>samples = 4<br/>value = [2, 2, 0]<br/>class = Low>, fillcolor="#ffffff"] ;
15 -> 17 ;
18 [label=<entropy = 0.0<br/>samples = 2<br/>value = [0, 2, 0]<br/>class = Standard>, fillcolor="#39e581"] ;
17 -> 18 ;
19 [label=<entropy = 0.0<br/>samples = 2<br/>value = [2, 0, 0]<br/>class = Low>, fillcolor="#e58139"] ;
17 -> 19 ;
20 [label=<entropy = 0.0<br/>samples = 8<br/>value = [8, 0, 0]<br/>class = Low>, fillcolor="#e58139"] ;
14 -> 20 ;
21 [label=<citric acid &le; 0.385<br/>entropy = 0.845<br/>samples = 44<br/>value = [12, 0, 32]<br/>class = High>, fillcolor="#b083ef"] ;
11 -> 21 ;
22 [label=<entropy = 0.0<br/>samples = 17<br/>value = [0, 0, 17]<br/>class = High>, fillcolor="#8139e5"] ;
21 -> 22 ;
23 [label=<fixed acidity &le; 7.15<br/>entropy = 0.991<br/>samples = 27<br/>value = [12, 0, 15]<br/>class = High>, fillcolor="#e6d7fa"] ;
21 -> 23 ;
24 [label=<entropy = 0.0<br/>samples = 8<br/>value = [0, 0, 8]<br/>class = High>, fillcolor="#8139e5"] ;
23 -> 24 ;
25 [label=<citric acid &le; 0.535<br/>entropy = 0.949<br/>samples = 19<br/>value = [12, 0, 7]<br/>class = Low>, fillcolor="#f4caac"] ;
23 -> 25 ;
26 [label=<pH &le; 2.965<br/>entropy = 0.592<br/>samples = 14<br/>value = [12, 0, 2]<br/>class = Low>, fillcolor="#e9965a"] ;
25 -> 26 ;
27 [label=<entropy = 0.0<br/>samples = 1<br/>value = [0, 0, 1]<br/>class = High>, fillcolor="#8139e5"] ;
26 -> 27 ;
28 [label=<free sulfur dioxide &le; 52.5<br/>entropy = 0.391<br/>samples = 13<br/>value = [12, 0, 1]<br/>class = Low>, fillcolor="#e78c49"] ;
26 -> 28 ;
29 [label=<entropy = 0.0<br/>samples = 12<br/>value = [12, 0, 0]<br/>class = Low>, fillcolor="#e58139"] ;
28 -> 29 ;
30 [label=<entropy = 0.0<br/>samples = 1<br/>value = [0, 0, 1]<br/>class = High>, fillcolor="#8139e5"] ;
28 -> 30 ;
31 [label=<entropy = 0.0<br/>samples = 5<br/>value = [0, 0, 5]<br/>class = High>, fillcolor="#8139e5"] ;
25 -> 31 ;
32 [label=<chlorides &le; 0.041<br/>entropy = 0.809<br/>samples = 563<br/>value = [91.0, 15.0, 457.0]<br/>class = High>, fillcolor="#9d65eb"] ;
2 -> 32 ;
33 [label=<free sulfur dioxide &le; 6.5<br/>entropy = 1.083<br/>samples = 186<br/>value = [51.0, 8.0, 127.0]<br/>class = High>, fillcolor="#b890f0"] ;
32 -> 33 ;
34 [label=<chlorides &le; 0.033<br/>entropy = 0.918<br/>samples = 6<br/>value = [0, 4, 2]<br/>class = Standard>, fillcolor="#9cf2c0"] ;
33 -> 34 ;
35 [label=<entropy = 0.0<br/>samples = 2<br/>value = [0, 0, 2]<br/>class = High>, fillcolor="#8139e5"] ;
34 -> 35 ;
36 [label=<entropy = 0.0<br/>samples = 4<br/>value = [0, 4, 0]<br/>class = Standard>, fillcolor="#39e581"] ;
34 -> 36 ;
37 [label=<volatile acidity &le; 0.205<br/>entropy = 1.003<br/>samples = 180<br/>value = [51, 4, 125]<br/>class = High>, fillcolor="#b78df0"] ;
33 -> 37 ;
38 [label=<alcohol &le; 10.25<br/>entropy = 0.926<br/>samples = 120<br/>value = [41, 0, 79]<br/>class = High>, fillcolor="#c2a0f2"] ;
37 -> 38 ;
39 [label=<chlorides &le; 0.034<br/>entropy = 0.764<br/>samples = 63<br/>value = [14, 0, 49]<br/>class = High>, fillcolor="#a572ec"] ;
38 -> 39 ;
40 [label=<entropy = 0.0<br/>samples = 17<br/>value = [0, 0, 17]<br/>class = High>, fillcolor="#8139e5"] ;
39 -> 40 ;
41 [label=<total sulfur dioxide &le; 145.0<br/>entropy = 0.887<br/>samples = 46<br/>value = [14, 0, 32]<br/>class = High>, fillcolor="#b890f0"] ;
39 -> 41 ;
42 [label=<density &le; 0.995<br/>entropy = 0.977<br/>samples = 34<br/>value = [14, 0, 20]<br/>class = High>, fillcolor="#d9c4f7"] ;
41 -> 42 ;
43 [label=<volatile acidity &le; 0.165<br/>entropy = 0.863<br/>samples = 28<br/>value = [8, 0, 20]<br/>class = High>, fillcolor="#b388ef"] ;
42 -> 43 ;
44 [label=<sulphates &le; 0.64<br/>entropy = 0.371<br/>samples = 14<br/>value = [1, 0, 13]<br/>class = High>, fillcolor="#8b48e7"] ;
43 -> 44 ;
45 [label=<entropy = 0.0<br/>samples = 13<br/>value = [0, 0, 13]<br/>class = High>, fillcolor="#8139e5"] ;
44 -> 45 ;
46 [label=<entropy = 0.0<br/>samples = 1<br/>value = [1, 0, 0]<br/>class = Low>, fillcolor="#e58139"] ;
44 -> 46 ;
47 [label=<citric acid &le; 0.285<br/>entropy = 1.0<br/>samples = 14<br/>value = [7, 0, 7]<br/>class = Low>, fillcolor="#ffffff"] ;
43 -> 47 ;
48 [label=<entropy = 0.0<br/>samples = 4<br/>value = [0, 0, 4]<br/>class = High>, fillcolor="#8139e5"] ;
47 -> 48 ;
49 [label=<density &le; 0.993<br/>entropy = 0.881<br/>samples = 10<br/>value = [7, 0, 3]<br/>class = Low>, fillcolor="#f0b78e"] ;
47 -> 49 ;
50 [label=<alcohol &le; 10.15<br/>entropy = 0.971<br/>samples = 5<br/>value = [2, 0, 3]<br/>class = High>, fillcolor="#d5bdf6"] ;
49 -> 50 ;
51 [label=<entropy = 0.0<br/>samples = 3<br/>value = [0, 0, 3]<br/>class = High>, fillcolor="#8139e5"] ;
50 -> 51 ;
52 [label=<entropy = 0.0<br/>samples = 2<br/>value = [2, 0, 0]<br/>class = Low>, fillcolor="#e58139"] ;
50 -> 52 ;
53 [label=<entropy = 0.0<br/>samples = 5<br/>value = [5, 0, 0]<br/>class = Low>, fillcolor="#e58139"] ;
49 -> 53 ;
54 [label=<entropy = 0.0<br/>samples = 6<br/>value = [6, 0, 0]<br/>class = Low>, fillcolor="#e58139"] ;
42 -> 54 ;
55 [label=<entropy = 0.0<br/>samples = 12<br/>value = [0, 0, 12]<br/>class = High>, fillcolor="#8139e5"] ;
41 -> 55 ;
56 [label=<pH &le; 3.035<br/>entropy = 0.998<br/>samples = 57<br/>value = [27, 0, 30]<br/>class = High>, fillcolor="#f2ebfc"] ;
38 -> 56 ;
57 [label=<citric acid &le; 0.5<br/>entropy = 0.469<br/>samples = 10<br/>value = [1, 0, 9]<br/>class = High>, fillcolor="#8f4fe8"] ;
56 -> 57 ;
58 [label=<entropy = 0.0<br/>samples = 9<br/>value = [0, 0, 9]<br/>class = High>, fillcolor="#8139e5"] ;
57 -> 58 ;
59 [label=<entropy = 0.0<br/>samples = 1<br/>value = [1, 0, 0]<br/>class = Low>, fillcolor="#e58139"] ;
57 -> 59 ;
60 [label=<chlorides &le; 0.039<br/>entropy = 0.992<br/>samples = 47<br/>value = [26, 0, 21]<br/>class = Low>, fillcolor="#fae7d9"] ;
56 -> 60 ;
61 [label=<total sulfur dioxide &le; 140.5<br/>entropy = 0.968<br/>samples = 43<br/>value = [26, 0, 17]<br/>class = Low>, fillcolor="#f6d3ba"] ;
60 -> 61 ;
62 [label=<density &le; 0.994<br/>entropy = 0.874<br/>samples = 34<br/>value = [24, 0, 10]<br/>class = Low>, fillcolor="#f0b58b"] ;
61 -> 62 ;
63 [label=<residual sugar &le; 5.05<br/>entropy = 0.98<br/>samples = 24<br/>value = [14, 0, 10]<br/>class = Low>, fillcolor="#f8dbc6"] ;
62 -> 63 ;
64 [label=<total sulfur dioxide &le; 104.0<br/>entropy = 0.831<br/>samples = 19<br/>value = [14, 0, 5]<br/>class = Low>, fillcolor="#eeae80"] ;
63 -> 64 ;
65 [label=<free sulfur dioxide &le; 35.0<br/>entropy = 0.994<br/>samples = 11<br/>value = [6, 0, 5]<br/>class = Low>, fillcolor="#fbeade"] ;
64 -> 65 ;
66 [label=<alcohol &le; 10.575<br/>entropy = 0.811<br/>samples = 8<br/>value = [6, 0, 2]<br/>class = Low>, fillcolor="#eeab7b"] ;
65 -> 66 ;
67 [label=<total sulfur dioxide &le; 75.5<br/>entropy = 1.0<br/>samples = 4<br/>value = [2, 0, 2]<br/>class = Low>, fillcolor="#ffffff"] ;
66 -> 67 ;
68 [label=<entropy = 0.0<br/>samples = 2<br/>value = [2, 0, 0]<br/>class = Low>, fillcolor="#e58139"] ;
67 -> 68 ;
69 [label=<entropy = 0.0<br/>samples = 2<br/>value = [0, 0, 2]<br/>class = High>, fillcolor="#8139e5"] ;
67 -> 69 ;
70 [label=<entropy = 0.0<br/>samples = 4<br/>value = [4, 0, 0]<br/>class = Low>, fillcolor="#e58139"] ;
66 -> 70 ;
71 [label=<entropy = 0.0<br/>samples = 3<br/>value = [0, 0, 3]<br/>class = High>, fillcolor="#8139e5"] ;
65 -> 71 ;
72 [label=<entropy = 0.0<br/>samples = 8<br/>value = [8, 0, 0]<br/>class = Low>, fillcolor="#e58139"] ;
64 -> 72 ;
73 [label=<entropy = 0.0<br/>samples = 5<br/>value = [0, 0, 5]<br/>class = High>, fillcolor="#8139e5"] ;
63 -> 73 ;
74 [label=<entropy = 0.0<br/>samples = 10<br/>value = [10, 0, 0]<br/>class = Low>, fillcolor="#e58139"] ;
62 -> 74 ;
75 [label=<chlorides &le; 0.035<br/>entropy = 0.764<br/>samples = 9<br/>value = [2, 0, 7]<br/>class = High>, fillcolor="#a572ec"] ;
61 -> 75 ;
76 [label=<entropy = 0.0<br/>samples = 7<br/>value = [0, 0, 7]<br/>class = High>, fillcolor="#8139e5"] ;
75 -> 76 ;
77 [label=<entropy = 0.0<br/>samples = 2<br/>value = [2, 0, 0]<br/>class = Low>, fillcolor="#e58139"] ;
75 -> 77 ;
78 [label=<entropy = 0.0<br/>samples = 4<br/>value = [0, 0, 4]<br/>class = High>, fillcolor="#8139e5"] ;
60 -> 78 ;
79 [label=<sulphates &le; 0.535<br/>entropy = 0.985<br/>samples = 60<br/>value = [10, 4, 46]<br/>class = High>, fillcolor="#a470ec"] ;
37 -> 79 ;
80 [label=<residual sugar &le; 6.95<br/>entropy = 0.485<br/>samples = 38<br/>value = [4, 0, 34]<br/>class = High>, fillcolor="#9050e8"] ;
79 -> 80 ;
81 [label=<chlorides &le; 0.036<br/>entropy = 0.722<br/>samples = 20<br/>value = [4, 0, 16]<br/>class = High>, fillcolor="#a06aec"] ;
80 -> 81 ;
82 [label=<sulphates &le; 0.485<br/>entropy = 0.946<br/>samples = 11<br/>value = [4, 0, 7]<br/>class = High>, fillcolor="#c9aaf4"] ;
81 -> 82 ;
83 [label=<alcohol &le; 10.45<br/>entropy = 0.985<br/>samples = 7<br/>value = [4, 0, 3]<br/>class = Low>, fillcolor="#f8e0ce"] ;
82 -> 83 ;
84 [label=<pH &le; 3.33<br/>entropy = 0.811<br/>samples = 4<br/>value = [1, 0, 3]<br/>class = High>, fillcolor="#ab7bee"] ;
83 -> 84 ;
85 [label=<entropy = 0.0<br/>samples = 3<br/>value = [0, 0, 3]<br/>class = High>, fillcolor="#8139e5"] ;
84 -> 85 ;
86 [label=<entropy = 0.0<br/>samples = 1<br/>value = [1, 0, 0]<br/>class = Low>, fillcolor="#e58139"] ;
84 -> 86 ;
87 [label=<entropy = 0.0<br/>samples = 3<br/>value = [3, 0, 0]<br/>class = Low>, fillcolor="#e58139"] ;
83 -> 87 ;
88 [label=<entropy = 0.0<br/>samples = 4<br/>value = [0, 0, 4]<br/>class = High>, fillcolor="#8139e5"] ;
82 -> 88 ;
89 [label=<entropy = 0.0<br/>samples = 9<br/>value = [0, 0, 9]<br/>class = High>, fillcolor="#8139e5"] ;
81 -> 89 ;
90 [label=<entropy = 0.0<br/>samples = 18<br/>value = [0, 0, 18]<br/>class = High>, fillcolor="#8139e5"] ;
80 -> 90 ;
91 [label=<residual sugar &le; 1.9<br/>entropy = 1.435<br/>samples = 22<br/>value = [6, 4, 12]<br/>class = High>, fillcolor="#d0b5f5"] ;
79 -> 91 ;
92 [label=<entropy = 0.0<br/>samples = 6<br/>value = [0, 0, 6]<br/>class = High>, fillcolor="#8139e5"] ;
91 -> 92 ;
93 [label=<total sulfur dioxide &le; 169.5<br/>entropy = 1.561<br/>samples = 16<br/>value = [6, 4, 6]<br/>class = Low>, fillcolor="#ffffff"] ;
91 -> 93 ;
94 [label=<chlorides &le; 0.035<br/>entropy = 1.295<br/>samples = 10<br/>value = [6, 3, 1]<br/>class = Low>, fillcolor="#f4c9aa"] ;
93 -> 94 ;
95 [label=<entropy = 0.0<br/>samples = 3<br/>value = [0, 3, 0]<br/>class = Standard>, fillcolor="#39e581"] ;
94 -> 95 ;
96 [label=<volatile acidity &le; 0.225<br/>entropy = 0.592<br/>samples = 7<br/>value = [6, 0, 1]<br/>class = Low>, fillcolor="#e9965a"] ;
94 -> 96 ;
97 [label=<entropy = 0.0<br/>samples = 6<br/>value = [6, 0, 0]<br/>class = Low>, fillcolor="#e58139"] ;
96 -> 97 ;
98 [label=<entropy = 0.0<br/>samples = 1<br/>value = [0, 0, 1]<br/>class = High>, fillcolor="#8139e5"] ;
96 -> 98 ;
99 [label=<sulphates &le; 0.68<br/>entropy = 0.65<br/>samples = 6<br/>value = [0, 1, 5]<br/>class = High>, fillcolor="#9a61ea"] ;
93 -> 99 ;
100 [label=<entropy = 0.0<br/>samples = 5<br/>value = [0, 0, 5]<br/>class = High>, fillcolor="#8139e5"] ;
99 -> 100 ;
101 [label=<entropy = 0.0<br/>samples = 1<br/>value = [0, 1, 0]<br/>class = Standard>, fillcolor="#39e581"] ;
99 -> 101 ;
102 [label=<density &le; 0.995<br/>entropy = 0.618<br/>samples = 377<br/>value = [40, 7, 330]<br/>class = High>, fillcolor="#9355e9"] ;
32 -> 102 ;
103 [label=<pH &le; 3.285<br/>entropy = 0.769<br/>samples = 153<br/>value = [30.0, 1.0, 122.0]<br/>class = High>, fillcolor="#a16bec"] ;
102 -> 103 ;
104 [label=<citric acid &le; 0.295<br/>entropy = 0.529<br/>samples = 100<br/>value = [12, 0, 88]<br/>class = High>, fillcolor="#9254e9"] ;
103 -> 104 ;
105 [label=<entropy = 0.0<br/>samples = 32<br/>value = [0, 0, 32]<br/>class = High>, fillcolor="#8139e5"] ;
104 -> 105 ;
106 [label=<residual sugar &le; 6.75<br/>entropy = 0.672<br/>samples = 68<br/>value = [12, 0, 56]<br/>class = High>, fillcolor="#9c63eb"] ;
104 -> 106 ;
107 [label=<total sulfur dioxide &le; 206.5<br/>entropy = 0.58<br/>samples = 65<br/>value = [9, 0, 56]<br/>class = High>, fillcolor="#9559e9"] ;
106 -> 107 ;
108 [label=<total sulfur dioxide &le; 144.5<br/>entropy = 0.544<br/>samples = 64<br/>value = [8, 0, 56]<br/>class = High>, fillcolor="#9355e9"] ;
107 -> 108 ;
109 [label=<total sulfur dioxide &le; 133.0<br/>entropy = 0.642<br/>samples = 49<br/>value = [8.0, 0.0, 41.0]<br/>class = High>, fillcolor="#9a60ea"] ;
108 -> 109 ;
110 [label=<fixed acidity &le; 9.1<br/>entropy = 0.551<br/>samples = 47<br/>value = [6.0, 0.0, 41.0]<br/>class = High>, fillcolor="#9356e9"] ;
109 -> 110 ;
111 [label=<total sulfur dioxide &le; 113.5<br/>entropy = 0.496<br/>samples = 46<br/>value = [5, 0, 41]<br/>class = High>, fillcolor="#9051e8"] ;
110 -> 111 ;
112 [label=<residual sugar &le; 1.65<br/>entropy = 0.663<br/>samples = 29<br/>value = [5, 0, 24]<br/>class = High>, fillcolor="#9b62ea"] ;
111 -> 112 ;
113 [label=<chlorides &le; 0.046<br/>entropy = 0.297<br/>samples = 19<br/>value = [1, 0, 18]<br/>class = High>, fillcolor="#8844e6"] ;
112 -> 113 ;
114 [label=<sulphates &le; 0.5<br/>entropy = 0.65<br/>samples = 6<br/>value = [1, 0, 5]<br/>class = High>, fillcolor="#9a61ea"] ;
113 -> 114 ;
115 [label=<entropy = 0.0<br/>samples = 1<br/>value = [1, 0, 0]<br/>class = Low>, fillcolor="#e58139"] ;
114 -> 115 ;
116 [label=<entropy = 0.0<br/>samples = 5<br/>value = [0, 0, 5]<br/>class = High>, fillcolor="#8139e5"] ;
114 -> 116 ;
117 [label=<entropy = 0.0<br/>samples = 13<br/>value = [0, 0, 13]<br/>class = High>, fillcolor="#8139e5"] ;
113 -> 117 ;
118 [label=<residual sugar &le; 1.85<br/>entropy = 0.971<br/>samples = 10<br/>value = [4, 0, 6]<br/>class = High>, fillcolor="#d5bdf6"] ;
112 -> 118 ;
119 [label=<entropy = 0.0<br/>samples = 2<br/>value = [2, 0, 0]<br/>class = Low>, fillcolor="#e58139"] ;
118 -> 119 ;
120 [label=<free sulfur dioxide &le; 29.5<br/>entropy = 0.811<br/>samples = 8<br/>value = [2, 0, 6]<br/>class = High>, fillcolor="#ab7bee"] ;
118 -> 120 ;
121 [label=<entropy = 0.0<br/>samples = 6<br/>value = [0, 0, 6]<br/>class = High>, fillcolor="#8139e5"] ;
120 -> 121 ;
122 [label=<entropy = 0.0<br/>samples = 2<br/>value = [2, 0, 0]<br/>class = Low>, fillcolor="#e58139"] ;
120 -> 122 ;
123 [label=<entropy = 0.0<br/>samples = 17<br/>value = [0, 0, 17]<br/>class = High>, fillcolor="#8139e5"] ;
111 -> 123 ;
124 [label=<entropy = 0.0<br/>samples = 1<br/>value = [1, 0, 0]<br/>class = Low>, fillcolor="#e58139"] ;
110 -> 124 ;
125 [label=<entropy = 0.0<br/>samples = 2<br/>value = [2, 0, 0]<br/>class = Low>, fillcolor="#e58139"] ;
109 -> 125 ;
126 [label=<entropy = 0.0<br/>samples = 15<br/>value = [0, 0, 15]<br/>class = High>, fillcolor="#8139e5"] ;
108 -> 126 ;
127 [label=<entropy = 0.0<br/>samples = 1<br/>value = [1, 0, 0]<br/>class = Low>, fillcolor="#e58139"] ;
107 -> 127 ;
128 [label=<entropy = 0.0<br/>samples = 3<br/>value = [3, 0, 0]<br/>class = Low>, fillcolor="#e58139"] ;
106 -> 128 ;
129 [label=<fixed acidity &le; 6.55<br/>entropy = 1.048<br/>samples = 53<br/>value = [18, 1, 34]<br/>class = High>, fillcolor="#c5a4f3"] ;
103 -> 129 ;
130 [label=<free sulfur dioxide &le; 17.0<br/>entropy = 0.469<br/>samples = 20<br/>value = [2, 0, 18]<br/>class = High>, fillcolor="#8f4fe8"] ;
129 -> 130 ;
131 [label=<entropy = 0.0<br/>samples = 2<br/>value = [2, 0, 0]<br/>class = Low>, fillcolor="#e58139"] ;
130 -> 131 ;
132 [label=<entropy = 0.0<br/>samples = 18<br/>value = [0, 0, 18]<br/>class = High>, fillcolor="#8139e5"] ;
130 -> 132 ;
133 [label=<citric acid &le; 0.32<br/>entropy = 1.166<br/>samples = 33<br/>value = [16, 1, 16]<br/>class = Low>, fillcolor="#ffffff"] ;
129 -> 133 ;
134 [label=<total sulfur dioxide &le; 121.0<br/>entropy = 0.722<br/>samples = 15<br/>value = [12, 0, 3]<br/>class = Low>, fillcolor="#eca06a"] ;
133 -> 134 ;
135 [label=<entropy = 0.0<br/>samples = 9<br/>value = [9, 0, 0]<br/>class = Low>, fillcolor="#e58139"] ;
134 -> 135 ;
136 [label=<alcohol &le; 10.15<br/>entropy = 1.0<br/>samples = 6<br/>value = [3, 0, 3]<br/>class = Low>, fillcolor="#ffffff"] ;
134 -> 136 ;
137 [label=<chlorides &le; 0.052<br/>entropy = 0.811<br/>samples = 4<br/>value = [1, 0, 3]<br/>class = High>, fillcolor="#ab7bee"] ;
136 -> 137 ;
138 [label=<entropy = 0.0<br/>samples = 3<br/>value = [0, 0, 3]<br/>class = High>, fillcolor="#8139e5"] ;
137 -> 138 ;
139 [label=<entropy = 0.0<br/>samples = 1<br/>value = [1, 0, 0]<br/>class = Low>, fillcolor="#e58139"] ;
137 -> 139 ;
140 [label=<entropy = 0.0<br/>samples = 2<br/>value = [2, 0, 0]<br/>class = Low>, fillcolor="#e58139"] ;
136 -> 140 ;
141 [label=<total sulfur dioxide &le; 171.5<br/>entropy = 1.053<br/>samples = 18<br/>value = [4, 1, 13]<br/>class = High>, fillcolor="#ae80ee"] ;
133 -> 141 ;
142 [label=<pH &le; 3.315<br/>entropy = 0.868<br/>samples = 16<br/>value = [2, 1, 13]<br/>class = High>, fillcolor="#9c63eb"] ;
141 -> 142 ;
143 [label=<citric acid &le; 0.345<br/>entropy = 1.5<br/>samples = 4<br/>value = [2, 1, 1]<br/>class = Low>, fillcolor="#f6d5bd"] ;
142 -> 143 ;
144 [label=<chlorides &le; 0.049<br/>entropy = 1.0<br/>samples = 2<br/>value = [0, 1, 1]<br/>class = Standard>, fillcolor="#ffffff"] ;
143 -> 144 ;
145 [label=<entropy = 0.0<br/>samples = 1<br/>value = [0, 1, 0]<br/>class = Standard>, fillcolor="#39e581"] ;
144 -> 145 ;
146 [label=<entropy = 0.0<br/>samples = 1<br/>value = [0, 0, 1]<br/>class = High>, fillcolor="#8139e5"] ;
144 -> 146 ;
147 [label=<entropy = 0.0<br/>samples = 2<br/>value = [2, 0, 0]<br/>class = Low>, fillcolor="#e58139"] ;
143 -> 147 ;
148 [label=<entropy = 0.0<br/>samples = 12<br/>value = [0, 0, 12]<br/>class = High>, fillcolor="#8139e5"] ;
142 -> 148 ;
149 [label=<entropy = 0.0<br/>samples = 2<br/>value = [2, 0, 0]<br/>class = Low>, fillcolor="#e58139"] ;
141 -> 149 ;
150 [label=<fixed acidity &le; 7.95<br/>entropy = 0.439<br/>samples = 224<br/>value = [10, 6, 208]<br/>class = High>, fillcolor="#8a48e7"] ;
102 -> 150 ;
151 [label=<fixed acidity &le; 6.15<br/>entropy = 0.347<br/>samples = 205<br/>value = [8, 3, 194]<br/>class = High>, fillcolor="#8844e6"] ;
150 -> 151 ;
152 [label=<citric acid &le; 0.32<br/>entropy = 0.619<br/>samples = 13<br/>value = [0, 2, 11]<br/>class = High>, fillcolor="#985dea"] ;
151 -> 152 ;
153 [label=<entropy = 0.0<br/>samples = 10<br/>value = [0, 0, 10]<br/>class = High>, fillcolor="#8139e5"] ;
152 -> 153 ;
154 [label=<alcohol &le; 10.35<br/>entropy = 0.918<br/>samples = 3<br/>value = [0, 2, 1]<br/>class = Standard>, fillcolor="#9cf2c0"] ;
152 -> 154 ;
155 [label=<entropy = 0.0<br/>samples = 2<br/>value = [0, 2, 0]<br/>class = Standard>, fillcolor="#39e581"] ;
154 -> 155 ;
156 [label=<entropy = 0.0<br/>samples = 1<br/>value = [0, 0, 1]<br/>class = High>, fillcolor="#8139e5"] ;
154 -> 156 ;
157 [label=<residual sugar &le; 18.4<br/>entropy = 0.297<br/>samples = 192<br/>value = [8, 1, 183]<br/>class = High>, fillcolor="#8743e6"] ;
151 -> 157 ;
158 [label=<total sulfur dioxide &le; 163.5<br/>entropy = 0.274<br/>samples = 191<br/>value = [7.0, 1.0, 183.0]<br/>class = High>, fillcolor="#8642e6"] ;
157 -> 158 ;
159 [label=<total sulfur dioxide &le; 161.5<br/>entropy = 0.317<br/>samples = 122<br/>value = [7, 0, 115]<br/>class = High>, fillcolor="#8945e7"] ;
158 -> 159 ;
160 [label=<citric acid &le; 0.305<br/>entropy = 0.253<br/>samples = 118<br/>value = [5, 0, 113]<br/>class = High>, fillcolor="#8742e6"] ;
159 -> 160 ;
161 [label=<entropy = 0.0<br/>samples = 54<br/>value = [0, 0, 54]<br/>class = High>, fillcolor="#8139e5"] ;
160 -> 161 ;
162 [label=<volatile acidity &le; 0.115<br/>entropy = 0.396<br/>samples = 64<br/>value = [5, 0, 59]<br/>class = High>, fillcolor="#8c4ae7"] ;
160 -> 162 ;
163 [label=<total sulfur dioxide &le; 109.5<br/>entropy = 1.0<br/>samples = 4<br/>value = [2, 0, 2]<br/>class = Low>, fillcolor="#ffffff"] ;
162 -> 163 ;
164 [label=<entropy = 0.0<br/>samples = 2<br/>value = [0, 0, 2]<br/>class = High>, fillcolor="#8139e5"] ;
163 -> 164 ;
165 [label=<entropy = 0.0<br/>samples = 2<br/>value = [2, 0, 0]<br/>class = Low>, fillcolor="#e58139"] ;
163 -> 165 ;
166 [label=<total sulfur dioxide &le; 124.5<br/>entropy = 0.286<br/>samples = 60<br/>value = [3, 0, 57]<br/>class = High>, fillcolor="#8843e6"] ;
162 -> 166 ;
167 [label=<fixed acidity &le; 7.8<br/>entropy = 0.529<br/>samples = 25<br/>value = [3, 0, 22]<br/>class = High>, fillcolor="#9254e9"] ;
166 -> 167 ;
168 [label=<density &le; 0.997<br/>entropy = 0.414<br/>samples = 24<br/>value = [2, 0, 22]<br/>class = High>, fillcolor="#8c4be7"] ;
167 -> 168 ;
169 [label=<entropy = 0.0<br/>samples = 16<br/>value = [0, 0, 16]<br/>class = High>, fillcolor="#8139e5"] ;
168 -> 169 ;
170 [label=<density &le; 0.997<br/>entropy = 0.811<br/>samples = 8<br/>value = [2, 0, 6]<br/>class = High>, fillcolor="#ab7bee"] ;
168 -> 170 ;
171 [label=<entropy = 0.0<br/>samples = 2<br/>value = [2, 0, 0]<br/>class = Low>, fillcolor="#e58139"] ;
170 -> 171 ;
172 [label=<entropy = 0.0<br/>samples = 6<br/>value = [0, 0, 6]<br/>class = High>, fillcolor="#8139e5"] ;
170 -> 172 ;
173 [label=<entropy = 0.0<br/>samples = 1<br/>value = [1, 0, 0]<br/>class = Low>, fillcolor="#e58139"] ;
167 -> 173 ;
174 [label=<entropy = 0.0<br/>samples = 35<br/>value = [0, 0, 35]<br/>class = High>, fillcolor="#8139e5"] ;
166 -> 174 ;
175 [label=<alcohol &le; 9.9<br/>entropy = 1.0<br/>samples = 4<br/>value = [2, 0, 2]<br/>class = Low>, fillcolor="#ffffff"] ;
159 -> 175 ;
176 [label=<entropy = 0.0<br/>samples = 2<br/>value = [0, 0, 2]<br/>class = High>, fillcolor="#8139e5"] ;
175 -> 176 ;
177 [label=<entropy = 0.0<br/>samples = 2<br/>value = [2, 0, 0]<br/>class = Low>, fillcolor="#e58139"] ;
175 -> 177 ;
178 [label=<pH &le; 3.06<br/>entropy = 0.109<br/>samples = 69<br/>value = [0, 1, 68]<br/>class = High>, fillcolor="#833ce5"] ;
158 -> 178 ;
179 [label=<total sulfur dioxide &le; 166.5<br/>entropy = 0.918<br/>samples = 3<br/>value = [0, 1, 2]<br/>class = High>, fillcolor="#c09cf2"] ;
178 -> 179 ;
180 [label=<entropy = 0.0<br/>samples = 1<br/>value = [0, 1, 0]<br/>class = Standard>, fillcolor="#39e581"] ;
179 -> 180 ;
181 [label=<entropy = 0.0<br/>samples = 2<br/>value = [0, 0, 2]<br/>class = High>, fillcolor="#8139e5"] ;
179 -> 181 ;
182 [label=<entropy = 0.0<br/>samples = 66<br/>value = [0, 0, 66]<br/>class = High>, fillcolor="#8139e5"] ;
178 -> 182 ;
183 [label=<entropy = 0.0<br/>samples = 1<br/>value = [1, 0, 0]<br/>class = Low>, fillcolor="#e58139"] ;
157 -> 183 ;
184 [label=<free sulfur dioxide &le; 27.5<br/>entropy = 1.087<br/>samples = 19<br/>value = [2, 3, 14]<br/>class = High>, fillcolor="#a877ed"] ;
150 -> 184 ;
185 [label=<fixed acidity &le; 8.55<br/>entropy = 1.0<br/>samples = 6<br/>value = [0, 3, 3]<br/>class = Standard>, fillcolor="#ffffff"] ;
184 -> 185 ;
186 [label=<entropy = 0.0<br/>samples = 2<br/>value = [0, 2, 0]<br/>class = Standard>, fillcolor="#39e581"] ;
185 -> 186 ;
187 [label=<volatile acidity &le; 0.18<br/>entropy = 0.811<br/>samples = 4<br/>value = [0, 1, 3]<br/>class = High>, fillcolor="#ab7bee"] ;
185 -> 187 ;
188 [label=<entropy = 0.0<br/>samples = 3<br/>value = [0, 0, 3]<br/>class = High>, fillcolor="#8139e5"] ;
187 -> 188 ;
189 [label=<entropy = 0.0<br/>samples = 1<br/>value = [0, 1, 0]<br/>class = Standard>, fillcolor="#39e581"] ;
187 -> 189 ;
190 [label=<fixed acidity &le; 8.05<br/>entropy = 0.619<br/>samples = 13<br/>value = [2, 0, 11]<br/>class = High>, fillcolor="#985dea"] ;
184 -> 190 ;
191 [label=<citric acid &le; 0.335<br/>entropy = 1.0<br/>samples = 4<br/>value = [2, 0, 2]<br/>class = Low>, fillcolor="#ffffff"] ;
190 -> 191 ;
192 [label=<entropy = 0.0<br/>samples = 2<br/>value = [0, 0, 2]<br/>class = High>, fillcolor="#8139e5"] ;
191 -> 192 ;
193 [label=<entropy = 0.0<br/>samples = 2<br/>value = [2, 0, 0]<br/>class = Low>, fillcolor="#e58139"] ;
191 -> 193 ;
194 [label=<entropy = 0.0<br/>samples = 9<br/>value = [0, 0, 9]<br/>class = High>, fillcolor="#8139e5"] ;
190 -> 194 ;
195 [label=<free sulfur dioxide &le; 11.75<br/>entropy = 0.559<br/>samples = 1162<br/>value = [48.0, 66.0, 1048.0]<br/>class = High>, fillcolor="#8e4ee8"] ;
1 -> 195 ;
196 [label=<chlorides &le; 0.045<br/>entropy = 0.988<br/>samples = 61<br/>value = [1, 18, 42]<br/>class = High>, fillcolor="#b990f0"] ;
195 -> 196 ;
197 [label=<free sulfur dioxide &le; 6.5<br/>entropy = 0.371<br/>samples = 28<br/>value = [0, 2, 26]<br/>class = High>, fillcolor="#8b48e7"] ;
196 -> 197 ;
198 [label=<free sulfur dioxide &le; 5.5<br/>entropy = 0.918<br/>samples = 6<br/>value = [0, 2, 4]<br/>class = High>, fillcolor="#c09cf2"] ;
197 -> 198 ;
199 [label=<entropy = 0.0<br/>samples = 4<br/>value = [0, 0, 4]<br/>class = High>, fillcolor="#8139e5"] ;
198 -> 199 ;
200 [label=<entropy = 0.0<br/>samples = 2<br/>value = [0, 2, 0]<br/>class = Standard>, fillcolor="#39e581"] ;
198 -> 200 ;
201 [label=<entropy = 0.0<br/>samples = 22<br/>value = [0, 0, 22]<br/>class = High>, fillcolor="#8139e5"] ;
197 -> 201 ;
202 [label=<density &le; 0.996<br/>entropy = 1.166<br/>samples = 33<br/>value = [1, 16, 16]<br/>class = Standard>, fillcolor="#ffffff"] ;
196 -> 202 ;
203 [label=<chlorides &le; 0.055<br/>entropy = 1.163<br/>samples = 28<br/>value = [1, 16, 11]<br/>class = Standard>, fillcolor="#c5f7da"] ;
202 -> 203 ;
204 [label=<fixed acidity &le; 8.4<br/>entropy = 1.0<br/>samples = 22<br/>value = [0, 11, 11]<br/>class = Standard>, fillcolor="#ffffff"] ;
203 -> 204 ;
205 [label=<citric acid &le; 0.305<br/>entropy = 0.964<br/>samples = 18<br/>value = [0, 7, 11]<br/>class = High>, fillcolor="#d1b7f6"] ;
204 -> 205 ;
206 [label=<citric acid &le; 0.175<br/>entropy = 0.946<br/>samples = 11<br/>value = [0, 7, 4]<br/>class = Standard>, fillcolor="#aaf4c9"] ;
205 -> 206 ;
207 [label=<entropy = 0.0<br/>samples = 3<br/>value = [0, 0, 3]<br/>class = High>, fillcolor="#8139e5"] ;
206 -> 207 ;
208 [label=<fixed acidity &le; 7.3<br/>entropy = 0.544<br/>samples = 8<br/>value = [0, 7, 1]<br/>class = Standard>, fillcolor="#55e993"] ;
206 -> 208 ;
209 [label=<entropy = 0.0<br/>samples = 6<br/>value = [0, 6, 0]<br/>class = Standard>, fillcolor="#39e581"] ;
208 -> 209 ;
210 [label=<total sulfur dioxide &le; 102.0<br/>entropy = 1.0<br/>samples = 2<br/>value = [0, 1, 1]<br/>class = Standard>, fillcolor="#ffffff"] ;
208 -> 210 ;
211 [label=<entropy = 0.0<br/>samples = 1<br/>value = [0, 1, 0]<br/>class = Standard>, fillcolor="#39e581"] ;
210 -> 211 ;
212 [label=<entropy = 0.0<br/>samples = 1<br/>value = [0, 0, 1]<br/>class = High>, fillcolor="#8139e5"] ;
210 -> 212 ;
213 [label=<entropy = 0.0<br/>samples = 7<br/>value = [0, 0, 7]<br/>class = High>, fillcolor="#8139e5"] ;
205 -> 213 ;
214 [label=<entropy = 0.0<br/>samples = 4<br/>value = [0, 4, 0]<br/>class = Standard>, fillcolor="#39e581"] ;
204 -> 214 ;
215 [label=<total sulfur dioxide &le; 155.5<br/>entropy = 0.65<br/>samples = 6<br/>value = [1, 5, 0]<br/>class = Standard>, fillcolor="#61ea9a"] ;
203 -> 215 ;
216 [label=<entropy = 0.0<br/>samples = 5<br/>value = [0, 5, 0]<br/>class = Standard>, fillcolor="#39e581"] ;
215 -> 216 ;
217 [label=<entropy = 0.0<br/>samples = 1<br/>value = [1, 0, 0]<br/>class = Low>, fillcolor="#e58139"] ;
215 -> 217 ;
218 [label=<entropy = 0.0<br/>samples = 5<br/>value = [0, 0, 5]<br/>class = High>, fillcolor="#8139e5"] ;
202 -> 218 ;
219 [label=<volatile acidity &le; 0.587<br/>entropy = 0.51<br/>samples = 1101<br/>value = [47.0, 48.0, 1006.0]<br/>class = High>, fillcolor="#8c4be7"] ;
195 -> 219 ;
220 [label=<volatile acidity &le; 0.303<br/>entropy = 0.474<br/>samples = 1071<br/>value = [47.0, 37.0, 987.0]<br/>class = High>, fillcolor="#8b49e7"] ;
219 -> 220 ;
221 [label=<sulphates &le; 0.525<br/>entropy = 0.588<br/>samples = 612<br/>value = [42.0, 23.0, 547.0]<br/>class = High>, fillcolor="#8f50e8"] ;
220 -> 221 ;
222 [label=<citric acid &le; 0.375<br/>entropy = 0.437<br/>samples = 422<br/>value = [19, 11, 392]<br/>class = High>, fillcolor="#8a48e7"] ;
221 -> 222 ;
223 [label=<pH &le; 3.065<br/>entropy = 0.49<br/>samples = 292<br/>value = [19, 6, 267]<br/>class = High>, fillcolor="#8d4be7"] ;
222 -> 223 ;
224 [label=<citric acid &le; 0.285<br/>entropy = 1.034<br/>samples = 52<br/>value = [9, 4, 39]<br/>class = High>, fillcolor="#a775ed"] ;
223 -> 224 ;
225 [label=<chlorides &le; 0.055<br/>entropy = 0.667<br/>samples = 23<br/>value = [0, 4, 19]<br/>class = High>, fillcolor="#9c63ea"] ;
224 -> 225 ;
226 [label=<sulphates &le; 0.32<br/>entropy = 0.31<br/>samples = 18<br/>value = [0, 1, 17]<br/>class = High>, fillcolor="#8845e7"] ;
225 -> 226 ;
227 [label=<entropy = 0.0<br/>samples = 1<br/>value = [0, 1, 0]<br/>class = Standard>, fillcolor="#39e581"] ;
226 -> 227 ;
228 [label=<entropy = 0.0<br/>samples = 17<br/>value = [0, 0, 17]<br/>class = High>, fillcolor="#8139e5"] ;
226 -> 228 ;
229 [label=<chlorides &le; 0.075<br/>entropy = 0.971<br/>samples = 5<br/>value = [0, 3, 2]<br/>class = Standard>, fillcolor="#bdf6d5"] ;
225 -> 229 ;
230 [label=<entropy = 0.0<br/>samples = 3<br/>value = [0, 3, 0]<br/>class = Standard>, fillcolor="#39e581"] ;
229 -> 230 ;
231 [label=<entropy = 0.0<br/>samples = 2<br/>value = [0, 0, 2]<br/>class = High>, fillcolor="#8139e5"] ;
229 -> 231 ;
232 [label=<sulphates &le; 0.43<br/>entropy = 0.894<br/>samples = 29<br/>value = [9, 0, 20]<br/>class = High>, fillcolor="#ba92f1"] ;
224 -> 232 ;
233 [label=<entropy = 0.0<br/>samples = 10<br/>value = [0, 0, 10]<br/>class = High>, fillcolor="#8139e5"] ;
232 -> 233 ;
234 [label=<pH &le; 3.035<br/>entropy = 0.998<br/>samples = 19<br/>value = [9, 0, 10]<br/>class = High>, fillcolor="#f2ebfc"] ;
232 -> 234 ;
235 [label=<density &le; 0.994<br/>entropy = 0.811<br/>samples = 12<br/>value = [3, 0, 9]<br/>class = High>, fillcolor="#ab7bee"] ;
234 -> 235 ;
236 [label=<entropy = 0.0<br/>samples = 2<br/>value = [2, 0, 0]<br/>class = Low>, fillcolor="#e58139"] ;
235 -> 236 ;
237 [label=<alcohol &le; 10.1<br/>entropy = 0.469<br/>samples = 10<br/>value = [1, 0, 9]<br/>class = High>, fillcolor="#8f4fe8"] ;
235 -> 237 ;
238 [label=<entropy = 0.0<br/>samples = 9<br/>value = [0, 0, 9]<br/>class = High>, fillcolor="#8139e5"] ;
237 -> 238 ;
239 [label=<entropy = 0.0<br/>samples = 1<br/>value = [1, 0, 0]<br/>class = Low>, fillcolor="#e58139"] ;
237 -> 239 ;
240 [label=<total sulfur dioxide &le; 174.0<br/>entropy = 0.592<br/>samples = 7<br/>value = [6, 0, 1]<br/>class = Low>, fillcolor="#e9965a"] ;
234 -> 240 ;
241 [label=<entropy = 0.0<br/>samples = 1<br/>value = [0, 0, 1]<br/>class = High>, fillcolor="#8139e5"] ;
240 -> 241 ;
242 [label=<entropy = 0.0<br/>samples = 6<br/>value = [6, 0, 0]<br/>class = Low>, fillcolor="#e58139"] ;
240 -> 242 ;
243 [label=<pH &le; 3.325<br/>entropy = 0.319<br/>samples = 240<br/>value = [10, 2, 228]<br/>class = High>, fillcolor="#8843e6"] ;
223 -> 243 ;
244 [label=<sulphates &le; 0.395<br/>entropy = 0.19<br/>samples = 204<br/>value = [3, 2, 199]<br/>class = High>, fillcolor="#843ee6"] ;
243 -> 244 ;
245 [label=<total sulfur dioxide &le; 203.5<br/>entropy = 0.318<br/>samples = 52<br/>value = [3, 0, 49]<br/>class = High>, fillcolor="#8945e7"] ;
244 -> 245 ;
246 [label=<fixed acidity &le; 7.7<br/>entropy = 0.149<br/>samples = 47<br/>value = [1, 0, 46]<br/>class = High>, fillcolor="#843de6"] ;
245 -> 246 ;
247 [label=<entropy = 0.0<br/>samples = 43<br/>value = [0, 0, 43]<br/>class = High>, fillcolor="#8139e5"] ;
246 -> 247 ;
248 [label=<citric acid &le; 0.305<br/>entropy = 0.811<br/>samples = 4<br/>value = [1, 0, 3]<br/>class = High>, fillcolor="#ab7bee"] ;
246 -> 248 ;
249 [label=<entropy = 0.0<br/>samples = 3<br/>value = [0, 0, 3]<br/>class = High>, fillcolor="#8139e5"] ;
248 -> 249 ;
250 [label=<entropy = 0.0<br/>samples = 1<br/>value = [1, 0, 0]<br/>class = Low>, fillcolor="#e58139"] ;
248 -> 250 ;
251 [label=<alcohol &le; 9.1<br/>entropy = 0.971<br/>samples = 5<br/>value = [2, 0, 3]<br/>class = High>, fillcolor="#d5bdf6"] ;
245 -> 251 ;
252 [label=<entropy = 0.0<br/>samples = 2<br/>value = [2, 0, 0]<br/>class = Low>, fillcolor="#e58139"] ;
251 -> 252 ;
253 [label=<entropy = 0.0<br/>samples = 3<br/>value = [0, 0, 3]<br/>class = High>, fillcolor="#8139e5"] ;
251 -> 253 ;
254 [label=<citric acid &le; 0.335<br/>entropy = 0.101<br/>samples = 152<br/>value = [0, 2, 150]<br/>class = High>, fillcolor="#833ce5"] ;
244 -> 254 ;
255 [label=<entropy = 0.0<br/>samples = 120<br/>value = [0, 0, 120]<br/>class = High>, fillcolor="#8139e5"] ;
254 -> 255 ;
256 [label=<sulphates &le; 0.515<br/>entropy = 0.337<br/>samples = 32<br/>value = [0, 2, 30]<br/>class = High>, fillcolor="#8946e7"] ;
254 -> 256 ;
257 [label=<total sulfur dioxide &le; 115.5<br/>entropy = 0.206<br/>samples = 31<br/>value = [0, 1, 30]<br/>class = High>, fillcolor="#8540e6"] ;
256 -> 257 ;
258 [label=<fixed acidity &le; 5.45<br/>entropy = 1.0<br/>samples = 2<br/>value = [0, 1, 1]<br/>class = Standard>, fillcolor="#ffffff"] ;
257 -> 258 ;
259 [label=<entropy = 0.0<br/>samples = 1<br/>value = [0, 0, 1]<br/>class = High>, fillcolor="#8139e5"] ;
258 -> 259 ;
260 [label=<entropy = 0.0<br/>samples = 1<br/>value = [0, 1, 0]<br/>class = Standard>, fillcolor="#39e581"] ;
258 -> 260 ;
261 [label=<entropy = 0.0<br/>samples = 29<br/>value = [0, 0, 29]<br/>class = High>, fillcolor="#8139e5"] ;
257 -> 261 ;
262 [label=<entropy = 0.0<br/>samples = 1<br/>value = [0, 1, 0]<br/>class = Standard>, fillcolor="#39e581"] ;
256 -> 262 ;
263 [label=<alcohol &le; 10.45<br/>entropy = 0.711<br/>samples = 36<br/>value = [7, 0, 29]<br/>class = High>, fillcolor="#9f69eb"] ;
243 -> 263 ;
264 [label=<sulphates &le; 0.505<br/>entropy = 0.216<br/>samples = 29<br/>value = [1, 0, 28]<br/>class = High>, fillcolor="#8640e6"] ;
263 -> 264 ;
265 [label=<entropy = 0.0<br/>samples = 28<br/>value = [0, 0, 28]<br/>class = High>, fillcolor="#8139e5"] ;
264 -> 265 ;
266 [label=<entropy = 0.0<br/>samples = 1<br/>value = [1, 0, 0]<br/>class = Low>, fillcolor="#e58139"] ;
264 -> 266 ;
267 [label=<residual sugar &le; 11.45<br/>entropy = 0.592<br/>samples = 7<br/>value = [6, 0, 1]<br/>class = Low>, fillcolor="#e9965a"] ;
263 -> 267 ;
268 [label=<entropy = 0.0<br/>samples = 6<br/>value = [6, 0, 0]<br/>class = Low>, fillcolor="#e58139"] ;
267 -> 268 ;
269 [label=<entropy = 0.0<br/>samples = 1<br/>value = [0, 0, 1]<br/>class = High>, fillcolor="#8139e5"] ;
267 -> 269 ;
270 [label=<fixed acidity &le; 7.25<br/>entropy = 0.235<br/>samples = 130<br/>value = [0, 5, 125]<br/>class = High>, fillcolor="#8641e6"] ;
222 -> 270 ;
271 [label=<entropy = 0.0<br/>samples = 86<br/>value = [0, 0, 86]<br/>class = High>, fillcolor="#8139e5"] ;
270 -> 271 ;
272 [label=<chlorides &le; 0.034<br/>entropy = 0.511<br/>samples = 44<br/>value = [0, 5, 39]<br/>class = High>, fillcolor="#9152e8"] ;
270 -> 272 ;
273 [label=<entropy = 0.0<br/>samples = 2<br/>value = [0, 2, 0]<br/>class = Standard>, fillcolor="#39e581"] ;
272 -> 273 ;
274 [label=<fixed acidity &le; 8.9<br/>entropy = 0.371<br/>samples = 42<br/>value = [0, 3, 39]<br/>class = High>, fillcolor="#8b48e7"] ;
272 -> 274 ;
275 [label=<citric acid &le; 0.585<br/>entropy = 0.179<br/>samples = 37<br/>value = [0, 1, 36]<br/>class = High>, fillcolor="#843ee6"] ;
274 -> 275 ;
276 [label=<entropy = 0.0<br/>samples = 31<br/>value = [0, 0, 31]<br/>class = High>, fillcolor="#8139e5"] ;
275 -> 276 ;
277 [label=<volatile acidity &le; 0.265<br/>entropy = 0.65<br/>samples = 6<br/>value = [0, 1, 5]<br/>class = High>, fillcolor="#9a61ea"] ;
275 -> 277 ;
278 [label=<entropy = 0.0<br/>samples = 1<br/>value = [0, 1, 0]<br/>class = Standard>, fillcolor="#39e581"] ;
277 -> 278 ;
279 [label=<entropy = 0.0<br/>samples = 5<br/>value = [0, 0, 5]<br/>class = High>, fillcolor="#8139e5"] ;
277 -> 279 ;
280 [label=<residual sugar &le; 5.725<br/>entropy = 0.971<br/>samples = 5<br/>value = [0, 2, 3]<br/>class = High>, fillcolor="#d5bdf6"] ;
274 -> 280 ;
281 [label=<entropy = 0.0<br/>samples = 3<br/>value = [0, 0, 3]<br/>class = High>, fillcolor="#8139e5"] ;
280 -> 281 ;
282 [label=<entropy = 0.0<br/>samples = 2<br/>value = [0, 2, 0]<br/>class = Standard>, fillcolor="#39e581"] ;
280 -> 282 ;
283 [label=<total sulfur dioxide &le; 176.5<br/>entropy = 0.86<br/>samples = 190<br/>value = [23, 12, 155]<br/>class = High>, fillcolor="#9b62ea"] ;
221 -> 283 ;
284 [label=<citric acid &le; 0.545<br/>entropy = 0.648<br/>samples = 116<br/>value = [16, 1, 99]<br/>class = High>, fillcolor="#965be9"] ;
283 -> 284 ;
285 [label=<sulphates &le; 0.575<br/>entropy = 0.565<br/>samples = 113<br/>value = [15.0, 0.0, 98.0]<br/>class = High>, fillcolor="#9457e9"] ;
284 -> 285 ;
286 [label=<free sulfur dioxide &le; 31.5<br/>entropy = 0.794<br/>samples = 46<br/>value = [11, 0, 35]<br/>class = High>, fillcolor="#a977ed"] ;
285 -> 286 ;
287 [label=<entropy = 0.0<br/>samples = 16<br/>value = [0, 0, 16]<br/>class = High>, fillcolor="#8139e5"] ;
286 -> 287 ;
288 [label=<free sulfur dioxide &le; 51.0<br/>entropy = 0.948<br/>samples = 30<br/>value = [11, 0, 19]<br/>class = High>, fillcolor="#caacf4"] ;
286 -> 288 ;
289 [label=<chlorides &le; 0.053<br/>entropy = 0.998<br/>samples = 21<br/>value = [11, 0, 10]<br/>class = Low>, fillcolor="#fdf4ed"] ;
288 -> 289 ;
290 [label=<free sulfur dioxide &le; 41.0<br/>entropy = 0.937<br/>samples = 17<br/>value = [11, 0, 6]<br/>class = Low>, fillcolor="#f3c6a5"] ;
289 -> 290 ;
291 [label=<pH &le; 3.385<br/>entropy = 0.971<br/>samples = 10<br/>value = [4, 0, 6]<br/>class = High>, fillcolor="#d5bdf6"] ;
290 -> 291 ;
292 [label=<entropy = 0.0<br/>samples = 4<br/>value = [0, 0, 4]<br/>class = High>, fillcolor="#8139e5"] ;
291 -> 292 ;
293 [label=<citric acid &le; 0.265<br/>entropy = 0.918<br/>samples = 6<br/>value = [4, 0, 2]<br/>class = Low>, fillcolor="#f2c09c"] ;
291 -> 293 ;
294 [label=<chlorides &le; 0.033<br/>entropy = 0.918<br/>samples = 3<br/>value = [1, 0, 2]<br/>class = High>, fillcolor="#c09cf2"] ;
293 -> 294 ;
295 [label=<entropy = 0.0<br/>samples = 1<br/>value = [1, 0, 0]<br/>class = Low>, fillcolor="#e58139"] ;
294 -> 295 ;
296 [label=<entropy = 0.0<br/>samples = 2<br/>value = [0, 0, 2]<br/>class = High>, fillcolor="#8139e5"] ;
294 -> 296 ;
297 [label=<entropy = 0.0<br/>samples = 3<br/>value = [3, 0, 0]<br/>class = Low>, fillcolor="#e58139"] ;
293 -> 297 ;
298 [label=<entropy = 0.0<br/>samples = 7<br/>value = [7, 0, 0]<br/>class = Low>, fillcolor="#e58139"] ;
290 -> 298 ;
299 [label=<entropy = 0.0<br/>samples = 4<br/>value = [0, 0, 4]<br/>class = High>, fillcolor="#8139e5"] ;
289 -> 299 ;
300 [label=<entropy = 0.0<br/>samples = 9<br/>value = [0, 0, 9]<br/>class = High>, fillcolor="#8139e5"] ;
288 -> 300 ;
301 [label=<alcohol &le; 10.35<br/>entropy = 0.326<br/>samples = 67<br/>value = [4, 0, 63]<br/>class = High>, fillcolor="#8946e7"] ;
285 -> 301 ;
302 [label=<entropy = 0.0<br/>samples = 40<br/>value = [0, 0, 40]<br/>class = High>, fillcolor="#8139e5"] ;
301 -> 302 ;
303 [label=<fixed acidity &le; 6.7<br/>entropy = 0.605<br/>samples = 27<br/>value = [4, 0, 23]<br/>class = High>, fillcolor="#975bea"] ;
301 -> 303 ;
304 [label=<entropy = 0.0<br/>samples = 14<br/>value = [0, 0, 14]<br/>class = High>, fillcolor="#8139e5"] ;
303 -> 304 ;
305 [label=<density &le; 0.995<br/>entropy = 0.89<br/>samples = 13<br/>value = [4, 0, 9]<br/>class = High>, fillcolor="#b991f1"] ;
303 -> 305 ;
306 [label=<density &le; 0.995<br/>entropy = 1.0<br/>samples = 8<br/>value = [4, 0, 4]<br/>class = Low>, fillcolor="#ffffff"] ;
305 -> 306 ;
307 [label=<alcohol &le; 10.45<br/>entropy = 0.918<br/>samples = 6<br/>value = [2, 0, 4]<br/>class = High>, fillcolor="#c09cf2"] ;
306 -> 307 ;
308 [label=<entropy = 0.0<br/>samples = 2<br/>value = [2, 0, 0]<br/>class = Low>, fillcolor="#e58139"] ;
307 -> 308 ;
309 [label=<entropy = 0.0<br/>samples = 4<br/>value = [0, 0, 4]<br/>class = High>, fillcolor="#8139e5"] ;
307 -> 309 ;
310 [label=<entropy = 0.0<br/>samples = 2<br/>value = [2, 0, 0]<br/>class = Low>, fillcolor="#e58139"] ;
306 -> 310 ;
311 [label=<entropy = 0.0<br/>samples = 5<br/>value = [0, 0, 5]<br/>class = High>, fillcolor="#8139e5"] ;
305 -> 311 ;
312 [label=<free sulfur dioxide &le; 21.5<br/>entropy = 1.585<br/>samples = 3<br/>value = [1, 1, 1]<br/>class = Low>, fillcolor="#ffffff"] ;
284 -> 312 ;
313 [label=<entropy = 0.0<br/>samples = 1<br/>value = [0, 1, 0]<br/>class = Standard>, fillcolor="#39e581"] ;
312 -> 313 ;
314 [label=<free sulfur dioxide &le; 46.0<br/>entropy = 1.0<br/>samples = 2<br/>value = [1, 0, 1]<br/>class = Low>, fillcolor="#ffffff"] ;
312 -> 314 ;
315 [label=<entropy = 0.0<br/>samples = 1<br/>value = [0, 0, 1]<br/>class = High>, fillcolor="#8139e5"] ;
314 -> 315 ;
316 [label=<entropy = 0.0<br/>samples = 1<br/>value = [1, 0, 0]<br/>class = Low>, fillcolor="#e58139"] ;
314 -> 316 ;
317 [label=<free sulfur dioxide &le; 35.25<br/>entropy = 1.035<br/>samples = 74<br/>value = [7, 11, 56]<br/>class = High>, fillcolor="#a572ec"] ;
283 -> 317 ;
318 [label=<residual sugar &le; 14.35<br/>entropy = 1.458<br/>samples = 20<br/>value = [3, 8, 9]<br/>class = High>, fillcolor="#f5effd"] ;
317 -> 318 ;
319 [label=<density &le; 0.996<br/>entropy = 0.989<br/>samples = 16<br/>value = [0, 7, 9]<br/>class = High>, fillcolor="#e3d3f9"] ;
318 -> 319 ;
320 [label=<volatile acidity &le; 0.26<br/>entropy = 0.946<br/>samples = 11<br/>value = [0, 7, 4]<br/>class = Standard>, fillcolor="#aaf4c9"] ;
319 -> 320 ;
321 [label=<entropy = 0.0<br/>samples = 2<br/>value = [0, 0, 2]<br/>class = High>, fillcolor="#8139e5"] ;
320 -> 321 ;
322 [label=<sulphates &le; 0.575<br/>entropy = 0.764<br/>samples = 9<br/>value = [0, 7, 2]<br/>class = Standard>, fillcolor="#72eca5"] ;
320 -> 322 ;
323 [label=<entropy = 0.0<br/>samples = 5<br/>value = [0, 5, 0]<br/>class = Standard>, fillcolor="#39e581"] ;
322 -> 323 ;
324 [label=<free sulfur dioxide &le; 22.0<br/>entropy = 1.0<br/>samples = 4<br/>value = [0, 2, 2]<br/>class = Standard>, fillcolor="#ffffff"] ;
322 -> 324 ;
325 [label=<entropy = 0.0<br/>samples = 2<br/>value = [0, 2, 0]<br/>class = Standard>, fillcolor="#39e581"] ;
324 -> 325 ;
326 [label=<entropy = 0.0<br/>samples = 2<br/>value = [0, 0, 2]<br/>class = High>, fillcolor="#8139e5"] ;
324 -> 326 ;
327 [label=<entropy = 0.0<br/>samples = 5<br/>value = [0, 0, 5]<br/>class = High>, fillcolor="#8139e5"] ;
319 -> 327 ;
328 [label=<citric acid &le; 0.4<br/>entropy = 0.811<br/>samples = 4<br/>value = [3, 1, 0]<br/>class = Low>, fillcolor="#eeab7b"] ;
318 -> 328 ;
329 [label=<entropy = 0.0<br/>samples = 3<br/>value = [3, 0, 0]<br/>class = Low>, fillcolor="#e58139"] ;
328 -> 329 ;
330 [label=<entropy = 0.0<br/>samples = 1<br/>value = [0, 1, 0]<br/>class = Standard>, fillcolor="#39e581"] ;
328 -> 330 ;
331 [label=<chlorides &le; 0.041<br/>entropy = 0.684<br/>samples = 54<br/>value = [4, 3, 47]<br/>class = High>, fillcolor="#9355e9"] ;
317 -> 331 ;
332 [label=<pH &le; 3.5<br/>entropy = 1.159<br/>samples = 15<br/>value = [4, 1, 10]<br/>class = High>, fillcolor="#ba93f1"] ;
331 -> 332 ;
333 [label=<alcohol &le; 10.2<br/>entropy = 0.863<br/>samples = 14<br/>value = [4, 0, 10]<br/>class = High>, fillcolor="#b388ef"] ;
332 -> 333 ;
334 [label=<alcohol &le; 9.35<br/>entropy = 0.65<br/>samples = 12<br/>value = [2, 0, 10]<br/>class = High>, fillcolor="#9a61ea"] ;
333 -> 334 ;
335 [label=<alcohol &le; 9.15<br/>entropy = 0.918<br/>samples = 3<br/>value = [2, 0, 1]<br/>class = Low>, fillcolor="#f2c09c"] ;
334 -> 335 ;
336 [label=<entropy = 0.0<br/>samples = 1<br/>value = [0, 0, 1]<br/>class = High>, fillcolor="#8139e5"] ;
335 -> 336 ;
337 [label=<entropy = 0.0<br/>samples = 2<br/>value = [2, 0, 0]<br/>class = Low>, fillcolor="#e58139"] ;
335 -> 337 ;
338 [label=<entropy = 0.0<br/>samples = 9<br/>value = [0, 0, 9]<br/>class = High>, fillcolor="#8139e5"] ;
334 -> 338 ;
339 [label=<entropy = 0.0<br/>samples = 2<br/>value = [2, 0, 0]<br/>class = Low>, fillcolor="#e58139"] ;
333 -> 339 ;
340 [label=<entropy = 0.0<br/>samples = 1<br/>value = [0, 1, 0]<br/>class = Standard>, fillcolor="#39e581"] ;
332 -> 340 ;
341 [label=<alcohol &le; 9.05<br/>entropy = 0.292<br/>samples = 39<br/>value = [0, 2, 37]<br/>class = High>, fillcolor="#8844e6"] ;
331 -> 341 ;
342 [label=<fixed acidity &le; 6.65<br/>entropy = 0.811<br/>samples = 8<br/>value = [0, 2, 6]<br/>class = High>, fillcolor="#ab7bee"] ;
341 -> 342 ;
343 [label=<entropy = 0.0<br/>samples = 2<br/>value = [0, 2, 0]<br/>class = Standard>, fillcolor="#39e581"] ;
342 -> 343 ;
344 [label=<entropy = 0.0<br/>samples = 6<br/>value = [0, 0, 6]<br/>class = High>, fillcolor="#8139e5"] ;
342 -> 344 ;
345 [label=<entropy = 0.0<br/>samples = 31<br/>value = [0, 0, 31]<br/>class = High>, fillcolor="#8139e5"] ;
341 -> 345 ;
346 [label=<citric acid &le; 0.205<br/>entropy = 0.283<br/>samples = 459<br/>value = [5, 14, 440]<br/>class = High>, fillcolor="#8641e6"] ;
220 -> 346 ;
347 [label=<chlorides &le; 0.059<br/>entropy = 0.405<br/>samples = 99<br/>value = [0, 8, 91]<br/>class = High>, fillcolor="#8c4ae7"] ;
346 -> 347 ;
348 [label=<residual sugar &le; 0.95<br/>entropy = 0.101<br/>samples = 76<br/>value = [0, 1, 75]<br/>class = High>, fillcolor="#833ce5"] ;
347 -> 348 ;
349 [label=<fixed acidity &le; 6.2<br/>entropy = 0.918<br/>samples = 3<br/>value = [0, 1, 2]<br/>class = High>, fillcolor="#c09cf2"] ;
348 -> 349 ;
350 [label=<entropy = 0.0<br/>samples = 2<br/>value = [0, 0, 2]<br/>class = High>, fillcolor="#8139e5"] ;
349 -> 350 ;
351 [label=<entropy = 0.0<br/>samples = 1<br/>value = [0, 1, 0]<br/>class = Standard>, fillcolor="#39e581"] ;
349 -> 351 ;
352 [label=<entropy = 0.0<br/>samples = 73<br/>value = [0, 0, 73]<br/>class = High>, fillcolor="#8139e5"] ;
348 -> 352 ;
353 [label=<sulphates &le; 0.39<br/>entropy = 0.887<br/>samples = 23<br/>value = [0, 7, 16]<br/>class = High>, fillcolor="#b890f0"] ;
347 -> 353 ;
354 [label=<entropy = 0.0<br/>samples = 3<br/>value = [0, 3, 0]<br/>class = Standard>, fillcolor="#39e581"] ;
353 -> 354 ;
355 [label=<density &le; 0.998<br/>entropy = 0.722<br/>samples = 20<br/>value = [0, 4, 16]<br/>class = High>, fillcolor="#a06aec"] ;
353 -> 355 ;
356 [label=<entropy = 0.0<br/>samples = 13<br/>value = [0, 0, 13]<br/>class = High>, fillcolor="#8139e5"] ;
355 -> 356 ;
357 [label=<residual sugar &le; 16.325<br/>entropy = 0.985<br/>samples = 7<br/>value = [0, 4, 3]<br/>class = Standard>, fillcolor="#cef8e0"] ;
355 -> 357 ;
358 [label=<entropy = 0.0<br/>samples = 4<br/>value = [0, 4, 0]<br/>class = Standard>, fillcolor="#39e581"] ;
357 -> 358 ;
359 [label=<entropy = 0.0<br/>samples = 3<br/>value = [0, 0, 3]<br/>class = High>, fillcolor="#8139e5"] ;
357 -> 359 ;
360 [label=<citric acid &le; 0.285<br/>entropy = 0.228<br/>samples = 360<br/>value = [5, 6, 349]<br/>class = High>, fillcolor="#853fe6"] ;
346 -> 360 ;
361 [label=<density &le; 0.993<br/>entropy = 0.36<br/>samples = 125<br/>value = [5, 2, 118]<br/>class = High>, fillcolor="#8845e7"] ;
360 -> 361 ;
362 [label=<pH &le; 3.31<br/>entropy = 0.779<br/>samples = 13<br/>value = [3, 0, 10]<br/>class = High>, fillcolor="#a774ed"] ;
361 -> 362 ;
363 [label=<residual sugar &le; 3.3<br/>entropy = 0.439<br/>samples = 11<br/>value = [1, 0, 10]<br/>class = High>, fillcolor="#8e4de8"] ;
362 -> 363 ;
364 [label=<entropy = 0.0<br/>samples = 10<br/>value = [0, 0, 10]<br/>class = High>, fillcolor="#8139e5"] ;
363 -> 364 ;
365 [label=<entropy = 0.0<br/>samples = 1<br/>value = [1, 0, 0]<br/>class = Low>, fillcolor="#e58139"] ;
363 -> 365 ;
366 [label=<entropy = 0.0<br/>samples = 2<br/>value = [2, 0, 0]<br/>class = Low>, fillcolor="#e58139"] ;
362 -> 366 ;
367 [label=<alcohol &le; 9.65<br/>entropy = 0.258<br/>samples = 112<br/>value = [2, 2, 108]<br/>class = High>, fillcolor="#8640e6"] ;
361 -> 367 ;
368 [label=<pH &le; 3.01<br/>entropy = 0.211<br/>samples = 60<br/>value = [2, 0, 58]<br/>class = High>, fillcolor="#8540e6"] ;
367 -> 368 ;
369 [label=<pH &le; 2.98<br/>entropy = 0.918<br/>samples = 3<br/>value = [1, 0, 2]<br/>class = High>, fillcolor="#c09cf2"] ;
368 -> 369 ;
370 [label=<entropy = 0.0<br/>samples = 2<br/>value = [0, 0, 2]<br/>class = High>, fillcolor="#8139e5"] ;
369 -> 370 ;
371 [label=<entropy = 0.0<br/>samples = 1<br/>value = [1, 0, 0]<br/>class = Low>, fillcolor="#e58139"] ;
369 -> 371 ;
372 [label=<fixed acidity &le; 6.05<br/>entropy = 0.127<br/>samples = 57<br/>value = [1, 0, 56]<br/>class = High>, fillcolor="#833de5"] ;
368 -> 372 ;
373 [label=<residual sugar &le; 5.25<br/>entropy = 0.722<br/>samples = 5<br/>value = [1, 0, 4]<br/>class = High>, fillcolor="#a06aec"] ;
372 -> 373 ;
374 [label=<entropy = 0.0<br/>samples = 4<br/>value = [0, 0, 4]<br/>class = High>, fillcolor="#8139e5"] ;
373 -> 374 ;
375 [label=<entropy = 0.0<br/>samples = 1<br/>value = [1, 0, 0]<br/>class = Low>, fillcolor="#e58139"] ;
373 -> 375 ;
376 [label=<entropy = 0.0<br/>samples = 52<br/>value = [0, 0, 52]<br/>class = High>, fillcolor="#8139e5"] ;
372 -> 376 ;
377 [label=<alcohol &le; 9.85<br/>entropy = 0.235<br/>samples = 52<br/>value = [0, 2, 50]<br/>class = High>, fillcolor="#8641e6"] ;
367 -> 377 ;
378 [label=<free sulfur dioxide &le; 22.0<br/>entropy = 0.65<br/>samples = 12<br/>value = [0, 2, 10]<br/>class = High>, fillcolor="#9a61ea"] ;
377 -> 378 ;
379 [label=<entropy = 0.0<br/>samples = 1<br/>value = [0, 1, 0]<br/>class = Standard>, fillcolor="#39e581"] ;
378 -> 379 ;
380 [label=<pH &le; 3.26<br/>entropy = 0.439<br/>samples = 11<br/>value = [0, 1, 10]<br/>class = High>, fillcolor="#8e4de8"] ;
378 -> 380 ;
381 [label=<entropy = 0.0<br/>samples = 9<br/>value = [0, 0, 9]<br/>class = High>, fillcolor="#8139e5"] ;
380 -> 381 ;
382 [label=<chlorides &le; 0.056<br/>entropy = 1.0<br/>samples = 2<br/>value = [0, 1, 1]<br/>class = Standard>, fillcolor="#ffffff"] ;
380 -> 382 ;
383 [label=<entropy = 0.0<br/>samples = 1<br/>value = [0, 0, 1]<br/>class = High>, fillcolor="#8139e5"] ;
382 -> 383 ;
384 [label=<entropy = 0.0<br/>samples = 1<br/>value = [0, 1, 0]<br/>class = Standard>, fillcolor="#39e581"] ;
382 -> 384 ;
385 [label=<entropy = 0.0<br/>samples = 40<br/>value = [0, 0, 40]<br/>class = High>, fillcolor="#8139e5"] ;
377 -> 385 ;
386 [label=<chlorides &le; 0.045<br/>entropy = 0.124<br/>samples = 235<br/>value = [0, 4, 231]<br/>class = High>, fillcolor="#833ce5"] ;
360 -> 386 ;
387 [label=<alcohol &le; 10.3<br/>entropy = 0.319<br/>samples = 69<br/>value = [0, 4, 65]<br/>class = High>, fillcolor="#8945e7"] ;
386 -> 387 ;
388 [label=<alcohol &le; 8.65<br/>entropy = 0.129<br/>samples = 56<br/>value = [0, 1, 55]<br/>class = High>, fillcolor="#833de5"] ;
387 -> 388 ;
389 [label=<citric acid &le; 0.6<br/>entropy = 1.0<br/>samples = 2<br/>value = [0, 1, 1]<br/>class = Standard>, fillcolor="#ffffff"] ;
388 -> 389 ;
390 [label=<entropy = 0.0<br/>samples = 1<br/>value = [0, 0, 1]<br/>class = High>, fillcolor="#8139e5"] ;
389 -> 390 ;
391 [label=<entropy = 0.0<br/>samples = 1<br/>value = [0, 1, 0]<br/>class = Standard>, fillcolor="#39e581"] ;
389 -> 391 ;
392 [label=<entropy = 0.0<br/>samples = 54<br/>value = [0, 0, 54]<br/>class = High>, fillcolor="#8139e5"] ;
388 -> 392 ;
393 [label=<chlorides &le; 0.043<br/>entropy = 0.779<br/>samples = 13<br/>value = [0, 3, 10]<br/>class = High>, fillcolor="#a774ed"] ;
387 -> 393 ;
394 [label=<total sulfur dioxide &le; 170.5<br/>entropy = 0.439<br/>samples = 11<br/>value = [0, 1, 10]<br/>class = High>, fillcolor="#8e4de8"] ;
393 -> 394 ;
395 [label=<entropy = 0.0<br/>samples = 10<br/>value = [0, 0, 10]<br/>class = High>, fillcolor="#8139e5"] ;
394 -> 395 ;
396 [label=<entropy = 0.0<br/>samples = 1<br/>value = [0, 1, 0]<br/>class = Standard>, fillcolor="#39e581"] ;
394 -> 396 ;
397 [label=<entropy = 0.0<br/>samples = 2<br/>value = [0, 2, 0]<br/>class = Standard>, fillcolor="#39e581"] ;
393 -> 397 ;
398 [label=<entropy = 0.0<br/>samples = 166<br/>value = [0, 0, 166]<br/>class = High>, fillcolor="#8139e5"] ;
386 -> 398 ;
399 [label=<residual sugar &le; 3.25<br/>entropy = 0.948<br/>samples = 30<br/>value = [0, 11, 19]<br/>class = High>, fillcolor="#caacf4"] ;
219 -> 399 ;
400 [label=<chlorides &le; 0.07<br/>entropy = 0.845<br/>samples = 11<br/>value = [0, 8, 3]<br/>class = Standard>, fillcolor="#83efb0"] ;
399 -> 400 ;
401 [label=<total sulfur dioxide &le; 194.5<br/>entropy = 0.503<br/>samples = 9<br/>value = [0, 8, 1]<br/>class = Standard>, fillcolor="#52e891"] ;
400 -> 401 ;
402 [label=<entropy = 0.0<br/>samples = 8<br/>value = [0, 8, 0]<br/>class = Standard>, fillcolor="#39e581"] ;
401 -> 402 ;
403 [label=<entropy = 0.0<br/>samples = 1<br/>value = [0, 0, 1]<br/>class = High>, fillcolor="#8139e5"] ;
401 -> 403 ;
404 [label=<entropy = 0.0<br/>samples = 2<br/>value = [0, 0, 2]<br/>class = High>, fillcolor="#8139e5"] ;
400 -> 404 ;
405 [label=<sulphates &le; 0.585<br/>entropy = 0.629<br/>samples = 19<br/>value = [0, 3, 16]<br/>class = High>, fillcolor="#995eea"] ;
399 -> 405 ;
406 [label=<entropy = 0.0<br/>samples = 15<br/>value = [0, 0, 15]<br/>class = High>, fillcolor="#8139e5"] ;
405 -> 406 ;
407 [label=<density &le; 1.0<br/>entropy = 0.811<br/>samples = 4<br/>value = [0, 3, 1]<br/>class = Standard>, fillcolor="#7beeab"] ;
405 -> 407 ;
408 [label=<entropy = 0.0<br/>samples = 3<br/>value = [0, 3, 0]<br/>class = Standard>, fillcolor="#39e581"] ;
407 -> 408 ;
409 [label=<entropy = 0.0<br/>samples = 1<br/>value = [0, 0, 1]<br/>class = High>, fillcolor="#8139e5"] ;
407 -> 409 ;
410 [label=<free sulfur dioxide &le; 11.5<br/>entropy = 1.125<br/>samples = 1073<br/>value = [447, 26, 600]<br/>class = High>, fillcolor="#e0cff9"] ;
0 -> 410 [labeldistance=2.5, labelangle=-45, headlabel="False"] ;
411 [label=<residual sugar &le; 5.05<br/>entropy = 1.272<br/>samples = 67<br/>value = [7, 18, 42]<br/>class = High>, fillcolor="#c19ef2"] ;
410 -> 411 ;
412 [label=<citric acid &le; 0.25<br/>entropy = 1.239<br/>samples = 49<br/>value = [3, 18, 28]<br/>class = High>, fillcolor="#d6bff7"] ;
411 -> 412 ;
413 [label=<density &le; 0.99<br/>entropy = 1.041<br/>samples = 12<br/>value = [2, 9, 1]<br/>class = Standard>, fillcolor="#74eda7"] ;
412 -> 413 ;
414 [label=<chlorides &le; 0.021<br/>entropy = 0.918<br/>samples = 3<br/>value = [2, 0, 1]<br/>class = Low>, fillcolor="#f2c09c"] ;
413 -> 414 ;
415 [label=<entropy = 0.0<br/>samples = 1<br/>value = [0, 0, 1]<br/>class = High>, fillcolor="#8139e5"] ;
414 -> 415 ;
416 [label=<entropy = 0.0<br/>samples = 2<br/>value = [2, 0, 0]<br/>class = Low>, fillcolor="#e58139"] ;
414 -> 416 ;
417 [label=<entropy = 0.0<br/>samples = 9<br/>value = [0, 9, 0]<br/>class = Standard>, fillcolor="#39e581"] ;
413 -> 417 ;
418 [label=<free sulfur dioxide &le; 9.5<br/>entropy = 0.969<br/>samples = 37<br/>value = [1, 9, 27]<br/>class = High>, fillcolor="#ae80ee"] ;
412 -> 418 ;
419 [label=<citric acid &le; 0.345<br/>entropy = 0.985<br/>samples = 21<br/>value = [0, 9, 12]<br/>class = High>, fillcolor="#e0cef8"] ;
418 -> 419 ;
420 [label=<pH &le; 3.17<br/>entropy = 0.722<br/>samples = 10<br/>value = [0, 2, 8]<br/>class = High>, fillcolor="#a06aec"] ;
419 -> 420 ;
421 [label=<density &le; 0.992<br/>entropy = 0.918<br/>samples = 3<br/>value = [0, 2, 1]<br/>class = Standard>, fillcolor="#9cf2c0"] ;
420 -> 421 ;
422 [label=<entropy = 0.0<br/>samples = 2<br/>value = [0, 2, 0]<br/>class = Standard>, fillcolor="#39e581"] ;
421 -> 422 ;
423 [label=<entropy = 0.0<br/>samples = 1<br/>value = [0, 0, 1]<br/>class = High>, fillcolor="#8139e5"] ;
421 -> 423 ;
424 [label=<entropy = 0.0<br/>samples = 7<br/>value = [0, 0, 7]<br/>class = High>, fillcolor="#8139e5"] ;
420 -> 424 ;
425 [label=<density &le; 0.992<br/>entropy = 0.946<br/>samples = 11<br/>value = [0, 7, 4]<br/>class = Standard>, fillcolor="#aaf4c9"] ;
419 -> 425 ;
426 [label=<fixed acidity &le; 5.7<br/>entropy = 0.592<br/>samples = 7<br/>value = [0, 6, 1]<br/>class = Standard>, fillcolor="#5ae996"] ;
425 -> 426 ;
427 [label=<entropy = 0.0<br/>samples = 1<br/>value = [0, 0, 1]<br/>class = High>, fillcolor="#8139e5"] ;
426 -> 427 ;
428 [label=<entropy = 0.0<br/>samples = 6<br/>value = [0, 6, 0]<br/>class = Standard>, fillcolor="#39e581"] ;
426 -> 428 ;
429 [label=<density &le; 0.993<br/>entropy = 0.811<br/>samples = 4<br/>value = [0, 1, 3]<br/>class = High>, fillcolor="#ab7bee"] ;
425 -> 429 ;
430 [label=<entropy = 0.0<br/>samples = 3<br/>value = [0, 0, 3]<br/>class = High>, fillcolor="#8139e5"] ;
429 -> 430 ;
431 [label=<entropy = 0.0<br/>samples = 1<br/>value = [0, 1, 0]<br/>class = Standard>, fillcolor="#39e581"] ;
429 -> 431 ;
432 [label=<pH &le; 3.375<br/>entropy = 0.337<br/>samples = 16<br/>value = [1, 0, 15]<br/>class = High>, fillcolor="#8946e7"] ;
418 -> 432 ;
433 [label=<entropy = 0.0<br/>samples = 15<br/>value = [0, 0, 15]<br/>class = High>, fillcolor="#8139e5"] ;
432 -> 433 ;
434 [label=<entropy = 0.0<br/>samples = 1<br/>value = [1, 0, 0]<br/>class = Low>, fillcolor="#e58139"] ;
432 -> 434 ;
435 [label=<total sulfur dioxide &le; 75.5<br/>entropy = 0.764<br/>samples = 18<br/>value = [4, 0, 14]<br/>class = High>, fillcolor="#a572ec"] ;
411 -> 435 ;
436 [label=<entropy = 0.0<br/>samples = 7<br/>value = [0, 0, 7]<br/>class = High>, fillcolor="#8139e5"] ;
435 -> 436 ;
437 [label=<density &le; 0.994<br/>entropy = 0.946<br/>samples = 11<br/>value = [4, 0, 7]<br/>class = High>, fillcolor="#c9aaf4"] ;
435 -> 437 ;
438 [label=<citric acid &le; 0.29<br/>entropy = 0.985<br/>samples = 7<br/>value = [4, 0, 3]<br/>class = Low>, fillcolor="#f8e0ce"] ;
437 -> 438 ;
439 [label=<entropy = 0.0<br/>samples = 3<br/>value = [0, 0, 3]<br/>class = High>, fillcolor="#8139e5"] ;
438 -> 439 ;
440 [label=<entropy = 0.0<br/>samples = 4<br/>value = [4, 0, 0]<br/>class = Low>, fillcolor="#e58139"] ;
438 -> 440 ;
441 [label=<entropy = 0.0<br/>samples = 4<br/>value = [0, 0, 4]<br/>class = High>, fillcolor="#8139e5"] ;
437 -> 441 ;
442 [label=<alcohol &le; 12.55<br/>entropy = 1.049<br/>samples = 1006<br/>value = [440.0, 8.0, 558.0]<br/>class = High>, fillcolor="#e5d6fa"] ;
410 -> 442 ;
443 [label=<sulphates &le; 0.785<br/>entropy = 1.028<br/>samples = 809<br/>value = [312, 7, 490]<br/>class = High>, fillcolor="#d2b8f6"] ;
442 -> 443 ;
444 [label=<chlorides &le; 0.039<br/>entropy = 1.021<br/>samples = 792<br/>value = [297, 7, 488]<br/>class = High>, fillcolor="#ceb3f5"] ;
443 -> 444 ;
445 [label=<total sulfur dioxide &le; 69.5<br/>entropy = 1.032<br/>samples = 511<br/>value = [218, 3, 290]<br/>class = High>, fillcolor="#e0cef9"] ;
444 -> 445 ;
446 [label=<chlorides &le; 0.02<br/>entropy = 1.268<br/>samples = 21<br/>value = [6, 2, 13]<br/>class = High>, fillcolor="#c4a3f3"] ;
445 -> 446 ;
447 [label=<entropy = 0.0<br/>samples = 4<br/>value = [4, 0, 0]<br/>class = Low>, fillcolor="#e58139"] ;
446 -> 447 ;
448 [label=<citric acid &le; 0.28<br/>entropy = 1.022<br/>samples = 17<br/>value = [2, 2, 13]<br/>class = High>, fillcolor="#a36eec"] ;
446 -> 448 ;
449 [label=<fixed acidity &le; 6.4<br/>entropy = 1.5<br/>samples = 4<br/>value = [1, 2, 1]<br/>class = Standard>, fillcolor="#bdf6d5"] ;
448 -> 449 ;
450 [label=<density &le; 0.99<br/>entropy = 1.0<br/>samples = 2<br/>value = [1, 0, 1]<br/>class = Low>, fillcolor="#ffffff"] ;
449 -> 450 ;
451 [label=<entropy = 0.0<br/>samples = 1<br/>value = [0, 0, 1]<br/>class = High>, fillcolor="#8139e5"] ;
450 -> 451 ;
452 [label=<entropy = 0.0<br/>samples = 1<br/>value = [1, 0, 0]<br/>class = Low>, fillcolor="#e58139"] ;
450 -> 452 ;
453 [label=<entropy = 0.0<br/>samples = 2<br/>value = [0, 2, 0]<br/>class = Standard>, fillcolor="#39e581"] ;
449 -> 453 ;
454 [label=<total sulfur dioxide &le; 49.5<br/>entropy = 0.391<br/>samples = 13<br/>value = [1, 0, 12]<br/>class = High>, fillcolor="#8c49e7"] ;
448 -> 454 ;
455 [label=<entropy = 0.0<br/>samples = 1<br/>value = [1, 0, 0]<br/>class = Low>, fillcolor="#e58139"] ;
454 -> 455 ;
456 [label=<entropy = 0.0<br/>samples = 12<br/>value = [0, 0, 12]<br/>class = High>, fillcolor="#8139e5"] ;
454 -> 456 ;
457 [label=<pH &le; 2.925<br/>entropy = 1.006<br/>samples = 490<br/>value = [212, 1, 277]<br/>class = High>, fillcolor="#e2d1f9"] ;
445 -> 457 ;
458 [label=<entropy = 0.0<br/>samples = 8<br/>value = [0, 0, 8]<br/>class = High>, fillcolor="#8139e5"] ;
457 -> 458 ;
459 [label=<total sulfur dioxide &le; 157.0<br/>entropy = 1.009<br/>samples = 482<br/>value = [212, 1, 269]<br/>class = High>, fillcolor="#e4d5fa"] ;
457 -> 459 ;
460 [label=<residual sugar &le; 1.825<br/>entropy = 0.994<br/>samples = 440<br/>value = [200.0, 0.0, 240.0]<br/>class = High>, fillcolor="#eadefb"] ;
459 -> 460 ;
461 [label=<chlorides &le; 0.026<br/>entropy = 0.949<br/>samples = 166<br/>value = [61, 0, 105]<br/>class = High>, fillcolor="#caacf4"] ;
460 -> 461 ;
462 [label=<residual sugar &le; 1.75<br/>entropy = 0.371<br/>samples = 14<br/>value = [1, 0, 13]<br/>class = High>, fillcolor="#8b48e7"] ;
461 -> 462 ;
463 [label=<entropy = 0.0<br/>samples = 13<br/>value = [0, 0, 13]<br/>class = High>, fillcolor="#8139e5"] ;
462 -> 463 ;
464 [label=<entropy = 0.0<br/>samples = 1<br/>value = [1, 0, 0]<br/>class = Low>, fillcolor="#e58139"] ;
462 -> 464 ;
465 [label=<sulphates &le; 0.455<br/>entropy = 0.968<br/>samples = 152<br/>value = [60, 0, 92]<br/>class = High>, fillcolor="#d3baf6"] ;
461 -> 465 ;
466 [label=<citric acid &le; 0.365<br/>entropy = 0.999<br/>samples = 73<br/>value = [38, 0, 35]<br/>class = Low>, fillcolor="#fdf5ef"] ;
465 -> 466 ;
467 [label=<chlorides &le; 0.028<br/>entropy = 0.958<br/>samples = 58<br/>value = [36, 0, 22]<br/>class = Low>, fillcolor="#f5ceb2"] ;
466 -> 467 ;
468 [label=<entropy = 0.0<br/>samples = 7<br/>value = [7, 0, 0]<br/>class = Low>, fillcolor="#e58139"] ;
467 -> 468 ;
469 [label=<alcohol &le; 12.45<br/>entropy = 0.986<br/>samples = 51<br/>value = [29, 0, 22]<br/>class = Low>, fillcolor="#f9e1cf"] ;
467 -> 469 ;
470 [label=<total sulfur dioxide &le; 112.5<br/>entropy = 0.96<br/>samples = 47<br/>value = [29, 0, 18]<br/>class = Low>, fillcolor="#f5cfb4"] ;
469 -> 470 ;
471 [label=<total sulfur dioxide &le; 99.5<br/>entropy = 0.996<br/>samples = 26<br/>value = [12, 0, 14]<br/>class = High>, fillcolor="#ede3fb"] ;
470 -> 471 ;
472 [label=<density &le; 0.99<br/>entropy = 0.896<br/>samples = 16<br/>value = [11, 0, 5]<br/>class = Low>, fillcolor="#f1ba93"] ;
471 -> 472 ;
473 [label=<alcohol &le; 12.35<br/>entropy = 0.722<br/>samples = 5<br/>value = [1, 0, 4]<br/>class = High>, fillcolor="#a06aec"] ;
472 -> 473 ;
474 [label=<entropy = 0.0<br/>samples = 4<br/>value = [0, 0, 4]<br/>class = High>, fillcolor="#8139e5"] ;
473 -> 474 ;
475 [label=<entropy = 0.0<br/>samples = 1<br/>value = [1, 0, 0]<br/>class = Low>, fillcolor="#e58139"] ;
473 -> 475 ;
476 [label=<residual sugar &le; 1.65<br/>entropy = 0.439<br/>samples = 11<br/>value = [10, 0, 1]<br/>class = Low>, fillcolor="#e88e4d"] ;
472 -> 476 ;
477 [label=<entropy = 0.0<br/>samples = 10<br/>value = [10, 0, 0]<br/>class = Low>, fillcolor="#e58139"] ;
476 -> 477 ;
478 [label=<entropy = 0.0<br/>samples = 1<br/>value = [0, 0, 1]<br/>class = High>, fillcolor="#8139e5"] ;
476 -> 478 ;
479 [label=<sulphates &le; 0.435<br/>entropy = 0.469<br/>samples = 10<br/>value = [1, 0, 9]<br/>class = High>, fillcolor="#8f4fe8"] ;
471 -> 479 ;
480 [label=<entropy = 0.0<br/>samples = 9<br/>value = [0, 0, 9]<br/>class = High>, fillcolor="#8139e5"] ;
479 -> 480 ;
481 [label=<entropy = 0.0<br/>samples = 1<br/>value = [1, 0, 0]<br/>class = Low>, fillcolor="#e58139"] ;
479 -> 481 ;
482 [label=<alcohol &le; 11.55<br/>entropy = 0.702<br/>samples = 21<br/>value = [17, 0, 4]<br/>class = Low>, fillcolor="#eb9f68"] ;
470 -> 482 ;
483 [label=<sulphates &le; 0.39<br/>entropy = 0.971<br/>samples = 10<br/>value = [6, 0, 4]<br/>class = Low>, fillcolor="#f6d5bd"] ;
482 -> 483 ;
484 [label=<entropy = 0.0<br/>samples = 2<br/>value = [0, 0, 2]<br/>class = High>, fillcolor="#8139e5"] ;
483 -> 484 ;
485 [label=<free sulfur dioxide &le; 33.0<br/>entropy = 0.811<br/>samples = 8<br/>value = [6, 0, 2]<br/>class = Low>, fillcolor="#eeab7b"] ;
483 -> 485 ;
486 [label=<chlorides &le; 0.038<br/>entropy = 0.918<br/>samples = 3<br/>value = [1, 0, 2]<br/>class = High>, fillcolor="#c09cf2"] ;
485 -> 486 ;
487 [label=<entropy = 0.0<br/>samples = 2<br/>value = [0, 0, 2]<br/>class = High>, fillcolor="#8139e5"] ;
486 -> 487 ;
488 [label=<entropy = 0.0<br/>samples = 1<br/>value = [1, 0, 0]<br/>class = Low>, fillcolor="#e58139"] ;
486 -> 488 ;
489 [label=<entropy = 0.0<br/>samples = 5<br/>value = [5, 0, 0]<br/>class = Low>, fillcolor="#e58139"] ;
485 -> 489 ;
490 [label=<entropy = 0.0<br/>samples = 11<br/>value = [11, 0, 0]<br/>class = Low>, fillcolor="#e58139"] ;
482 -> 490 ;
491 [label=<entropy = 0.0<br/>samples = 4<br/>value = [0, 0, 4]<br/>class = High>, fillcolor="#8139e5"] ;
469 -> 491 ;
492 [label=<fixed acidity &le; 7.5<br/>entropy = 0.567<br/>samples = 15<br/>value = [2, 0, 13]<br/>class = High>, fillcolor="#9457e9"] ;
466 -> 492 ;
493 [label=<entropy = 0.0<br/>samples = 11<br/>value = [0, 0, 11]<br/>class = High>, fillcolor="#8139e5"] ;
492 -> 493 ;
494 [label=<free sulfur dioxide &le; 26.5<br/>entropy = 1.0<br/>samples = 4<br/>value = [2, 0, 2]<br/>class = Low>, fillcolor="#ffffff"] ;
492 -> 494 ;
495 [label=<entropy = 0.0<br/>samples = 2<br/>value = [2, 0, 0]<br/>class = Low>, fillcolor="#e58139"] ;
494 -> 495 ;
496 [label=<entropy = 0.0<br/>samples = 2<br/>value = [0, 0, 2]<br/>class = High>, fillcolor="#8139e5"] ;
494 -> 496 ;
497 [label=<density &le; 0.99<br/>entropy = 0.853<br/>samples = 79<br/>value = [22, 0, 57]<br/>class = High>, fillcolor="#b285ef"] ;
465 -> 497 ;
498 [label=<citric acid &le; 0.3<br/>entropy = 0.592<br/>samples = 7<br/>value = [6, 0, 1]<br/>class = Low>, fillcolor="#e9965a"] ;
497 -> 498 ;
499 [label=<entropy = 0.0<br/>samples = 1<br/>value = [0, 0, 1]<br/>class = High>, fillcolor="#8139e5"] ;
498 -> 499 ;
500 [label=<entropy = 0.0<br/>samples = 6<br/>value = [6, 0, 0]<br/>class = Low>, fillcolor="#e58139"] ;
498 -> 500 ;
501 [label=<sulphates &le; 0.545<br/>entropy = 0.764<br/>samples = 72<br/>value = [16, 0, 56]<br/>class = High>, fillcolor="#a572ec"] ;
497 -> 501 ;
502 [label=<citric acid &le; 0.435<br/>entropy = 0.494<br/>samples = 37<br/>value = [4, 0, 33]<br/>class = High>, fillcolor="#9051e8"] ;
501 -> 502 ;
503 [label=<volatile acidity &le; 0.14<br/>entropy = 0.206<br/>samples = 31<br/>value = [1, 0, 30]<br/>class = High>, fillcolor="#8540e6"] ;
502 -> 503 ;
504 [label=<pH &le; 3.49<br/>entropy = 1.0<br/>samples = 2<br/>value = [1, 0, 1]<br/>class = Low>, fillcolor="#ffffff"] ;
503 -> 504 ;
505 [label=<entropy = 0.0<br/>samples = 1<br/>value = [1, 0, 0]<br/>class = Low>, fillcolor="#e58139"] ;
504 -> 505 ;
506 [label=<entropy = 0.0<br/>samples = 1<br/>value = [0, 0, 1]<br/>class = High>, fillcolor="#8139e5"] ;
504 -> 506 ;
507 [label=<entropy = 0.0<br/>samples = 29<br/>value = [0, 0, 29]<br/>class = High>, fillcolor="#8139e5"] ;
503 -> 507 ;
508 [label=<chlorides &le; 0.032<br/>entropy = 1.0<br/>samples = 6<br/>value = [3, 0, 3]<br/>class = Low>, fillcolor="#ffffff"] ;
502 -> 508 ;
509 [label=<entropy = 0.0<br/>samples = 2<br/>value = [0, 0, 2]<br/>class = High>, fillcolor="#8139e5"] ;
508 -> 509 ;
510 [label=<fixed acidity &le; 6.8<br/>entropy = 0.811<br/>samples = 4<br/>value = [3, 0, 1]<br/>class = Low>, fillcolor="#eeab7b"] ;
508 -> 510 ;
511 [label=<entropy = 0.0<br/>samples = 1<br/>value = [0, 0, 1]<br/>class = High>, fillcolor="#8139e5"] ;
510 -> 511 ;
512 [label=<entropy = 0.0<br/>samples = 3<br/>value = [3, 0, 0]<br/>class = Low>, fillcolor="#e58139"] ;
510 -> 512 ;
513 [label=<pH &le; 3.21<br/>entropy = 0.928<br/>samples = 35<br/>value = [12, 0, 23]<br/>class = High>, fillcolor="#c3a0f3"] ;
501 -> 513 ;
514 [label=<fixed acidity &le; 7.7<br/>entropy = 0.469<br/>samples = 20<br/>value = [2, 0, 18]<br/>class = High>, fillcolor="#8f4fe8"] ;
513 -> 514 ;
515 [label=<entropy = 0.0<br/>samples = 15<br/>value = [0, 0, 15]<br/>class = High>, fillcolor="#8139e5"] ;
514 -> 515 ;
516 [label=<chlorides &le; 0.035<br/>entropy = 0.971<br/>samples = 5<br/>value = [2, 0, 3]<br/>class = High>, fillcolor="#d5bdf6"] ;
514 -> 516 ;
517 [label=<entropy = 0.0<br/>samples = 3<br/>value = [0, 0, 3]<br/>class = High>, fillcolor="#8139e5"] ;
516 -> 517 ;
518 [label=<entropy = 0.0<br/>samples = 2<br/>value = [2, 0, 0]<br/>class = Low>, fillcolor="#e58139"] ;
516 -> 518 ;
519 [label=<volatile acidity &le; 0.19<br/>entropy = 0.918<br/>samples = 15<br/>value = [10, 0, 5]<br/>class = Low>, fillcolor="#f2c09c"] ;
513 -> 519 ;
520 [label=<entropy = 0.0<br/>samples = 6<br/>value = [6, 0, 0]<br/>class = Low>, fillcolor="#e58139"] ;
519 -> 520 ;
521 [label=<density &le; 0.991<br/>entropy = 0.991<br/>samples = 9<br/>value = [4, 0, 5]<br/>class = High>, fillcolor="#e6d7fa"] ;
519 -> 521 ;
522 [label=<entropy = 0.0<br/>samples = 3<br/>value = [3, 0, 0]<br/>class = Low>, fillcolor="#e58139"] ;
521 -> 522 ;
523 [label=<citric acid &le; 0.275<br/>entropy = 0.65<br/>samples = 6<br/>value = [1, 0, 5]<br/>class = High>, fillcolor="#9a61ea"] ;
521 -> 523 ;
524 [label=<entropy = 0.0<br/>samples = 1<br/>value = [1, 0, 0]<br/>class = Low>, fillcolor="#e58139"] ;
523 -> 524 ;
525 [label=<entropy = 0.0<br/>samples = 5<br/>value = [0, 0, 5]<br/>class = High>, fillcolor="#8139e5"] ;
523 -> 525 ;
526 [label=<fixed acidity &le; 7.95<br/>entropy = 1.0<br/>samples = 274<br/>value = [139, 0, 135]<br/>class = Low>, fillcolor="#fefbf9"] ;
460 -> 526 ;
527 [label=<fixed acidity &le; 5.95<br/>entropy = 0.995<br/>samples = 250<br/>value = [135, 0, 115]<br/>class = Low>, fillcolor="#fbece2"] ;
526 -> 527 ;
528 [label=<fixed acidity &le; 4.9<br/>entropy = 0.867<br/>samples = 45<br/>value = [13.0, 0.0, 32.0]<br/>class = High>, fillcolor="#b489f0"] ;
527 -> 528 ;
529 [label=<entropy = 0.0<br/>samples = 3<br/>value = [3, 0, 0]<br/>class = Low>, fillcolor="#e58139"] ;
528 -> 529 ;
530 [label=<residual sugar &le; 6.2<br/>entropy = 0.792<br/>samples = 42<br/>value = [10, 0, 32]<br/>class = High>, fillcolor="#a877ed"] ;
528 -> 530 ;
531 [label=<free sulfur dioxide &le; 21.5<br/>entropy = 0.94<br/>samples = 28<br/>value = [10, 0, 18]<br/>class = High>, fillcolor="#c7a7f3"] ;
530 -> 531 ;
532 [label=<entropy = 0.0<br/>samples = 6<br/>value = [0, 0, 6]<br/>class = High>, fillcolor="#8139e5"] ;
531 -> 532 ;
533 [label=<total sulfur dioxide &le; 99.0<br/>entropy = 0.994<br/>samples = 22<br/>value = [10, 0, 12]<br/>class = High>, fillcolor="#eadefb"] ;
531 -> 533 ;
534 [label=<entropy = 0.0<br/>samples = 5<br/>value = [5, 0, 0]<br/>class = Low>, fillcolor="#e58139"] ;
533 -> 534 ;
535 [label=<residual sugar &le; 3.75<br/>entropy = 0.874<br/>samples = 17<br/>value = [5, 0, 12]<br/>class = High>, fillcolor="#b58bf0"] ;
533 -> 535 ;
536 [label=<entropy = 0.0<br/>samples = 7<br/>value = [0, 0, 7]<br/>class = High>, fillcolor="#8139e5"] ;
535 -> 536 ;
537 [label=<density &le; 0.992<br/>entropy = 1.0<br/>samples = 10<br/>value = [5, 0, 5]<br/>class = Low>, fillcolor="#ffffff"] ;
535 -> 537 ;
538 [label=<sulphates &le; 0.41<br/>entropy = 0.65<br/>samples = 6<br/>value = [5, 0, 1]<br/>class = Low>, fillcolor="#ea9a61"] ;
537 -> 538 ;
539 [label=<entropy = 0.0<br/>samples = 1<br/>value = [0, 0, 1]<br/>class = High>, fillcolor="#8139e5"] ;
538 -> 539 ;
540 [label=<entropy = 0.0<br/>samples = 5<br/>value = [5, 0, 0]<br/>class = Low>, fillcolor="#e58139"] ;
538 -> 540 ;
541 [label=<entropy = 0.0<br/>samples = 4<br/>value = [0, 0, 4]<br/>class = High>, fillcolor="#8139e5"] ;
537 -> 541 ;
542 [label=<entropy = 0.0<br/>samples = 14<br/>value = [0, 0, 14]<br/>class = High>, fillcolor="#8139e5"] ;
530 -> 542 ;
543 [label=<fixed acidity &le; 6.05<br/>entropy = 0.974<br/>samples = 205<br/>value = [122, 0, 83]<br/>class = Low>, fillcolor="#f7d7c0"] ;
527 -> 543 ;
544 [label=<entropy = 0.0<br/>samples = 8<br/>value = [8, 0, 0]<br/>class = Low>, fillcolor="#e58139"] ;
543 -> 544 ;
545 [label=<volatile acidity &le; 0.325<br/>entropy = 0.982<br/>samples = 197<br/>value = [114.0, 0.0, 83.0]<br/>class = Low>, fillcolor="#f8ddc9"] ;
543 -> 545 ;
546 [label=<volatile acidity &le; 0.255<br/>entropy = 1.0<br/>samples = 137<br/>value = [70, 0, 67]<br/>class = Low>, fillcolor="#fefaf7"] ;
545 -> 546 ;
547 [label=<free sulfur dioxide &le; 19.0<br/>entropy = 0.97<br/>samples = 88<br/>value = [53, 0, 35]<br/>class = Low>, fillcolor="#f6d4bc"] ;
546 -> 547 ;
548 [label=<entropy = 0.0<br/>samples = 9<br/>value = [9, 0, 0]<br/>class = Low>, fillcolor="#e58139"] ;
547 -> 548 ;
549 [label=<chlorides &le; 0.035<br/>entropy = 0.991<br/>samples = 79<br/>value = [44, 0, 35]<br/>class = Low>, fillcolor="#fae5d7"] ;
547 -> 549 ;
550 [label=<total sulfur dioxide &le; 83.5<br/>entropy = 0.992<br/>samples = 56<br/>value = [25, 0, 31]<br/>class = High>, fillcolor="#e7d9fa"] ;
549 -> 550 ;
551 [label=<entropy = 0.0<br/>samples = 5<br/>value = [0, 0, 5]<br/>class = High>, fillcolor="#8139e5"] ;
550 -> 551 ;
552 [label=<volatile acidity &le; 0.165<br/>entropy = 1.0<br/>samples = 51<br/>value = [25, 0, 26]<br/>class = High>, fillcolor="#faf7fe"] ;
550 -> 552 ;
553 [label=<entropy = 0.0<br/>samples = 4<br/>value = [4, 0, 0]<br/>class = Low>, fillcolor="#e58139"] ;
552 -> 553 ;
554 [label=<free sulfur dioxide &le; 43.5<br/>entropy = 0.992<br/>samples = 47<br/>value = [21, 0, 26]<br/>class = High>, fillcolor="#e7d9fa"] ;
552 -> 554 ;
555 [label=<pH &le; 3.155<br/>entropy = 0.998<br/>samples = 40<br/>value = [21, 0, 19]<br/>class = Low>, fillcolor="#fdf3ec"] ;
554 -> 555 ;
556 [label=<total sulfur dioxide &le; 94.5<br/>entropy = 0.696<br/>samples = 16<br/>value = [13, 0, 3]<br/>class = Low>, fillcolor="#eb9e67"] ;
555 -> 556 ;
557 [label=<volatile acidity &le; 0.205<br/>entropy = 0.918<br/>samples = 3<br/>value = [1, 0, 2]<br/>class = High>, fillcolor="#c09cf2"] ;
556 -> 557 ;
558 [label=<entropy = 0.0<br/>samples = 1<br/>value = [1, 0, 0]<br/>class = Low>, fillcolor="#e58139"] ;
557 -> 558 ;
559 [label=<entropy = 0.0<br/>samples = 2<br/>value = [0, 0, 2]<br/>class = High>, fillcolor="#8139e5"] ;
557 -> 559 ;
560 [label=<citric acid &le; 0.265<br/>entropy = 0.391<br/>samples = 13<br/>value = [12, 0, 1]<br/>class = Low>, fillcolor="#e78c49"] ;
556 -> 560 ;
561 [label=<fixed acidity &le; 7.2<br/>entropy = 1.0<br/>samples = 2<br/>value = [1, 0, 1]<br/>class = Low>, fillcolor="#ffffff"] ;
560 -> 561 ;
562 [label=<entropy = 0.0<br/>samples = 1<br/>value = [1, 0, 0]<br/>class = Low>, fillcolor="#e58139"] ;
561 -> 562 ;
563 [label=<entropy = 0.0<br/>samples = 1<br/>value = [0, 0, 1]<br/>class = High>, fillcolor="#8139e5"] ;
561 -> 563 ;
564 [label=<entropy = 0.0<br/>samples = 11<br/>value = [11, 0, 0]<br/>class = Low>, fillcolor="#e58139"] ;
560 -> 564 ;
565 [label=<volatile acidity &le; 0.235<br/>entropy = 0.918<br/>samples = 24<br/>value = [8, 0, 16]<br/>class = High>, fillcolor="#c09cf2"] ;
555 -> 565 ;
566 [label=<density &le; 0.991<br/>entropy = 0.998<br/>samples = 17<br/>value = [8, 0, 9]<br/>class = High>, fillcolor="#f1e9fc"] ;
565 -> 566 ;
567 [label=<density &le; 0.99<br/>entropy = 0.65<br/>samples = 6<br/>value = [5, 0, 1]<br/>class = Low>, fillcolor="#ea9a61"] ;
566 -> 567 ;
568 [label=<entropy = 0.0<br/>samples = 1<br/>value = [0, 0, 1]<br/>class = High>, fillcolor="#8139e5"] ;
567 -> 568 ;
569 [label=<entropy = 0.0<br/>samples = 5<br/>value = [5, 0, 0]<br/>class = Low>, fillcolor="#e58139"] ;
567 -> 569 ;
570 [label=<free sulfur dioxide &le; 30.5<br/>entropy = 0.845<br/>samples = 11<br/>value = [3, 0, 8]<br/>class = High>, fillcolor="#b083ef"] ;
566 -> 570 ;
571 [label=<entropy = 0.0<br/>samples = 5<br/>value = [0, 0, 5]<br/>class = High>, fillcolor="#8139e5"] ;
570 -> 571 ;
572 [label=<pH &le; 3.305<br/>entropy = 1.0<br/>samples = 6<br/>value = [3, 0, 3]<br/>class = Low>, fillcolor="#ffffff"] ;
570 -> 572 ;
573 [label=<citric acid &le; 0.39<br/>entropy = 0.811<br/>samples = 4<br/>value = [1, 0, 3]<br/>class = High>, fillcolor="#ab7bee"] ;
572 -> 573 ;
574 [label=<entropy = 0.0<br/>samples = 1<br/>value = [1, 0, 0]<br/>class = Low>, fillcolor="#e58139"] ;
573 -> 574 ;
575 [label=<entropy = 0.0<br/>samples = 3<br/>value = [0, 0, 3]<br/>class = High>, fillcolor="#8139e5"] ;
573 -> 575 ;
576 [label=<entropy = 0.0<br/>samples = 2<br/>value = [2, 0, 0]<br/>class = Low>, fillcolor="#e58139"] ;
572 -> 576 ;
577 [label=<entropy = 0.0<br/>samples = 7<br/>value = [0, 0, 7]<br/>class = High>, fillcolor="#8139e5"] ;
565 -> 577 ;
578 [label=<entropy = 0.0<br/>samples = 7<br/>value = [0, 0, 7]<br/>class = High>, fillcolor="#8139e5"] ;
554 -> 578 ;
579 [label=<citric acid &le; 0.4<br/>entropy = 0.667<br/>samples = 23<br/>value = [19, 0, 4]<br/>class = Low>, fillcolor="#ea9c63"] ;
549 -> 579 ;
580 [label=<pH &le; 3.075<br/>entropy = 0.454<br/>samples = 21<br/>value = [19, 0, 2]<br/>class = Low>, fillcolor="#e88e4e"] ;
579 -> 580 ;
581 [label=<alcohol &le; 11.45<br/>entropy = 0.971<br/>samples = 5<br/>value = [3, 0, 2]<br/>class = Low>, fillcolor="#f6d5bd"] ;
580 -> 581 ;
582 [label=<entropy = 0.0<br/>samples = 2<br/>value = [0, 0, 2]<br/>class = High>, fillcolor="#8139e5"] ;
581 -> 582 ;
583 [label=<entropy = 0.0<br/>samples = 3<br/>value = [3, 0, 0]<br/>class = Low>, fillcolor="#e58139"] ;
581 -> 583 ;
584 [label=<entropy = 0.0<br/>samples = 16<br/>value = [16, 0, 0]<br/>class = Low>, fillcolor="#e58139"] ;
580 -> 584 ;
585 [label=<entropy = 0.0<br/>samples = 2<br/>value = [0, 0, 2]<br/>class = High>, fillcolor="#8139e5"] ;
579 -> 585 ;
586 [label=<free sulfur dioxide &le; 24.0<br/>entropy = 0.931<br/>samples = 49<br/>value = [17.0, 0.0, 32.0]<br/>class = High>, fillcolor="#c4a2f3"] ;
546 -> 586 ;
587 [label=<citric acid &le; 0.46<br/>entropy = 0.323<br/>samples = 17<br/>value = [1, 0, 16]<br/>class = High>, fillcolor="#8945e7"] ;
586 -> 587 ;
588 [label=<entropy = 0.0<br/>samples = 15<br/>value = [0, 0, 15]<br/>class = High>, fillcolor="#8139e5"] ;
587 -> 588 ;
589 [label=<pH &le; 3.19<br/>entropy = 1.0<br/>samples = 2<br/>value = [1, 0, 1]<br/>class = Low>, fillcolor="#ffffff"] ;
587 -> 589 ;
590 [label=<entropy = 0.0<br/>samples = 1<br/>value = [0, 0, 1]<br/>class = High>, fillcolor="#8139e5"] ;
589 -> 590 ;
591 [label=<entropy = 0.0<br/>samples = 1<br/>value = [1, 0, 0]<br/>class = Low>, fillcolor="#e58139"] ;
589 -> 591 ;
592 [label=<chlorides &le; 0.033<br/>entropy = 1.0<br/>samples = 32<br/>value = [16, 0, 16]<br/>class = Low>, fillcolor="#ffffff"] ;
586 -> 592 ;
593 [label=<volatile acidity &le; 0.295<br/>entropy = 0.764<br/>samples = 18<br/>value = [14, 0, 4]<br/>class = Low>, fillcolor="#eca572"] ;
592 -> 593 ;
594 [label=<citric acid &le; 0.39<br/>entropy = 0.918<br/>samples = 12<br/>value = [8, 0, 4]<br/>class = Low>, fillcolor="#f2c09c"] ;
593 -> 594 ;
595 [label=<citric acid &le; 0.285<br/>entropy = 1.0<br/>samples = 8<br/>value = [4, 0, 4]<br/>class = Low>, fillcolor="#ffffff"] ;
594 -> 595 ;
596 [label=<entropy = 0.0<br/>samples = 3<br/>value = [3, 0, 0]<br/>class = Low>, fillcolor="#e58139"] ;
595 -> 596 ;
597 [label=<fixed acidity &le; 7.2<br/>entropy = 0.722<br/>samples = 5<br/>value = [1, 0, 4]<br/>class = High>, fillcolor="#a06aec"] ;
595 -> 597 ;
598 [label=<entropy = 0.0<br/>samples = 3<br/>value = [0, 0, 3]<br/>class = High>, fillcolor="#8139e5"] ;
597 -> 598 ;
599 [label=<sulphates &le; 0.4<br/>entropy = 1.0<br/>samples = 2<br/>value = [1, 0, 1]<br/>class = Low>, fillcolor="#ffffff"] ;
597 -> 599 ;
600 [label=<entropy = 0.0<br/>samples = 1<br/>value = [1, 0, 0]<br/>class = Low>, fillcolor="#e58139"] ;
599 -> 600 ;
601 [label=<entropy = 0.0<br/>samples = 1<br/>value = [0, 0, 1]<br/>class = High>, fillcolor="#8139e5"] ;
599 -> 601 ;
602 [label=<entropy = 0.0<br/>samples = 4<br/>value = [4, 0, 0]<br/>class = Low>, fillcolor="#e58139"] ;
594 -> 602 ;
603 [label=<entropy = 0.0<br/>samples = 6<br/>value = [6, 0, 0]<br/>class = Low>, fillcolor="#e58139"] ;
593 -> 603 ;
604 [label=<sulphates &le; 0.46<br/>entropy = 0.592<br/>samples = 14<br/>value = [2, 0, 12]<br/>class = High>, fillcolor="#965ae9"] ;
592 -> 604 ;
605 [label=<entropy = 0.0<br/>samples = 10<br/>value = [0, 0, 10]<br/>class = High>, fillcolor="#8139e5"] ;
604 -> 605 ;
606 [label=<sulphates &le; 0.545<br/>entropy = 1.0<br/>samples = 4<br/>value = [2, 0, 2]<br/>class = Low>, fillcolor="#ffffff"] ;
604 -> 606 ;
607 [label=<entropy = 0.0<br/>samples = 2<br/>value = [2, 0, 0]<br/>class = Low>, fillcolor="#e58139"] ;
606 -> 607 ;
608 [label=<entropy = 0.0<br/>samples = 2<br/>value = [0, 0, 2]<br/>class = High>, fillcolor="#8139e5"] ;
606 -> 608 ;
609 [label=<citric acid &le; 0.295<br/>entropy = 0.837<br/>samples = 60<br/>value = [44, 0, 16]<br/>class = Low>, fillcolor="#eeaf81"] ;
545 -> 609 ;
610 [label=<sulphates &le; 0.38<br/>entropy = 0.985<br/>samples = 28<br/>value = [16, 0, 12]<br/>class = Low>, fillcolor="#f8e0ce"] ;
609 -> 610 ;
611 [label=<entropy = 0.0<br/>samples = 8<br/>value = [0, 0, 8]<br/>class = High>, fillcolor="#8139e5"] ;
610 -> 611 ;
612 [label=<fixed acidity &le; 6.45<br/>entropy = 0.722<br/>samples = 20<br/>value = [16, 0, 4]<br/>class = Low>, fillcolor="#eca06a"] ;
610 -> 612 ;
613 [label=<sulphates &le; 0.455<br/>entropy = 0.946<br/>samples = 11<br/>value = [7, 0, 4]<br/>class = Low>, fillcolor="#f4c9aa"] ;
612 -> 613 ;
614 [label=<sulphates &le; 0.435<br/>entropy = 0.985<br/>samples = 7<br/>value = [3, 0, 4]<br/>class = High>, fillcolor="#e0cef8"] ;
613 -> 614 ;
615 [label=<entropy = 0.0<br/>samples = 3<br/>value = [3, 0, 0]<br/>class = Low>, fillcolor="#e58139"] ;
614 -> 615 ;
616 [label=<entropy = 0.0<br/>samples = 4<br/>value = [0, 0, 4]<br/>class = High>, fillcolor="#8139e5"] ;
614 -> 616 ;
617 [label=<entropy = 0.0<br/>samples = 4<br/>value = [4, 0, 0]<br/>class = Low>, fillcolor="#e58139"] ;
613 -> 617 ;
618 [label=<entropy = 0.0<br/>samples = 9<br/>value = [9, 0, 0]<br/>class = Low>, fillcolor="#e58139"] ;
612 -> 618 ;
619 [label=<citric acid &le; 0.44<br/>entropy = 0.544<br/>samples = 32<br/>value = [28, 0, 4]<br/>class = Low>, fillcolor="#e99355"] ;
609 -> 619 ;
620 [label=<density &le; 0.994<br/>entropy = 0.235<br/>samples = 26<br/>value = [25, 0, 1]<br/>class = Low>, fillcolor="#e68641"] ;
619 -> 620 ;
621 [label=<entropy = 0.0<br/>samples = 25<br/>value = [25, 0, 0]<br/>class = Low>, fillcolor="#e58139"] ;
620 -> 621 ;
622 [label=<entropy = 0.0<br/>samples = 1<br/>value = [0, 0, 1]<br/>class = High>, fillcolor="#8139e5"] ;
620 -> 622 ;
623 [label=<pH &le; 3.19<br/>entropy = 1.0<br/>samples = 6<br/>value = [3, 0, 3]<br/>class = Low>, fillcolor="#ffffff"] ;
619 -> 623 ;
624 [label=<entropy = 0.0<br/>samples = 3<br/>value = [3, 0, 0]<br/>class = Low>, fillcolor="#e58139"] ;
623 -> 624 ;
625 [label=<entropy = 0.0<br/>samples = 3<br/>value = [0, 0, 3]<br/>class = High>, fillcolor="#8139e5"] ;
623 -> 625 ;
626 [label=<density &le; 0.995<br/>entropy = 0.65<br/>samples = 24<br/>value = [4, 0, 20]<br/>class = High>, fillcolor="#9a61ea"] ;
526 -> 626 ;
627 [label=<sulphates &le; 0.555<br/>entropy = 0.286<br/>samples = 20<br/>value = [1, 0, 19]<br/>class = High>, fillcolor="#8843e6"] ;
626 -> 627 ;
628 [label=<entropy = 0.0<br/>samples = 17<br/>value = [0, 0, 17]<br/>class = High>, fillcolor="#8139e5"] ;
627 -> 628 ;
629 [label=<sulphates &le; 0.62<br/>entropy = 0.918<br/>samples = 3<br/>value = [1, 0, 2]<br/>class = High>, fillcolor="#c09cf2"] ;
627 -> 629 ;
630 [label=<entropy = 0.0<br/>samples = 1<br/>value = [1, 0, 0]<br/>class = Low>, fillcolor="#e58139"] ;
629 -> 630 ;
631 [label=<entropy = 0.0<br/>samples = 2<br/>value = [0, 0, 2]<br/>class = High>, fillcolor="#8139e5"] ;
629 -> 631 ;
632 [label=<volatile acidity &le; 0.36<br/>entropy = 0.811<br/>samples = 4<br/>value = [3, 0, 1]<br/>class = Low>, fillcolor="#eeab7b"] ;
626 -> 632 ;
633 [label=<entropy = 0.0<br/>samples = 3<br/>value = [3, 0, 0]<br/>class = Low>, fillcolor="#e58139"] ;
632 -> 633 ;
634 [label=<entropy = 0.0<br/>samples = 1<br/>value = [0, 0, 1]<br/>class = High>, fillcolor="#8139e5"] ;
632 -> 634 ;
635 [label=<total sulfur dioxide &le; 163.0<br/>entropy = 1.014<br/>samples = 42<br/>value = [12, 1, 29]<br/>class = High>, fillcolor="#b88ff0"] ;
459 -> 635 ;
636 [label=<volatile acidity &le; 0.175<br/>entropy = 0.391<br/>samples = 13<br/>value = [0, 1, 12]<br/>class = High>, fillcolor="#8c49e7"] ;
635 -> 636 ;
637 [label=<entropy = 0.0<br/>samples = 1<br/>value = [0, 1, 0]<br/>class = Standard>, fillcolor="#39e581"] ;
636 -> 637 ;
638 [label=<entropy = 0.0<br/>samples = 12<br/>value = [0, 0, 12]<br/>class = High>, fillcolor="#8139e5"] ;
636 -> 638 ;
639 [label=<residual sugar &le; 8.25<br/>entropy = 0.978<br/>samples = 29<br/>value = [12, 0, 17]<br/>class = High>, fillcolor="#dac5f7"] ;
635 -> 639 ;
640 [label=<density &le; 0.991<br/>entropy = 0.792<br/>samples = 21<br/>value = [5, 0, 16]<br/>class = High>, fillcolor="#a877ed"] ;
639 -> 640 ;
641 [label=<fixed acidity &le; 7.25<br/>entropy = 0.918<br/>samples = 6<br/>value = [4, 0, 2]<br/>class = Low>, fillcolor="#f2c09c"] ;
640 -> 641 ;
642 [label=<entropy = 0.0<br/>samples = 2<br/>value = [0, 0, 2]<br/>class = High>, fillcolor="#8139e5"] ;
641 -> 642 ;
643 [label=<entropy = 0.0<br/>samples = 4<br/>value = [4, 0, 0]<br/>class = Low>, fillcolor="#e58139"] ;
641 -> 643 ;
644 [label=<chlorides &le; 0.021<br/>entropy = 0.353<br/>samples = 15<br/>value = [1, 0, 14]<br/>class = High>, fillcolor="#8a47e7"] ;
640 -> 644 ;
645 [label=<entropy = 0.0<br/>samples = 1<br/>value = [1, 0, 0]<br/>class = Low>, fillcolor="#e58139"] ;
644 -> 645 ;
646 [label=<entropy = 0.0<br/>samples = 14<br/>value = [0, 0, 14]<br/>class = High>, fillcolor="#8139e5"] ;
644 -> 646 ;
647 [label=<residual sugar &le; 15.575<br/>entropy = 0.544<br/>samples = 8<br/>value = [7, 0, 1]<br/>class = Low>, fillcolor="#e99355"] ;
639 -> 647 ;
648 [label=<entropy = 0.0<br/>samples = 7<br/>value = [7, 0, 0]<br/>class = Low>, fillcolor="#e58139"] ;
647 -> 648 ;
649 [label=<entropy = 0.0<br/>samples = 1<br/>value = [0, 0, 1]<br/>class = High>, fillcolor="#8139e5"] ;
647 -> 649 ;
650 [label=<pH &le; 3.035<br/>entropy = 0.958<br/>samples = 281<br/>value = [79, 4, 198]<br/>class = High>, fillcolor="#b58af0"] ;
444 -> 650 ;
651 [label=<sulphates &le; 0.305<br/>entropy = 0.206<br/>samples = 31<br/>value = [1, 0, 30]<br/>class = High>, fillcolor="#8540e6"] ;
650 -> 651 ;
652 [label=<citric acid &le; 0.31<br/>entropy = 1.0<br/>samples = 2<br/>value = [1, 0, 1]<br/>class = Low>, fillcolor="#ffffff"] ;
651 -> 652 ;
653 [label=<entropy = 0.0<br/>samples = 1<br/>value = [0, 0, 1]<br/>class = High>, fillcolor="#8139e5"] ;
652 -> 653 ;
654 [label=<entropy = 0.0<br/>samples = 1<br/>value = [1, 0, 0]<br/>class = Low>, fillcolor="#e58139"] ;
652 -> 654 ;
655 [label=<entropy = 0.0<br/>samples = 29<br/>value = [0, 0, 29]<br/>class = High>, fillcolor="#8139e5"] ;
651 -> 655 ;
656 [label=<residual sugar &le; 1.05<br/>entropy = 1.005<br/>samples = 250<br/>value = [78, 4, 168]<br/>class = High>, fillcolor="#bd97f1"] ;
650 -> 656 ;
657 [label=<alcohol &le; 11.1<br/>entropy = 0.65<br/>samples = 12<br/>value = [0, 2, 10]<br/>class = High>, fillcolor="#9a61ea"] ;
656 -> 657 ;
658 [label=<entropy = 0.0<br/>samples = 2<br/>value = [0, 2, 0]<br/>class = Standard>, fillcolor="#39e581"] ;
657 -> 658 ;
659 [label=<entropy = 0.0<br/>samples = 10<br/>value = [0, 0, 10]<br/>class = High>, fillcolor="#8139e5"] ;
657 -> 659 ;
660 [label=<sulphates &le; 0.585<br/>entropy = 0.978<br/>samples = 238<br/>value = [78, 2, 158]<br/>class = High>, fillcolor="#c09cf2"] ;
656 -> 660 ;
661 [label=<alcohol &le; 11.367<br/>entropy = 0.892<br/>samples = 193<br/>value = [53.0, 1.0, 139.0]<br/>class = High>, fillcolor="#b285ef"] ;
660 -> 661 ;
662 [label=<citric acid &le; 0.245<br/>entropy = 0.706<br/>samples = 96<br/>value = [15, 1, 80]<br/>class = High>, fillcolor="#9a60ea"] ;
661 -> 662 ;
663 [label=<pH &le; 3.12<br/>entropy = 0.414<br/>samples = 12<br/>value = [0, 1, 11]<br/>class = High>, fillcolor="#8c4be7"] ;
662 -> 663 ;
664 [label=<entropy = 0.0<br/>samples = 1<br/>value = [0, 1, 0]<br/>class = Standard>, fillcolor="#39e581"] ;
663 -> 664 ;
665 [label=<entropy = 0.0<br/>samples = 11<br/>value = [0, 0, 11]<br/>class = High>, fillcolor="#8139e5"] ;
663 -> 665 ;
666 [label=<pH &le; 3.075<br/>entropy = 0.677<br/>samples = 84<br/>value = [15, 0, 69]<br/>class = High>, fillcolor="#9c64eb"] ;
662 -> 666 ;
667 [label=<entropy = 0.0<br/>samples = 12<br/>value = [0, 0, 12]<br/>class = High>, fillcolor="#8139e5"] ;
666 -> 667 ;
668 [label=<free sulfur dioxide &le; 15.0<br/>entropy = 0.738<br/>samples = 72<br/>value = [15, 0, 57]<br/>class = High>, fillcolor="#a26dec"] ;
666 -> 668 ;
669 [label=<entropy = 0.0<br/>samples = 2<br/>value = [2, 0, 0]<br/>class = Low>, fillcolor="#e58139"] ;
668 -> 669 ;
670 [label=<citric acid &le; 0.325<br/>entropy = 0.692<br/>samples = 70<br/>value = [13, 0, 57]<br/>class = High>, fillcolor="#9e66eb"] ;
668 -> 670 ;
671 [label=<residual sugar &le; 3.55<br/>entropy = 0.461<br/>samples = 41<br/>value = [4, 0, 37]<br/>class = High>, fillcolor="#8f4ee8"] ;
670 -> 671 ;
672 [label=<total sulfur dioxide &le; 111.5<br/>entropy = 0.764<br/>samples = 18<br/>value = [4, 0, 14]<br/>class = High>, fillcolor="#a572ec"] ;
671 -> 672 ;
673 [label=<entropy = 0.0<br/>samples = 9<br/>value = [0, 0, 9]<br/>class = High>, fillcolor="#8139e5"] ;
672 -> 673 ;
674 [label=<volatile acidity &le; 0.233<br/>entropy = 0.991<br/>samples = 9<br/>value = [4, 0, 5]<br/>class = High>, fillcolor="#e6d7fa"] ;
672 -> 674 ;
675 [label=<entropy = 0.0<br/>samples = 3<br/>value = [0, 0, 3]<br/>class = High>, fillcolor="#8139e5"] ;
674 -> 675 ;
676 [label=<total sulfur dioxide &le; 181.5<br/>entropy = 0.918<br/>samples = 6<br/>value = [4, 0, 2]<br/>class = Low>, fillcolor="#f2c09c"] ;
674 -> 676 ;
677 [label=<entropy = 0.0<br/>samples = 4<br/>value = [4, 0, 0]<br/>class = Low>, fillcolor="#e58139"] ;
676 -> 677 ;
678 [label=<entropy = 0.0<br/>samples = 2<br/>value = [0, 0, 2]<br/>class = High>, fillcolor="#8139e5"] ;
676 -> 678 ;
679 [label=<entropy = 0.0<br/>samples = 23<br/>value = [0, 0, 23]<br/>class = High>, fillcolor="#8139e5"] ;
671 -> 679 ;
680 [label=<free sulfur dioxide &le; 52.0<br/>entropy = 0.894<br/>samples = 29<br/>value = [9, 0, 20]<br/>class = High>, fillcolor="#ba92f1"] ;
670 -> 680 ;
681 [label=<fixed acidity &le; 7.3<br/>entropy = 0.826<br/>samples = 27<br/>value = [7, 0, 20]<br/>class = High>, fillcolor="#ad7eee"] ;
680 -> 681 ;
682 [label=<volatile acidity &le; 0.175<br/>entropy = 0.964<br/>samples = 18<br/>value = [7, 0, 11]<br/>class = High>, fillcolor="#d1b7f6"] ;
681 -> 682 ;
683 [label=<entropy = 0.0<br/>samples = 3<br/>value = [3, 0, 0]<br/>class = Low>, fillcolor="#e58139"] ;
682 -> 683 ;
684 [label=<sulphates &le; 0.475<br/>entropy = 0.837<br/>samples = 15<br/>value = [4, 0, 11]<br/>class = High>, fillcolor="#af81ee"] ;
682 -> 684 ;
685 [label=<entropy = 0.0<br/>samples = 5<br/>value = [0, 0, 5]<br/>class = High>, fillcolor="#8139e5"] ;
684 -> 685 ;
686 [label=<fixed acidity &le; 6.25<br/>entropy = 0.971<br/>samples = 10<br/>value = [4, 0, 6]<br/>class = High>, fillcolor="#d5bdf6"] ;
684 -> 686 ;
687 [label=<entropy = 0.0<br/>samples = 3<br/>value = [0, 0, 3]<br/>class = High>, fillcolor="#8139e5"] ;
686 -> 687 ;
688 [label=<pH &le; 3.16<br/>entropy = 0.985<br/>samples = 7<br/>value = [4, 0, 3]<br/>class = Low>, fillcolor="#f8e0ce"] ;
686 -> 688 ;
689 [label=<entropy = 0.0<br/>samples = 2<br/>value = [0, 0, 2]<br/>class = High>, fillcolor="#8139e5"] ;
688 -> 689 ;
690 [label=<sulphates &le; 0.57<br/>entropy = 0.722<br/>samples = 5<br/>value = [4, 0, 1]<br/>class = Low>, fillcolor="#eca06a"] ;
688 -> 690 ;
691 [label=<entropy = 0.0<br/>samples = 4<br/>value = [4, 0, 0]<br/>class = Low>, fillcolor="#e58139"] ;
690 -> 691 ;
692 [label=<entropy = 0.0<br/>samples = 1<br/>value = [0, 0, 1]<br/>class = High>, fillcolor="#8139e5"] ;
690 -> 692 ;
693 [label=<entropy = 0.0<br/>samples = 9<br/>value = [0, 0, 9]<br/>class = High>, fillcolor="#8139e5"] ;
681 -> 693 ;
694 [label=<entropy = 0.0<br/>samples = 2<br/>value = [2, 0, 0]<br/>class = Low>, fillcolor="#e58139"] ;
680 -> 694 ;
695 [label=<total sulfur dioxide &le; 165.5<br/>entropy = 0.966<br/>samples = 97<br/>value = [38.0, 0.0, 59.0]<br/>class = High>, fillcolor="#d2b9f6"] ;
661 -> 695 ;
696 [label=<fixed acidity &le; 6.25<br/>entropy = 0.998<br/>samples = 80<br/>value = [38, 0, 42]<br/>class = High>, fillcolor="#f3ecfd"] ;
695 -> 696 ;
697 [label=<citric acid &le; 0.305<br/>entropy = 0.696<br/>samples = 16<br/>value = [3, 0, 13]<br/>class = High>, fillcolor="#9e67eb"] ;
696 -> 697 ;
698 [label=<entropy = 0.0<br/>samples = 10<br/>value = [0, 0, 10]<br/>class = High>, fillcolor="#8139e5"] ;
697 -> 698 ;
699 [label=<alcohol &le; 11.7<br/>entropy = 1.0<br/>samples = 6<br/>value = [3, 0, 3]<br/>class = Low>, fillcolor="#ffffff"] ;
697 -> 699 ;
700 [label=<entropy = 0.0<br/>samples = 2<br/>value = [0, 0, 2]<br/>class = High>, fillcolor="#8139e5"] ;
699 -> 700 ;
701 [label=<alcohol &le; 12.2<br/>entropy = 0.811<br/>samples = 4<br/>value = [3, 0, 1]<br/>class = Low>, fillcolor="#eeab7b"] ;
699 -> 701 ;
702 [label=<entropy = 0.0<br/>samples = 3<br/>value = [3, 0, 0]<br/>class = Low>, fillcolor="#e58139"] ;
701 -> 702 ;
703 [label=<entropy = 0.0<br/>samples = 1<br/>value = [0, 0, 1]<br/>class = High>, fillcolor="#8139e5"] ;
701 -> 703 ;
704 [label=<free sulfur dioxide &le; 19.5<br/>entropy = 0.994<br/>samples = 64<br/>value = [35, 0, 29]<br/>class = Low>, fillcolor="#fbe9dd"] ;
696 -> 704 ;
705 [label=<total sulfur dioxide &le; 126.0<br/>entropy = 0.544<br/>samples = 8<br/>value = [1, 0, 7]<br/>class = High>, fillcolor="#9355e9"] ;
704 -> 705 ;
706 [label=<entropy = 0.0<br/>samples = 7<br/>value = [0, 0, 7]<br/>class = High>, fillcolor="#8139e5"] ;
705 -> 706 ;
707 [label=<entropy = 0.0<br/>samples = 1<br/>value = [1, 0, 0]<br/>class = Low>, fillcolor="#e58139"] ;
705 -> 707 ;
708 [label=<free sulfur dioxide &le; 51.5<br/>entropy = 0.967<br/>samples = 56<br/>value = [34, 0, 22]<br/>class = Low>, fillcolor="#f6d3b9"] ;
704 -> 708 ;
709 [label=<citric acid &le; 0.495<br/>entropy = 0.931<br/>samples = 52<br/>value = [34, 0, 18]<br/>class = Low>, fillcolor="#f3c4a2"] ;
708 -> 709 ;
710 [label=<sulphates &le; 0.295<br/>entropy = 0.859<br/>samples = 46<br/>value = [33.0, 0.0, 13.0]<br/>class = Low>, fillcolor="#efb387"] ;
709 -> 710 ;
711 [label=<entropy = 0.0<br/>samples = 2<br/>value = [0, 0, 2]<br/>class = High>, fillcolor="#8139e5"] ;
710 -> 711 ;
712 [label=<residual sugar &le; 7.7<br/>entropy = 0.811<br/>samples = 44<br/>value = [33, 0, 11]<br/>class = Low>, fillcolor="#eeab7b"] ;
710 -> 712 ;
713 [label=<free sulfur dioxide &le; 30.5<br/>entropy = 0.908<br/>samples = 34<br/>value = [23, 0, 11]<br/>class = Low>, fillcolor="#f1bd98"] ;
712 -> 713 ;
714 [label=<free sulfur dioxide &le; 21.0<br/>entropy = 0.414<br/>samples = 12<br/>value = [11, 0, 1]<br/>class = Low>, fillcolor="#e78c4b"] ;
713 -> 714 ;
715 [label=<entropy = 0.0<br/>samples = 1<br/>value = [0, 0, 1]<br/>class = High>, fillcolor="#8139e5"] ;
714 -> 715 ;
716 [label=<entropy = 0.0<br/>samples = 11<br/>value = [11, 0, 0]<br/>class = Low>, fillcolor="#e58139"] ;
714 -> 716 ;
717 [label=<sulphates &le; 0.36<br/>entropy = 0.994<br/>samples = 22<br/>value = [12, 0, 10]<br/>class = Low>, fillcolor="#fbeade"] ;
713 -> 717 ;
718 [label=<entropy = 0.0<br/>samples = 3<br/>value = [0, 0, 3]<br/>class = High>, fillcolor="#8139e5"] ;
717 -> 718 ;
719 [label=<pH &le; 3.29<br/>entropy = 0.949<br/>samples = 19<br/>value = [12, 0, 7]<br/>class = Low>, fillcolor="#f4caac"] ;
717 -> 719 ;
720 [label=<free sulfur dioxide &le; 34.5<br/>entropy = 0.811<br/>samples = 16<br/>value = [12, 0, 4]<br/>class = Low>, fillcolor="#eeab7b"] ;
719 -> 720 ;
721 [label=<free sulfur dioxide &le; 33.5<br/>entropy = 0.918<br/>samples = 6<br/>value = [2, 0, 4]<br/>class = High>, fillcolor="#c09cf2"] ;
720 -> 721 ;
722 [label=<entropy = 0.0<br/>samples = 2<br/>value = [2, 0, 0]<br/>class = Low>, fillcolor="#e58139"] ;
721 -> 722 ;
723 [label=<entropy = 0.0<br/>samples = 4<br/>value = [0, 0, 4]<br/>class = High>, fillcolor="#8139e5"] ;
721 -> 723 ;
724 [label=<entropy = 0.0<br/>samples = 10<br/>value = [10, 0, 0]<br/>class = Low>, fillcolor="#e58139"] ;
720 -> 724 ;
725 [label=<entropy = 0.0<br/>samples = 3<br/>value = [0, 0, 3]<br/>class = High>, fillcolor="#8139e5"] ;
719 -> 725 ;
726 [label=<entropy = 0.0<br/>samples = 10<br/>value = [10, 0, 0]<br/>class = Low>, fillcolor="#e58139"] ;
712 -> 726 ;
727 [label=<free sulfur dioxide &le; 25.0<br/>entropy = 0.65<br/>samples = 6<br/>value = [1, 0, 5]<br/>class = High>, fillcolor="#9a61ea"] ;
709 -> 727 ;
728 [label=<entropy = 0.0<br/>samples = 1<br/>value = [1, 0, 0]<br/>class = Low>, fillcolor="#e58139"] ;
727 -> 728 ;
729 [label=<entropy = 0.0<br/>samples = 5<br/>value = [0, 0, 5]<br/>class = High>, fillcolor="#8139e5"] ;
727 -> 729 ;
730 [label=<entropy = 0.0<br/>samples = 4<br/>value = [0, 0, 4]<br/>class = High>, fillcolor="#8139e5"] ;
708 -> 730 ;
731 [label=<entropy = 0.0<br/>samples = 17<br/>value = [0, 0, 17]<br/>class = High>, fillcolor="#8139e5"] ;
695 -> 731 ;
732 [label=<residual sugar &le; 14.8<br/>entropy = 1.118<br/>samples = 45<br/>value = [25, 1, 19]<br/>class = Low>, fillcolor="#f9e2d1"] ;
660 -> 732 ;
733 [label=<volatile acidity &le; 0.285<br/>entropy = 0.987<br/>samples = 44<br/>value = [25.0, 0.0, 19.0]<br/>class = Low>, fillcolor="#f9e1cf"] ;
732 -> 733 ;
734 [label=<volatile acidity &le; 0.135<br/>entropy = 0.998<br/>samples = 34<br/>value = [16, 0, 18]<br/>class = High>, fillcolor="#f1e9fc"] ;
733 -> 734 ;
735 [label=<entropy = 0.0<br/>samples = 4<br/>value = [4, 0, 0]<br/>class = Low>, fillcolor="#e58139"] ;
734 -> 735 ;
736 [label=<density &le; 0.993<br/>entropy = 0.971<br/>samples = 30<br/>value = [12, 0, 18]<br/>class = High>, fillcolor="#d5bdf6"] ;
734 -> 736 ;
737 [label=<total sulfur dioxide &le; 118.0<br/>entropy = 1.0<br/>samples = 24<br/>value = [12, 0, 12]<br/>class = Low>, fillcolor="#ffffff"] ;
736 -> 737 ;
738 [label=<entropy = 0.0<br/>samples = 5<br/>value = [0, 0, 5]<br/>class = High>, fillcolor="#8139e5"] ;
737 -> 738 ;
739 [label=<pH &le; 3.155<br/>entropy = 0.949<br/>samples = 19<br/>value = [12, 0, 7]<br/>class = Low>, fillcolor="#f4caac"] ;
737 -> 739 ;
740 [label=<entropy = 0.0<br/>samples = 6<br/>value = [6, 0, 0]<br/>class = Low>, fillcolor="#e58139"] ;
739 -> 740 ;
