digraph Tree {
node [shape=box, style="filled, rounded", color="black", fontname="helvetica"] ;
edge [fontname="helvetica"] ;
0 [label=<alcohol &le; 10.85<br/>entropy = 0.971<br/>samples = 4408<br/>value = [954, 165, 3289]<br/>class = Standard>, fillcolor="#aa79ed"] ;
1 [label=<volatile acidity &le; 0.257<br/>entropy = 0.725<br/>samples = 2765<br/>value = [277, 123, 2365]<br/>class = Standard>, fillcolor="#9559e9"] ;
0 -> 1 [labeldistance=2.5, labelangle=45, headlabel="True"] ;
2 [label=<volatile acidity &le; 0.203<br/>entropy = 0.789<br/>samples = 1316<br/>value = [224, 25, 1067]<br/>class = Standard>, fillcolor="#9e66eb"] ;
1 -> 2 ;
3 [label=<density &le; 0.998<br/>entropy = 0.902<br/>samples = 653<br/>value = [153, 11, 489]<br/>class = Standard>, fillcolor="#aa7aee"] ;
2 -> 3 ;
4 [label=<fixed acidity &le; 8.45<br/>entropy = 0.819<br/>samples = 546<br/>value = [99, 11, 436]<br/>class = Standard>, fillcolor="#a06aeb"] ;
3 -> 4 ;
5 [label=<total sulfur dioxide &le; 141.5<br/>entropy = 0.771<br/>samples = 514<br/>value = [96, 5, 413]<br/>class = Standard>, fillcolor="#9f69eb"] ;
4 -> 5 ;
6 [label=<free sulfur dioxide &le; 27.5<br/>entropy = 0.866<br/>samples = 333<br/>value = [80.0, 3.0, 250.0]<br/>class = Standard>, fillcolor="#aa7aee"] ;
5 -> 6 ;
7 [label=<alcohol &le; 10.35<br/>entropy = 0.735<br/>samples = 151<br/>value = [22, 3, 126]<br/>class = Standard>, fillcolor="#995fea"] ;
6 -> 7 ;
8 [label=<total sulfur dioxide &le; 121.0<br/>entropy = 0.488<br/>samples = 105<br/>value = [7, 2, 96]<br/>class = Standard>, fillcolor="#8d4be7"] ;
7 -> 8 ;
9 [label=<total sulfur dioxide &le; 98.5<br/>entropy = 0.348<br/>samples = 92<br/>value = [6, 0, 86]<br/>class = Standard>, fillcolor="#8a47e7"] ;
8 -> 9 ;
10 [label=<chlorides &le; 0.041<br/>entropy = 0.516<br/>samples = 52<br/>value = [6, 0, 46]<br/>class = Standard>, fillcolor="#9153e8"] ;
9 -> 10 ;
11 [label=<entropy = 0.0<br/>samples = 19<br/>value = [0, 0, 19]<br/>class = Standard>, fillcolor="#8139e5"] ;
10 -> 11 ;
12 [label=<pH &le; 3.135<br/>entropy = 0.684<br/>samples = 33<br/>value = [6, 0, 27]<br/>class = Standard>, fillcolor="#9d65eb"] ;
10 -> 12 ;
13 [label=<entropy = 0.0<br/>samples = 11<br/>value = [0, 0, 11]<br/>class = Standard>, fillcolor="#8139e5"] ;
12 -> 13 ;
14 [label=<pH &le; 3.155<br/>entropy = 0.845<br/>samples = 22<br/>value = [6, 0, 16]<br/>class = Standard>, fillcolor="#b083ef"] ;
12 -> 14 ;
15 [label=<entropy = 0.0<br/>samples = 3<br/>value = [3, 0, 0]<br/>class = High>, fillcolor="#e58139"] ;
14 -> 15 ;
16 [label=<citric acid &le; 0.315<br/>entropy = 0.629<br/>samples = 19<br/>value = [3, 0, 16]<br/>class = Standard>, fillcolor="#995eea"] ;
14 -> 16 ;
17 [label=<volatile acidity &le; 0.178<br/>entropy = 0.881<br/>samples = 10<br/>value = [3, 0, 7]<br/>class = Standard>, fillcolor="#b78ef0"] ;
16 -> 17 ;
18 [label=<sulphates &le; 0.59<br/>entropy = 0.544<br/>samples = 8<br/>value = [1, 0, 7]<br/>class = Standard>, fillcolor="#9355e9"] ;
17 -> 18 ;
19 [label=<entropy = 0.0<br/>samples = 7<br/>value = [0, 0, 7]<br/>class = Standard>, fillcolor="#8139e5"] ;
18 -> 19 ;
20 [label=<entropy = 0.0<br/>samples = 1<br/>value = [1, 0, 0]<br/>class = High>, fillcolor="#e58139"] ;
18 -> 20 ;
21 [label=<entropy = 0.0<br/>samples = 2<br/>value = [2, 0, 0]<br/>class = High>, fillcolor="#e58139"] ;
17 -> 21 ;
22 [label=<entropy = 0.0<br/>samples = 9<br/>value = [0, 0, 9]<br/>class = Standard>, fillcolor="#8139e5"] ;
16 -> 22 ;
23 [label=<entropy = 0.0<br/>samples = 40<br/>value = [0, 0, 40]<br/>class = Standard>, fillcolor="#8139e5"] ;
9 -> 23 ;
24 [label=<residual sugar &le; 7.05<br/>entropy = 0.991<br/>samples = 13<br/>value = [1, 2, 10]<br/>class = Standard>, fillcolor="#a36fec"] ;
8 -> 24 ;
25 [label=<free sulfur dioxide &le; 15.0<br/>entropy = 0.65<br/>samples = 12<br/>value = [0, 2, 10]<br/>class = Standard>, fillcolor="#9a61ea"] ;
24 -> 25 ;
26 [label=<entropy = 0.0<br/>samples = 1<br/>value = [0, 1, 0]<br/>class = Low>, fillcolor="#39e581"] ;
25 -> 26 ;
27 [label=<pH &le; 3.3<br/>entropy = 0.439<br/>samples = 11<br/>value = [0, 1, 10]<br/>class = Standard>, fillcolor="#8e4de8"] ;
25 -> 27 ;
28 [label=<entropy = 0.0<br/>samples = 9<br/>value = [0, 0, 9]<br/>class = Standard>, fillcolor="#8139e5"] ;
27 -> 28 ;
29 [label=<citric acid &le; 0.35<br/>entropy = 1.0<br/>samples = 2<br/>value = [0, 1, 1]<br/>class = Low>, fillcolor="#ffffff"] ;
27 -> 29 ;
30 [label=<entropy = 0.0<br/>samples = 1<br/>value = [0, 1, 0]<br/>class = Low>, fillcolor="#39e581"] ;
29 -> 30 ;
31 [label=<entropy = 0.0<br/>samples = 1<br/>value = [0, 0, 1]<br/>class = Standard>, fillcolor="#8139e5"] ;
29 -> 31 ;
32 [label=<entropy = 0.0<br/>samples = 1<br/>value = [1, 0, 0]<br/>class = High>, fillcolor="#e58139"] ;
24 -> 32 ;
33 [label=<chlorides &le; 0.037<br/>entropy = 1.049<br/>samples = 46<br/>value = [15, 1, 30]<br/>class = Standard>, fillcolor="#c29ff2"] ;
7 -> 33 ;
34 [label=<total sulfur dioxide &le; 104.5<br/>entropy = 1.231<br/>samples = 15<br/>value = [9, 1, 5]<br/>class = High>, fillcolor="#f5cdb0"] ;
33 -> 34 ;
35 [label=<pH &le; 3.105<br/>entropy = 0.991<br/>samples = 9<br/>value = [4, 0, 5]<br/>class = Standard>, fillcolor="#e6d7fa"] ;
34 -> 35 ;
36 [label=<entropy = 0.0<br/>samples = 3<br/>value = [0, 0, 3]<br/>class = Standard>, fillcolor="#8139e5"] ;
35 -> 36 ;
37 [label=<total sulfur dioxide &le; 89.5<br/>entropy = 0.918<br/>samples = 6<br/>value = [4, 0, 2]<br/>class = High>, fillcolor="#f2c09c"] ;
35 -> 37 ;
38 [label=<entropy = 0.0<br/>samples = 4<br/>value = [4, 0, 0]<br/>class = High>, fillcolor="#e58139"] ;
37 -> 38 ;
39 [label=<entropy = 0.0<br/>samples = 2<br/>value = [0, 0, 2]<br/>class = Standard>, fillcolor="#8139e5"] ;
37 -> 39 ;
40 [label=<citric acid &le; 0.58<br/>entropy = 0.65<br/>samples = 6<br/>value = [5, 1, 0]<br/>class = High>, fillcolor="#ea9a61"] ;
34 -> 40 ;
41 [label=<entropy = 0.0<br/>samples = 5<br/>value = [5, 0, 0]<br/>class = High>, fillcolor="#e58139"] ;
40 -> 41 ;
42 [label=<entropy = 0.0<br/>samples = 1<br/>value = [0, 1, 0]<br/>class = Low>, fillcolor="#39e581"] ;
40 -> 42 ;
43 [label=<citric acid &le; 0.245<br/>entropy = 0.709<br/>samples = 31<br/>value = [6, 0, 25]<br/>class = Standard>, fillcolor="#9f69eb"] ;
33 -> 43 ;
44 [label=<entropy = 0.0<br/>samples = 2<br/>value = [2, 0, 0]<br/>class = High>, fillcolor="#e58139"] ;
43 -> 44 ;
45 [label=<citric acid &le; 0.43<br/>entropy = 0.579<br/>samples = 29<br/>value = [4, 0, 25]<br/>class = Standard>, fillcolor="#9559e9"] ;
43 -> 45 ;
46 [label=<total sulfur dioxide &le; 77.0<br/>entropy = 0.391<br/>samples = 26<br/>value = [2, 0, 24]<br/>class = Standard>, fillcolor="#8c49e7"] ;
45 -> 46 ;
47 [label=<free sulfur dioxide &le; 19.0<br/>entropy = 0.863<br/>samples = 7<br/>value = [2, 0, 5]<br/>class = Standard>, fillcolor="#b388ef"] ;
46 -> 47 ;
48 [label=<entropy = 0.0<br/>samples = 5<br/>value = [0, 0, 5]<br/>class = Standard>, fillcolor="#8139e5"] ;
47 -> 48 ;
49 [label=<entropy = 0.0<br/>samples = 2<br/>value = [2, 0, 0]<br/>class = High>, fillcolor="#e58139"] ;
47 -> 49 ;
50 [label=<entropy = 0.0<br/>samples = 19<br/>value = [0, 0, 19]<br/>class = Standard>, fillcolor="#8139e5"] ;
46 -> 50 ;
51 [label=<residual sugar &le; 3.15<br/>entropy = 0.918<br/>samples = 3<br/>value = [2, 0, 1]<br/>class = High>, fillcolor="#f2c09c"] ;
45 -> 51 ;
52 [label=<entropy = 0.0<br/>samples = 2<br/>value = [2, 0, 0]<br/>class = High>, fillcolor="#e58139"] ;
51 -> 52 ;
53 [label=<entropy = 0.0<br/>samples = 1<br/>value = [0, 0, 1]<br/>class = Standard>, fillcolor="#8139e5"] ;
51 -> 53 ;
54 [label=<citric acid &le; 0.265<br/>entropy = 0.903<br/>samples = 182<br/>value = [58.0, 0.0, 124.0]<br/>class = Standard>, fillcolor="#bc96f1"] ;
6 -> 54 ;
55 [label=<fixed acidity &le; 6.9<br/>entropy = 0.323<br/>samples = 34<br/>value = [2, 0, 32]<br/>class = Standard>, fillcolor="#8945e7"] ;
54 -> 55 ;
56 [label=<entropy = 0.0<br/>samples = 30<br/>value = [0, 0, 30]<br/>class = Standard>, fillcolor="#8139e5"] ;
55 -> 56 ;
57 [label=<density &le; 0.994<br/>entropy = 1.0<br/>samples = 4<br/>value = [2, 0, 2]<br/>class = High>, fillcolor="#ffffff"] ;
55 -> 57 ;
58 [label=<entropy = 0.0<br/>samples = 2<br/>value = [2, 0, 0]<br/>class = High>, fillcolor="#e58139"] ;
57 -> 58 ;
59 [label=<entropy = 0.0<br/>samples = 2<br/>value = [0, 0, 2]<br/>class = Standard>, fillcolor="#8139e5"] ;
57 -> 59 ;
60 [label=<sulphates &le; 0.65<br/>entropy = 0.957<br/>samples = 148<br/>value = [56, 0, 92]<br/>class = Standard>, fillcolor="#ceb2f5"] ;
54 -> 60 ;
61 [label=<chlorides &le; 0.044<br/>entropy = 0.908<br/>samples = 130<br/>value = [42, 0, 88]<br/>class = Standard>, fillcolor="#bd98f1"] ;
60 -> 61 ;
62 [label=<volatile acidity &le; 0.125<br/>entropy = 0.992<br/>samples = 67<br/>value = [30, 0, 37]<br/>class = Standard>, fillcolor="#e7dafa"] ;
61 -> 62 ;
63 [label=<entropy = 0.0<br/>samples = 8<br/>value = [8, 0, 0]<br/>class = High>, fillcolor="#e58139"] ;
62 -> 63 ;
64 [label=<residual sugar &le; 1.3<br/>entropy = 0.953<br/>samples = 59<br/>value = [22, 0, 37]<br/>class = Standard>, fillcolor="#ccaff4"] ;
62 -> 64 ;
65 [label=<entropy = 0.0<br/>samples = 10<br/>value = [0, 0, 10]<br/>class = Standard>, fillcolor="#8139e5"] ;
64 -> 65 ;
66 [label=<residual sugar &le; 11.7<br/>entropy = 0.992<br/>samples = 49<br/>value = [22.0, 0.0, 27.0]<br/>class = Standard>, fillcolor="#e8dafa"] ;
64 -> 66 ;
67 [label=<sulphates &le; 0.515<br/>entropy = 0.988<br/>samples = 39<br/>value = [22, 0, 17]<br/>class = High>, fillcolor="#f9e2d2"] ;
66 -> 67 ;
68 [label=<total sulfur dioxide &le; 126.5<br/>entropy = 0.961<br/>samples = 26<br/>value = [10, 0, 16]<br/>class = Standard>, fillcolor="#d0b5f5"] ;
67 -> 68 ;
69 [label=<citric acid &le; 0.475<br/>entropy = 0.567<br/>samples = 15<br/>value = [2, 0, 13]<br/>class = Standard>, fillcolor="#9457e9"] ;
68 -> 69 ;
70 [label=<entropy = 0.0<br/>samples = 13<br/>value = [0, 0, 13]<br/>class = Standard>, fillcolor="#8139e5"] ;
69 -> 70 ;
71 [label=<entropy = 0.0<br/>samples = 2<br/>value = [2, 0, 0]<br/>class = High>, fillcolor="#e58139"] ;
69 -> 71 ;
72 [label=<citric acid &le; 0.315<br/>entropy = 0.845<br/>samples = 11<br/>value = [8, 0, 3]<br/>class = High>, fillcolor="#efb083"] ;
68 -> 72 ;
73 [label=<entropy = 0.0<br/>samples = 7<br/>value = [7, 0, 0]<br/>class = High>, fillcolor="#e58139"] ;
72 -> 73 ;
74 [label=<fixed acidity &le; 6.15<br/>entropy = 0.811<br/>samples = 4<br/>value = [1, 0, 3]<br/>class = Standard>, fillcolor="#ab7bee"] ;
72 -> 74 ;
75 [label=<entropy = 0.0<br/>samples = 1<br/>value = [1, 0, 0]<br/>class = High>, fillcolor="#e58139"] ;
74 -> 75 ;
76 [label=<entropy = 0.0<br/>samples = 3<br/>value = [0, 0, 3]<br/>class = Standard>, fillcolor="#8139e5"] ;
74 -> 76 ;
77 [label=<chlorides &le; 0.031<br/>entropy = 0.391<br/>samples = 13<br/>value = [12, 0, 1]<br/>class = High>, fillcolor="#e78c49"] ;
67 -> 77 ;
78 [label=<entropy = 0.0<br/>samples = 1<br/>value = [0, 0, 1]<br/>class = Standard>, fillcolor="#8139e5"] ;
77 -> 78 ;
79 [label=<entropy = 0.0<br/>samples = 12<br/>value = [12, 0, 0]<br/>class = High>, fillcolor="#e58139"] ;
77 -> 79 ;
80 [label=<entropy = 0.0<br/>samples = 10<br/>value = [0, 0, 10]<br/>class = Standard>, fillcolor="#8139e5"] ;
66 -> 80 ;
81 [label=<sulphates &le; 0.495<br/>entropy = 0.702<br/>samples = 63<br/>value = [12, 0, 51]<br/>class = Standard>, fillcolor="#9f68eb"] ;
61 -> 81 ;
82 [label=<free sulfur dioxide &le; 29.5<br/>entropy = 0.772<br/>samples = 53<br/>value = [12, 0, 41]<br/>class = Standard>, fillcolor="#a673ed"] ;
81 -> 82 ;
83 [label=<entropy = 0.0<br/>samples = 3<br/>value = [3, 0, 0]<br/>class = High>, fillcolor="#e58139"] ;
82 -> 83 ;
84 [label=<density &le; 0.994<br/>entropy = 0.68<br/>samples = 50<br/>value = [9, 0, 41]<br/>class = Standard>, fillcolor="#9d64eb"] ;
82 -> 84 ;
85 [label=<volatile acidity &le; 0.165<br/>entropy = 0.971<br/>samples = 15<br/>value = [6, 0, 9]<br/>class = Standard>, fillcolor="#d5bdf6"] ;
84 -> 85 ;
86 [label=<entropy = 0.0<br/>samples = 3<br/>value = [3, 0, 0]<br/>class = High>, fillcolor="#e58139"] ;
85 -> 86 ;
87 [label=<residual sugar &le; 4.95<br/>entropy = 0.811<br/>samples = 12<br/>value = [3, 0, 9]<br/>class = Standard>, fillcolor="#ab7bee"] ;
85 -> 87 ;
88 [label=<density &le; 0.994<br/>entropy = 0.469<br/>samples = 10<br/>value = [1, 0, 9]<br/>class = Standard>, fillcolor="#8f4fe8"] ;
87 -> 88 ;
89 [label=<entropy = 0.0<br/>samples = 8<br/>value = [0, 0, 8]<br/>class = Standard>, fillcolor="#8139e5"] ;
88 -> 89 ;
90 [label=<chlorides &le; 0.092<br/>entropy = 1.0<br/>samples = 2<br/>value = [1, 0, 1]<br/>class = High>, fillcolor="#ffffff"] ;
88 -> 90 ;
91 [label=<entropy = 0.0<br/>samples = 1<br/>value = [1, 0, 0]<br/>class = High>, fillcolor="#e58139"] ;
90 -> 91 ;
92 [label=<entropy = 0.0<br/>samples = 1<br/>value = [0, 0, 1]<br/>class = Standard>, fillcolor="#8139e5"] ;
90 -> 92 ;
93 [label=<entropy = 0.0<br/>samples = 2<br/>value = [2, 0, 0]<br/>class = High>, fillcolor="#e58139"] ;
87 -> 93 ;
94 [label=<total sulfur dioxide &le; 121.0<br/>entropy = 0.422<br/>samples = 35<br/>value = [3, 0, 32]<br/>class = Standard>, fillcolor="#8d4ce7"] ;
84 -> 94 ;
95 [label=<total sulfur dioxide &le; 112.25<br/>entropy = 0.75<br/>samples = 14<br/>value = [3, 0, 11]<br/>class = Standard>, fillcolor="#a36fec"] ;
94 -> 95 ;
96 [label=<entropy = 0.0<br/>samples = 10<br/>value = [0, 0, 10]<br/>class = Standard>, fillcolor="#8139e5"] ;
95 -> 96 ;
97 [label=<alcohol &le; 9.75<br/>entropy = 0.811<br/>samples = 4<br/>value = [3, 0, 1]<br/>class = High>, fillcolor="#eeab7b"] ;
95 -> 97 ;
98 [label=<entropy = 0.0<br/>samples = 3<br/>value = [3, 0, 0]<br/>class = High>, fillcolor="#e58139"] ;
97 -> 98 ;
99 [label=<entropy = 0.0<br/>samples = 1<br/>value = [0, 0, 1]<br/>class = Standard>, fillcolor="#8139e5"] ;
97 -> 99 ;
100 [label=<entropy = 0.0<br/>samples = 21<br/>value = [0, 0, 21]<br/>class = Standard>, fillcolor="#8139e5"] ;
94 -> 100 ;
101 [label=<entropy = 0.0<br/>samples = 10<br/>value = [0, 0, 10]<br/>class = Standard>, fillcolor="#8139e5"] ;
81 -> 101 ;
102 [label=<volatile acidity &le; 0.157<br/>entropy = 0.764<br/>samples = 18<br/>value = [14, 0, 4]<br/>class = High>, fillcolor="#eca572"] ;
60 -> 102 ;
103 [label=<free sulfur dioxide &le; 38.5<br/>entropy = 0.985<br/>samples = 7<br/>value = [3, 0, 4]<br/>class = Standard>, fillcolor="#e0cef8"] ;
102 -> 103 ;
104 [label=<entropy = 0.0<br/>samples = 3<br/>value = [0, 0, 3]<br/>class = Standard>, fillcolor="#8139e5"] ;
103 -> 104 ;
105 [label=<density &le; 0.992<br/>entropy = 0.811<br/>samples = 4<br/>value = [3, 0, 1]<br/>class = High>, fillcolor="#eeab7b"] ;
103 -> 105 ;
106 [label=<entropy = 0.0<br/>samples = 1<br/>value = [0, 0, 1]<br/>class = Standard>, fillcolor="#8139e5"] ;
105 -> 106 ;
107 [label=<entropy = 0.0<br/>samples = 3<br/>value = [3, 0, 0]<br/>class = High>, fillcolor="#e58139"] ;
105 -> 107 ;
108 [label=<entropy = 0.0<br/>samples = 11<br/>value = [11, 0, 0]<br/>class = High>, fillcolor="#e58139"] ;
102 -> 108 ;
109 [label=<pH &le; 3.195<br/>entropy = 0.517<br/>samples = 181<br/>value = [16, 2, 163]<br/>class = Standard>, fillcolor="#8f4fe8"] ;
5 -> 109 ;
110 [label=<total sulfur dioxide &le; 200.0<br/>entropy = 0.786<br/>samples = 73<br/>value = [11, 2, 60]<br/>class = Standard>, fillcolor="#9b63ea"] ;
109 -> 110 ;
111 [label=<fixed acidity &le; 6.15<br/>entropy = 0.624<br/>samples = 69<br/>value = [8, 1, 60]<br/>class = Standard>, fillcolor="#9456e9"] ;
110 -> 111 ;
112 [label=<density &le; 0.994<br/>entropy = 1.585<br/>samples = 3<br/>value = [1, 1, 1]<br/>class = High>, fillcolor="#ffffff"] ;
111 -> 112 ;
113 [label=<entropy = 0.0<br/>samples = 1<br/>value = [0, 0, 1]<br/>class = Standard>, fillcolor="#8139e5"] ;
112 -> 113 ;
114 [label=<alcohol &le; 9.85<br/>entropy = 1.0<br/>samples = 2<br/>value = [1, 1, 0]<br/>class = High>, fillcolor="#ffffff"] ;
112 -> 114 ;
115 [label=<entropy = 0.0<br/>samples = 1<br/>value = [0, 1, 0]<br/>class = Low>, fillcolor="#39e581"] ;
114 -> 115 ;
116 [label=<entropy = 0.0<br/>samples = 1<br/>value = [1, 0, 0]<br/>class = High>, fillcolor="#e58139"] ;
114 -> 116 ;
117 [label=<pH &le; 3.065<br/>entropy = 0.488<br/>samples = 66<br/>value = [7, 0, 59]<br/>class = Standard>, fillcolor="#9050e8"] ;
111 -> 117 ;
118 [label=<entropy = 0.0<br/>samples = 23<br/>value = [0, 0, 23]<br/>class = Standard>, fillcolor="#8139e5"] ;
117 -> 118 ;
119 [label=<free sulfur dioxide &le; 42.5<br/>entropy = 0.641<br/>samples = 43<br/>value = [7.0, 0.0, 36.0]<br/>class = Standard>, fillcolor="#9a5fea"] ;
117 -> 119 ;
120 [label=<sulphates &le; 0.485<br/>entropy = 0.94<br/>samples = 14<br/>value = [5, 0, 9]<br/>class = Standard>, fillcolor="#c7a7f3"] ;
119 -> 120 ;
121 [label=<total sulfur dioxide &le; 160.5<br/>entropy = 0.684<br/>samples = 11<br/>value = [2, 0, 9]<br/>class = Standard>, fillcolor="#9d65eb"] ;
120 -> 121 ;
122 [label=<entropy = 0.0<br/>samples = 8<br/>value = [0, 0, 8]<br/>class = Standard>, fillcolor="#8139e5"] ;
121 -> 122 ;
123 [label=<sulphates &le; 0.43<br/>entropy = 0.918<br/>samples = 3<br/>value = [2, 0, 1]<br/>class = High>, fillcolor="#f2c09c"] ;
121 -> 123 ;
124 [label=<entropy = 0.0<br/>samples = 2<br/>value = [2, 0, 0]<br/>class = High>, fillcolor="#e58139"] ;
123 -> 124 ;
125 [label=<entropy = 0.0<br/>samples = 1<br/>value = [0, 0, 1]<br/>class = Standard>, fillcolor="#8139e5"] ;
123 -> 125 ;
126 [label=<entropy = 0.0<br/>samples = 3<br/>value = [3, 0, 0]<br/>class = High>, fillcolor="#e58139"] ;
120 -> 126 ;
127 [label=<sulphates &le; 0.665<br/>entropy = 0.362<br/>samples = 29<br/>value = [2, 0, 27]<br/>class = Standard>, fillcolor="#8a48e7"] ;
119 -> 127 ;
128 [label=<entropy = 0.0<br/>samples = 26<br/>value = [0, 0, 26]<br/>class = Standard>, fillcolor="#8139e5"] ;
127 -> 128 ;
129 [label=<total sulfur dioxide &le; 157.0<br/>entropy = 0.918<br/>samples = 3<br/>value = [2, 0, 1]<br/>class = High>, fillcolor="#f2c09c"] ;
127 -> 129 ;
130 [label=<entropy = 0.0<br/>samples = 1<br/>value = [0, 0, 1]<br/>class = Standard>, fillcolor="#8139e5"] ;
129 -> 130 ;
131 [label=<entropy = 0.0<br/>samples = 2<br/>value = [2, 0, 0]<br/>class = High>, fillcolor="#e58139"] ;
129 -> 131 ;
132 [label=<alcohol &le; 10.05<br/>entropy = 0.811<br/>samples = 4<br/>value = [3, 1, 0]<br/>class = High>, fillcolor="#eeab7b"] ;
110 -> 132 ;
133 [label=<entropy = 0.0<br/>samples = 3<br/>value = [3, 0, 0]<br/>class = High>, fillcolor="#e58139"] ;
132 -> 133 ;
134 [label=<entropy = 0.0<br/>samples = 1<br/>value = [0, 1, 0]<br/>class = Low>, fillcolor="#39e581"] ;
132 -> 134 ;
135 [label=<sulphates &le; 0.45<br/>entropy = 0.27<br/>samples = 108<br/>value = [5, 0, 103]<br/>class = Standard>, fillcolor="#8743e6"] ;
109 -> 135 ;
136 [label=<total sulfur dioxide &le; 179.5<br/>entropy = 0.592<br/>samples = 35<br/>value = [5, 0, 30]<br/>class = Standard>, fillcolor="#965ae9"] ;
135 -> 136 ;
137 [label=<volatile acidity &le; 0.115<br/>entropy = 0.222<br/>samples = 28<br/>value = [1, 0, 27]<br/>class = Standard>, fillcolor="#8640e6"] ;
136 -> 137 ;
138 [label=<free sulfur dioxide &le; 38.5<br/>entropy = 0.918<br/>samples = 3<br/>value = [1, 0, 2]<br/>class = Standard>, fillcolor="#c09cf2"] ;
137 -> 138 ;
139 [label=<entropy = 0.0<br/>samples = 2<br/>value = [0, 0, 2]<br/>class = Standard>, fillcolor="#8139e5"] ;
138 -> 139 ;
140 [label=<entropy = 0.0<br/>samples = 1<br/>value = [1, 0, 0]<br/>class = High>, fillcolor="#e58139"] ;
138 -> 140 ;
141 [label=<entropy = 0.0<br/>samples = 25<br/>value = [0, 0, 25]<br/>class = Standard>, fillcolor="#8139e5"] ;
137 -> 141 ;
142 [label=<sulphates &le; 0.395<br/>entropy = 0.985<br/>samples = 7<br/>value = [4, 0, 3]<br/>class = High>, fillcolor="#f8e0ce"] ;
136 -> 142 ;
143 [label=<entropy = 0.0<br/>samples = 3<br/>value = [0, 0, 3]<br/>class = Standard>, fillcolor="#8139e5"] ;
142 -> 143 ;
144 [label=<entropy = 0.0<br/>samples = 4<br/>value = [4, 0, 0]<br/>class = High>, fillcolor="#e58139"] ;
142 -> 144 ;
145 [label=<entropy = 0.0<br/>samples = 73<br/>value = [0, 0, 73]<br/>class = Standard>, fillcolor="#8139e5"] ;
135 -> 145 ;
146 [label=<total sulfur dioxide &le; 94.5<br/>entropy = 1.115<br/>samples = 32<br/>value = [3, 6, 23]<br/>class = Standard>, fillcolor="#ad7eee"] ;
4 -> 146 ;
147 [label=<entropy = 0.0<br/>samples = 10<br/>value = [0, 0, 10]<br/>class = Standard>, fillcolor="#8139e5"] ;
146 -> 147 ;
148 [label=<total sulfur dioxide &le; 112.5<br/>entropy = 1.352<br/>samples = 22<br/>value = [3, 6, 13]<br/>class = Standard>, fillcolor="#c8a8f4"] ;
146 -> 148 ;
149 [label=<sulphates &le; 0.33<br/>entropy = 0.65<br/>samples = 6<br/>value = [1, 5, 0]<br/>class = Low>, fillcolor="#61ea9a"] ;
148 -> 149 ;
150 [label=<entropy = 0.0<br/>samples = 1<br/>value = [1, 0, 0]<br/>class = High>, fillcolor="#e58139"] ;
149 -> 150 ;
151 [label=<entropy = 0.0<br/>samples = 5<br/>value = [0, 5, 0]<br/>class = Low>, fillcolor="#39e581"] ;
149 -> 151 ;
152 [label=<alcohol &le; 9.05<br/>entropy = 0.868<br/>samples = 16<br/>value = [2, 1, 13]<br/>class = Standard>, fillcolor="#9c63eb"] ;
148 -> 152 ;
153 [label=<entropy = 0.0<br/>samples = 1<br/>value = [0, 1, 0]<br/>class = Low>, fillcolor="#39e581"] ;
152 -> 153 ;
154 [label=<free sulfur dioxide &le; 38.5<br/>entropy = 0.567<br/>samples = 15<br/>value = [2, 0, 13]<br/>class = Standard>, fillcolor="#9457e9"] ;
152 -> 154 ;
155 [label=<entropy = 0.0<br/>samples = 11<br/>value = [0, 0, 11]<br/>class = Standard>, fillcolor="#8139e5"] ;
154 -> 155 ;
156 [label=<citric acid &le; 0.435<br/>entropy = 1.0<br/>samples = 4<br/>value = [2, 0, 2]<br/>class = High>, fillcolor="#ffffff"] ;
154 -> 156 ;
157 [label=<entropy = 0.0<br/>samples = 2<br/>value = [0, 0, 2]<br/>class = Standard>, fillcolor="#8139e5"] ;
156 -> 157 ;
158 [label=<entropy = 0.0<br/>samples = 2<br/>value = [2, 0, 0]<br/>class = High>, fillcolor="#e58139"] ;
156 -> 158 ;
159 [label=<citric acid &le; 0.305<br/>entropy = 1.0<br/>samples = 107<br/>value = [54.0, 0.0, 53.0]<br/>class = High>, fillcolor="#fffdfb"] ;
3 -> 159 ;
160 [label=<alcohol &le; 9.15<br/>entropy = 0.643<br/>samples = 55<br/>value = [46, 0, 9]<br/>class = High>, fillcolor="#ea9a60"] ;
159 -> 160 ;
161 [label=<fixed acidity &le; 6.45<br/>entropy = 0.25<br/>samples = 48<br/>value = [46, 0, 2]<br/>class = High>, fillcolor="#e68642"] ;
160 -> 161 ;
162 [label=<entropy = 0.0<br/>samples = 2<br/>value = [0, 0, 2]<br/>class = Standard>, fillcolor="#8139e5"] ;
161 -> 162 ;
163 [label=<entropy = 0.0<br/>samples = 46<br/>value = [46, 0, 0]<br/>class = High>, fillcolor="#e58139"] ;
161 -> 163 ;
164 [label=<entropy = 0.0<br/>samples = 7<br/>value = [0, 0, 7]<br/>class = Standard>, fillcolor="#8139e5"] ;
160 -> 164 ;
165 [label=<density &le; 1.0<br/>entropy = 0.619<br/>samples = 52<br/>value = [8, 0, 44]<br/>class = Standard>, fillcolor="#985dea"] ;
159 -> 165 ;
166 [label=<entropy = 0.0<br/>samples = 28<br/>value = [0, 0, 28]<br/>class = Standard>, fillcolor="#8139e5"] ;
165 -> 166 ;
167 [label=<total sulfur dioxide &le; 151.5<br/>entropy = 0.918<br/>samples = 24<br/>value = [8, 0, 16]<br/>class = Standard>, fillcolor="#c09cf2"] ;
165 -> 167 ;
168 [label=<entropy = 0.0<br/>samples = 4<br/>value = [4, 0, 0]<br/>class = High>, fillcolor="#e58139"] ;
167 -> 168 ;
169 [label=<residual sugar &le; 18.4<br/>entropy = 0.722<br/>samples = 20<br/>value = [4, 0, 16]<br/>class = Standard>, fillcolor="#a06aec"] ;
167 -> 169 ;
170 [label=<total sulfur dioxide &le; 203.5<br/>entropy = 0.323<br/>samples = 17<br/>value = [1, 0, 16]<br/>class = Standard>, fillcolor="#8945e7"] ;
169 -> 170 ;
171 [label=<entropy = 0.0<br/>samples = 16<br/>value = [0, 0, 16]<br/>class = Standard>, fillcolor="#8139e5"] ;
170 -> 171 ;
172 [label=<entropy = 0.0<br/>samples = 1<br/>value = [1, 0, 0]<br/>class = High>, fillcolor="#e58139"] ;
170 -> 172 ;
173 [label=<entropy = 0.0<br/>samples = 3<br/>value = [3, 0, 0]<br/>class = High>, fillcolor="#e58139"] ;
169 -> 173 ;
174 [label=<residual sugar &le; 15.35<br/>entropy = 0.635<br/>samples = 663<br/>value = [71, 14, 578]<br/>class = Standard>, fillcolor="#9355e9"] ;
2 -> 174 ;
175 [label=<density &le; 0.999<br/>entropy = 0.7<br/>samples = 575<br/>value = [71, 14, 490]<br/>class = Standard>, fillcolor="#965ae9"] ;
174 -> 175 ;
176 [label=<residual sugar &le; 5.55<br/>entropy = 0.622<br/>samples = 529<br/>value = [53, 12, 464]<br/>class = Standard>, fillcolor="#9254e9"] ;
175 -> 176 ;
177 [label=<alcohol &le; 10.65<br/>entropy = 0.905<br/>samples = 209<br/>value = [34, 10, 165]<br/>class = Standard>, fillcolor="#a16bec"] ;
176 -> 177 ;
178 [label=<density &le; 0.994<br/>entropy = 0.809<br/>samples = 178<br/>value = [20, 10, 148]<br/>class = Standard>, fillcolor="#995fea"] ;
177 -> 178 ;
179 [label=<sulphates &le; 0.475<br/>entropy = 0.621<br/>samples = 124<br/>value = [16, 1, 107]<br/>class = Standard>, fillcolor="#9558e9"] ;
178 -> 179 ;
180 [label=<free sulfur dioxide &le; 8.0<br/>entropy = 0.32<br/>samples = 63<br/>value = [2, 1, 60]<br/>class = Standard>, fillcolor="#8743e6"] ;
179 -> 180 ;
181 [label=<entropy = 0.0<br/>samples = 1<br/>value = [0, 1, 0]<br/>class = Low>, fillcolor="#39e581"] ;
180 -> 181 ;
182 [label=<free sulfur dioxide &le; 43.5<br/>entropy = 0.206<br/>samples = 62<br/>value = [2, 0, 60]<br/>class = Standard>, fillcolor="#8540e6"] ;
180 -> 182 ;
183 [label=<entropy = 0.0<br/>samples = 47<br/>value = [0, 0, 47]<br/>class = Standard>, fillcolor="#8139e5"] ;
182 -> 183 ;
184 [label=<fixed acidity &le; 7.3<br/>entropy = 0.567<br/>samples = 15<br/>value = [2, 0, 13]<br/>class = Standard>, fillcolor="#9457e9"] ;
182 -> 184 ;
185 [label=<citric acid &le; 0.59<br/>entropy = 0.371<br/>samples = 14<br/>value = [1, 0, 13]<br/>class = Standard>, fillcolor="#8b48e7"] ;
184 -> 185 ;
186 [label=<entropy = 0.0<br/>samples = 11<br/>value = [0, 0, 11]<br/>class = Standard>, fillcolor="#8139e5"] ;
185 -> 186 ;
187 [label=<total sulfur dioxide &le; 133.5<br/>entropy = 0.918<br/>samples = 3<br/>value = [1, 0, 2]<br/>class = Standard>, fillcolor="#c09cf2"] ;
185 -> 187 ;
188 [label=<entropy = 0.0<br/>samples = 2<br/>value = [0, 0, 2]<br/>class = Standard>, fillcolor="#8139e5"] ;
187 -> 188 ;
189 [label=<entropy = 0.0<br/>samples = 1<br/>value = [1, 0, 0]<br/>class = High>, fillcolor="#e58139"] ;
187 -> 189 ;
190 [label=<entropy = 0.0<br/>samples = 1<br/>value = [1, 0, 0]<br/>class = High>, fillcolor="#e58139"] ;
184 -> 190 ;
191 [label=<pH &le; 3.415<br/>entropy = 0.777<br/>samples = 61<br/>value = [14, 0, 47]<br/>class = Standard>, fillcolor="#a774ed"] ;
179 -> 191 ;
192 [label=<fixed acidity &le; 6.55<br/>entropy = 0.65<br/>samples = 54<br/>value = [9, 0, 45]<br/>class = Standard>, fillcolor="#9a61ea"] ;
191 -> 192 ;
193 [label=<entropy = 0.0<br/>samples = 17<br/>value = [0, 0, 17]<br/>class = Standard>, fillcolor="#8139e5"] ;
192 -> 193 ;
194 [label=<sulphates &le; 0.49<br/>entropy = 0.8<br/>samples = 37<br/>value = [9, 0, 28]<br/>class = Standard>, fillcolor="#aa79ed"] ;
192 -> 194 ;
195 [label=<entropy = 0.0<br/>samples = 2<br/>value = [2, 0, 0]<br/>class = High>, fillcolor="#e58139"] ;
194 -> 195 ;
196 [label=<residual sugar &le; 1.9<br/>entropy = 0.722<br/>samples = 35<br/>value = [7, 0, 28]<br/>class = Standard>, fillcolor="#a06aec"] ;
194 -> 196 ;
197 [label=<fixed acidity &le; 6.65<br/>entropy = 0.426<br/>samples = 23<br/>value = [2, 0, 21]<br/>class = Standard>, fillcolor="#8d4ce7"] ;
196 -> 197 ;
198 [label=<pH &le; 3.365<br/>entropy = 1.0<br/>samples = 4<br/>value = [2, 0, 2]<br/>class = High>, fillcolor="#ffffff"] ;
197 -> 198 ;
199 [label=<entropy = 0.0<br/>samples = 2<br/>value = [0, 0, 2]<br/>class = Standard>, fillcolor="#8139e5"] ;
198 -> 199 ;
200 [label=<entropy = 0.0<br/>samples = 2<br/>value = [2, 0, 0]<br/>class = High>, fillcolor="#e58139"] ;
198 -> 200 ;
201 [label=<entropy = 0.0<br/>samples = 19<br/>value = [0, 0, 19]<br/>class = Standard>, fillcolor="#8139e5"] ;
197 -> 201 ;
202 [label=<volatile acidity &le; 0.22<br/>entropy = 0.98<br/>samples = 12<br/>value = [5, 0, 7]<br/>class = Standard>, fillcolor="#dbc6f8"] ;
196 -> 202 ;
203 [label=<entropy = 0.0<br/>samples = 4<br/>value = [4, 0, 0]<br/>class = High>, fillcolor="#e58139"] ;
202 -> 203 ;
204 [label=<residual sugar &le; 2.15<br/>entropy = 0.544<br/>samples = 8<br/>value = [1, 0, 7]<br/>class = Standard>, fillcolor="#9355e9"] ;
202 -> 204 ;
205 [label=<entropy = 0.0<br/>samples = 1<br/>value = [1, 0, 0]<br/>class = High>, fillcolor="#e58139"] ;
204 -> 205 ;
206 [label=<entropy = 0.0<br/>samples = 7<br/>value = [0, 0, 7]<br/>class = Standard>, fillcolor="#8139e5"] ;
204 -> 206 ;
207 [label=<residual sugar &le; 1.5<br/>entropy = 0.863<br/>samples = 7<br/>value = [5, 0, 2]<br/>class = High>, fillcolor="#efb388"] ;
191 -> 207 ;
208 [label=<entropy = 0.0<br/>samples = 2<br/>value = [0, 0, 2]<br/>class = Standard>, fillcolor="#8139e5"] ;
207 -> 208 ;
209 [label=<entropy = 0.0<br/>samples = 5<br/>value = [5, 0, 0]<br/>class = High>, fillcolor="#e58139"] ;
207 -> 209 ;
210 [label=<citric acid &le; 0.285<br/>entropy = 1.011<br/>samples = 54<br/>value = [4, 9, 41]<br/>class = Standard>, fillcolor="#a572ed"] ;
178 -> 210 ;
211 [label=<chlorides &le; 0.042<br/>entropy = 1.423<br/>samples = 22<br/>value = [3, 8, 11]<br/>class = Standard>, fillcolor="#e4d5f9"] ;
210 -> 211 ;
212 [label=<citric acid &le; 0.225<br/>entropy = 0.918<br/>samples = 6<br/>value = [2, 4, 0]<br/>class = Low>, fillcolor="#9cf2c0"] ;
211 -> 212 ;
213 [label=<entropy = 0.0<br/>samples = 2<br/>value = [2, 0, 0]<br/>class = High>, fillcolor="#e58139"] ;
212 -> 213 ;
214 [label=<entropy = 0.0<br/>samples = 4<br/>value = [0, 4, 0]<br/>class = Low>, fillcolor="#39e581"] ;
212 -> 214 ;
215 [label=<total sulfur dioxide &le; 93.0<br/>entropy = 1.122<br/>samples = 16<br/>value = [1, 4, 11]<br/>class = Standard>, fillcolor="#b68cf0"] ;
211 -> 215 ;
216 [label=<entropy = 0.0<br/>samples = 3<br/>value = [0, 3, 0]<br/>class = Low>, fillcolor="#39e581"] ;
215 -> 216 ;
217 [label=<pH &le; 3.025<br/>entropy = 0.773<br/>samples = 13<br/>value = [1, 1, 11]<br/>class = Standard>, fillcolor="#965ae9"] ;
215 -> 217 ;
218 [label=<entropy = 0.0<br/>samples = 1<br/>value = [1, 0, 0]<br/>class = High>, fillcolor="#e58139"] ;
217 -> 218 ;
219 [label=<density &le; 0.996<br/>entropy = 0.414<br/>samples = 12<br/>value = [0, 1, 11]<br/>class = Standard>, fillcolor="#8c4be7"] ;
217 -> 219 ;
220 [label=<entropy = 0.0<br/>samples = 11<br/>value = [0, 0, 11]<br/>class = Standard>, fillcolor="#8139e5"] ;
219 -> 220 ;
221 [label=<entropy = 0.0<br/>samples = 1<br/>value = [0, 1, 0]<br/>class = Low>, fillcolor="#39e581"] ;
219 -> 221 ;
222 [label=<free sulfur dioxide &le; 46.0<br/>entropy = 0.4<br/>samples = 32<br/>value = [1, 1, 30]<br/>class = Standard>, fillcolor="#8946e7"] ;
210 -> 222 ;
223 [label=<fixed acidity &le; 8.9<br/>entropy = 0.206<br/>samples = 31<br/>value = [0, 1, 30]<br/>class = Standard>, fillcolor="#8540e6"] ;
222 -> 223 ;
224 [label=<entropy = 0.0<br/>samples = 28<br/>value = [0, 0, 28]<br/>class = Standard>, fillcolor="#8139e5"] ;
223 -> 224 ;
225 [label=<residual sugar &le; 2.3<br/>entropy = 0.918<br/>samples = 3<br/>value = [0, 1, 2]<br/>class = Standard>, fillcolor="#c09cf2"] ;
223 -> 225 ;
226 [label=<entropy = 0.0<br/>samples = 2<br/>value = [0, 0, 2]<br/>class = Standard>, fillcolor="#8139e5"] ;
225 -> 226 ;
227 [label=<entropy = 0.0<br/>samples = 1<br/>value = [0, 1, 0]<br/>class = Low>, fillcolor="#39e581"] ;
225 -> 227 ;
228 [label=<entropy = 0.0<br/>samples = 1<br/>value = [1, 0, 0]<br/>class = High>, fillcolor="#e58139"] ;
222 -> 228 ;
229 [label=<chlorides &le; 0.038<br/>entropy = 0.993<br/>samples = 31<br/>value = [14, 0, 17]<br/>class = Standard>, fillcolor="#e9dcfa"] ;
177 -> 229 ;
230 [label=<total sulfur dioxide &le; 104.0<br/>entropy = 0.684<br/>samples = 11<br/>value = [9, 0, 2]<br/>class = High>, fillcolor="#eb9d65"] ;
229 -> 230 ;
231 [label=<entropy = 0.0<br/>samples = 2<br/>value = [0, 0, 2]<br/>class = Standard>, fillcolor="#8139e5"] ;
230 -> 231 ;
232 [label=<entropy = 0.0<br/>samples = 9<br/>value = [9, 0, 0]<br/>class = High>, fillcolor="#e58139"] ;
230 -> 232 ;
233 [label=<total sulfur dioxide &le; 98.0<br/>entropy = 0.811<br/>samples = 20<br/>value = [5, 0, 15]<br/>class = Standard>, fillcolor="#ab7bee"] ;
229 -> 233 ;
234 [label=<entropy = 0.0<br/>samples = 3<br/>value = [3, 0, 0]<br/>class = High>, fillcolor="#e58139"] ;
233 -> 234 ;
235 [label=<residual sugar &le; 5.2<br/>entropy = 0.523<br/>samples = 17<br/>value = [2, 0, 15]<br/>class = Standard>, fillcolor="#9253e8"] ;
233 -> 235 ;
236 [label=<citric acid &le; 0.445<br/>entropy = 0.337<br/>samples = 16<br/>value = [1, 0, 15]<br/>class = Standard>, fillcolor="#8946e7"] ;
235 -> 236 ;
237 [label=<entropy = 0.0<br/>samples = 14<br/>value = [0, 0, 14]<br/>class = Standard>, fillcolor="#8139e5"] ;
236 -> 237 ;
238 [label=<total sulfur dioxide &le; 112.5<br/>entropy = 1.0<br/>samples = 2<br/>value = [1, 0, 1]<br/>class = High>, fillcolor="#ffffff"] ;
236 -> 238 ;
239 [label=<entropy = 0.0<br/>samples = 1<br/>value = [0, 0, 1]<br/>class = Standard>, fillcolor="#8139e5"] ;
238 -> 239 ;
240 [label=<entropy = 0.0<br/>samples = 1<br/>value = [1, 0, 0]<br/>class = High>, fillcolor="#e58139"] ;
238 -> 240 ;
241 [label=<entropy = 0.0<br/>samples = 1<br/>value = [1, 0, 0]<br/>class = High>, fillcolor="#e58139"] ;
235 -> 241 ;
242 [label=<fixed acidity &le; 7.95<br/>entropy = 0.379<br/>samples = 320<br/>value = [19, 2, 299]<br/>class = Standard>, fillcolor="#8a47e7"] ;
176 -> 242 ;
243 [label=<sulphates &le; 0.465<br/>entropy = 0.307<br/>samples = 291<br/>value = [16, 0, 275]<br/>class = Standard>, fillcolor="#8845e7"] ;
242 -> 243 ;
244 [label=<pH &le; 3.405<br/>entropy = 0.067<br/>samples = 125<br/>value = [1, 0, 124]<br/>class = Standard>, fillcolor="#823be5"] ;
243 -> 244 ;
245 [label=<entropy = 0.0<br/>samples = 115<br/>value = [0, 0, 115]<br/>class = Standard>, fillcolor="#8139e5"] ;
244 -> 245 ;
246 [label=<pH &le; 3.415<br/>entropy = 0.469<br/>samples = 10<br/>value = [1, 0, 9]<br/>class = Standard>, fillcolor="#8f4fe8"] ;
244 -> 246 ;
247 [label=<entropy = 0.0<br/>samples = 1<br/>value = [1, 0, 0]<br/>class = High>, fillcolor="#e58139"] ;
246 -> 247 ;
248 [label=<entropy = 0.0<br/>samples = 9<br/>value = [0, 0, 9]<br/>class = Standard>, fillcolor="#8139e5"] ;
246 -> 248 ;
249 [label=<citric acid &le; 0.365<br/>entropy = 0.438<br/>samples = 166<br/>value = [15, 0, 151]<br/>class = Standard>, fillcolor="#8e4de8"] ;
243 -> 249 ;
250 [label=<chlorides &le; 0.045<br/>entropy = 0.272<br/>samples = 107<br/>value = [5, 0, 102]<br/>class = Standard>, fillcolor="#8743e6"] ;
249 -> 250 ;
251 [label=<pH &le; 3.425<br/>entropy = 0.475<br/>samples = 49<br/>value = [5, 0, 44]<br/>class = Standard>, fillcolor="#8f50e8"] ;
250 -> 251 ;
252 [label=<residual sugar &le; 11.65<br/>entropy = 0.342<br/>samples = 47<br/>value = [3.0, 0.0, 44.0]<br/>class = Standard>, fillcolor="#8a46e7"] ;
251 -> 252 ;
253 [label=<entropy = 0.0<br/>samples = 38<br/>value = [0, 0, 38]<br/>class = Standard>, fillcolor="#8139e5"] ;
252 -> 253 ;
254 [label=<free sulfur dioxide &le; 38.5<br/>entropy = 0.918<br/>samples = 9<br/>value = [3, 0, 6]<br/>class = Standard>, fillcolor="#c09cf2"] ;
252 -> 254 ;
255 [label=<entropy = 0.0<br/>samples = 4<br/>value = [0, 0, 4]<br/>class = Standard>, fillcolor="#8139e5"] ;
254 -> 255 ;
256 [label=<sulphates &le; 0.565<br/>entropy = 0.971<br/>samples = 5<br/>value = [3, 0, 2]<br/>class = High>, fillcolor="#f6d5bd"] ;
254 -> 256 ;
257 [label=<entropy = 0.0<br/>samples = 3<br/>value = [3, 0, 0]<br/>class = High>, fillcolor="#e58139"] ;
256 -> 257 ;
258 [label=<entropy = 0.0<br/>samples = 2<br/>value = [0, 0, 2]<br/>class = Standard>, fillcolor="#8139e5"] ;
256 -> 258 ;
259 [label=<entropy = 0.0<br/>samples = 2<br/>value = [2, 0, 0]<br/>class = High>, fillcolor="#e58139"] ;
251 -> 259 ;
260 [label=<entropy = 0.0<br/>samples = 58<br/>value = [0, 0, 58]<br/>class = Standard>, fillcolor="#8139e5"] ;
250 -> 260 ;
261 [label=<residual sugar &le; 13.55<br/>entropy = 0.657<br/>samples = 59<br/>value = [10, 0, 49]<br/>class = Standard>, fillcolor="#9b61ea"] ;
249 -> 261 ;
262 [label=<alcohol &le; 9.85<br/>entropy = 0.544<br/>samples = 56<br/>value = [7, 0, 49]<br/>class = Standard>, fillcolor="#9355e9"] ;
261 -> 262 ;
263 [label=<entropy = 0.0<br/>samples = 27<br/>value = [0, 0, 27]<br/>class = Standard>, fillcolor="#8139e5"] ;
262 -> 263 ;
264 [label=<residual sugar &le; 6.75<br/>entropy = 0.797<br/>samples = 29<br/>value = [7, 0, 22]<br/>class = Standard>, fillcolor="#a978ed"] ;
262 -> 264 ;
265 [label=<entropy = 0.0<br/>samples = 11<br/>value = [0, 0, 11]<br/>class = Standard>, fillcolor="#8139e5"] ;
264 -> 265 ;
266 [label=<alcohol &le; 10.45<br/>entropy = 0.964<br/>samples = 18<br/>value = [7, 0, 11]<br/>class = Standard>, fillcolor="#d1b7f6"] ;
264 -> 266 ;
267 [label=<residual sugar &le; 7.2<br/>entropy = 0.837<br/>samples = 15<br/>value = [4, 0, 11]<br/>class = Standard>, fillcolor="#af81ee"] ;
266 -> 267 ;
268 [label=<entropy = 0.0<br/>samples = 4<br/>value = [0, 0, 4]<br/>class = Standard>, fillcolor="#8139e5"] ;
267 -> 268 ;
269 [label=<density &le; 0.995<br/>entropy = 0.946<br/>samples = 11<br/>value = [4, 0, 7]<br/>class = Standard>, fillcolor="#c9aaf4"] ;
267 -> 269 ;
270 [label=<entropy = 0.0<br/>samples = 2<br/>value = [2, 0, 0]<br/>class = High>, fillcolor="#e58139"] ;
269 -> 270 ;
271 [label=<volatile acidity &le; 0.225<br/>entropy = 0.764<br/>samples = 9<br/>value = [2, 0, 7]<br/>class = Standard>, fillcolor="#a572ec"] ;
269 -> 271 ;
272 [label=<sulphates &le; 0.53<br/>entropy = 1.0<br/>samples = 4<br/>value = [2, 0, 2]<br/>class = High>, fillcolor="#ffffff"] ;
271 -> 272 ;
273 [label=<entropy = 0.0<br/>samples = 2<br/>value = [0, 0, 2]<br/>class = Standard>, fillcolor="#8139e5"] ;
272 -> 273 ;
274 [label=<entropy = 0.0<br/>samples = 2<br/>value = [2, 0, 0]<br/>class = High>, fillcolor="#e58139"] ;
272 -> 274 ;
275 [label=<entropy = 0.0<br/>samples = 5<br/>value = [0, 0, 5]<br/>class = Standard>, fillcolor="#8139e5"] ;
271 -> 275 ;
276 [label=<entropy = 0.0<br/>samples = 3<br/>value = [3, 0, 0]<br/>class = High>, fillcolor="#e58139"] ;
266 -> 276 ;
277 [label=<entropy = 0.0<br/>samples = 3<br/>value = [3, 0, 0]<br/>class = High>, fillcolor="#e58139"] ;
261 -> 277 ;
278 [label=<chlorides &le; 0.054<br/>entropy = 0.831<br/>samples = 29<br/>value = [3, 2, 24]<br/>class = Standard>, fillcolor="#995fea"] ;
242 -> 278 ;
279 [label=<density &le; 0.995<br/>entropy = 0.503<br/>samples = 27<br/>value = [3, 0, 24]<br/>class = Standard>, fillcolor="#9152e8"] ;
278 -> 279 ;
280 [label=<total sulfur dioxide &le; 107.5<br/>entropy = 1.0<br/>samples = 4<br/>value = [2, 0, 2]<br/>class = High>, fillcolor="#ffffff"] ;
279 -> 280 ;
281 [label=<entropy = 0.0<br/>samples = 2<br/>value = [2, 0, 0]<br/>class = High>, fillcolor="#e58139"] ;
280 -> 281 ;
282 [label=<entropy = 0.0<br/>samples = 2<br/>value = [0, 0, 2]<br/>class = Standard>, fillcolor="#8139e5"] ;
280 -> 282 ;
283 [label=<sulphates &le; 0.555<br/>entropy = 0.258<br/>samples = 23<br/>value = [1, 0, 22]<br/>class = Standard>, fillcolor="#8742e6"] ;
279 -> 283 ;
284 [label=<entropy = 0.0<br/>samples = 18<br/>value = [0, 0, 18]<br/>class = Standard>, fillcolor="#8139e5"] ;
283 -> 284 ;
285 [label=<residual sugar &le; 8.7<br/>entropy = 0.722<br/>samples = 5<br/>value = [1, 0, 4]<br/>class = Standard>, fillcolor="#a06aec"] ;
283 -> 285 ;
286 [label=<entropy = 0.0<br/>samples = 4<br/>value = [0, 0, 4]<br/>class = Standard>, fillcolor="#8139e5"] ;
285 -> 286 ;
287 [label=<entropy = 0.0<br/>samples = 1<br/>value = [1, 0, 0]<br/>class = High>, fillcolor="#e58139"] ;
285 -> 287 ;
288 [label=<entropy = 0.0<br/>samples = 2<br/>value = [0, 2, 0]<br/>class = Low>, fillcolor="#39e581"] ;
278 -> 288 ;
289 [label=<free sulfur dioxide &le; 33.5<br/>entropy = 1.192<br/>samples = 46<br/>value = [18.0, 2.0, 26.0]<br/>class = Standard>, fillcolor="#dbc6f8"] ;
175 -> 289 ;
290 [label=<fixed acidity &le; 7.55<br/>entropy = 0.684<br/>samples = 11<br/>value = [0, 2, 9]<br/>class = Standard>, fillcolor="#9d65eb"] ;
289 -> 290 ;
291 [label=<entropy = 0.0<br/>samples = 7<br/>value = [0, 0, 7]<br/>class = Standard>, fillcolor="#8139e5"] ;
290 -> 291 ;
292 [label=<volatile acidity &le; 0.225<br/>entropy = 1.0<br/>samples = 4<br/>value = [0, 2, 2]<br/>class = Low>, fillcolor="#ffffff"] ;
290 -> 292 ;
293 [label=<entropy = 0.0<br/>samples = 2<br/>value = [0, 0, 2]<br/>class = Standard>, fillcolor="#8139e5"] ;
292 -> 293 ;
294 [label=<entropy = 0.0<br/>samples = 2<br/>value = [0, 2, 0]<br/>class = Low>, fillcolor="#39e581"] ;
292 -> 294 ;
295 [label=<alcohol &le; 9.15<br/>entropy = 0.999<br/>samples = 35<br/>value = [18, 0, 17]<br/>class = High>, fillcolor="#fef8f4"] ;
289 -> 295 ;
296 [label=<citric acid &le; 0.27<br/>entropy = 0.871<br/>samples = 24<br/>value = [17, 0, 7]<br/>class = High>, fillcolor="#f0b58b"] ;
295 -> 296 ;
297 [label=<entropy = 0.0<br/>samples = 3<br/>value = [0, 0, 3]<br/>class = Standard>, fillcolor="#8139e5"] ;
296 -> 297 ;
298 [label=<free sulfur dioxide &le; 55.5<br/>entropy = 0.702<br/>samples = 21<br/>value = [17, 0, 4]<br/>class = High>, fillcolor="#eb9f68"] ;
296 -> 298 ;
299 [label=<pH &le; 3.03<br/>entropy = 0.323<br/>samples = 17<br/>value = [16, 0, 1]<br/>class = High>, fillcolor="#e78945"] ;
298 -> 299 ;
300 [label=<entropy = 0.0<br/>samples = 1<br/>value = [0, 0, 1]<br/>class = Standard>, fillcolor="#8139e5"] ;
299 -> 300 ;
301 [label=<entropy = 0.0<br/>samples = 16<br/>value = [16, 0, 0]<br/>class = High>, fillcolor="#e58139"] ;
299 -> 301 ;
302 [label=<residual sugar &le; 13.95<br/>entropy = 0.811<br/>samples = 4<br/>value = [1, 0, 3]<br/>class = Standard>, fillcolor="#ab7bee"] ;
298 -> 302 ;
303 [label=<entropy = 0.0<br/>samples = 3<br/>value = [0, 0, 3]<br/>class = Standard>, fillcolor="#8139e5"] ;
302 -> 303 ;
304 [label=<entropy = 0.0<br/>samples = 1<br/>value = [1, 0, 0]<br/>class = High>, fillcolor="#e58139"] ;
302 -> 304 ;
305 [label=<residual sugar &le; 14.8<br/>entropy = 0.439<br/>samples = 11<br/>value = [1, 0, 10]<br/>class = Standard>, fillcolor="#8e4de8"] ;
295 -> 305 ;
306 [label=<entropy = 0.0<br/>samples = 9<br/>value = [0, 0, 9]<br/>class = Standard>, fillcolor="#8139e5"] ;
305 -> 306 ;
307 [label=<free sulfur dioxide &le; 63.5<br/>entropy = 1.0<br/>samples = 2<br/>value = [1, 0, 1]<br/>class = High>, fillcolor="#ffffff"] ;
305 -> 307 ;
308 [label=<entropy = 0.0<br/>samples = 1<br/>value = [1, 0, 0]<br/>class = High>, fillcolor="#e58139"] ;
307 -> 308 ;
309 [label=<entropy = 0.0<br/>samples = 1<br/>value = [0, 0, 1]<br/>class = Standard>, fillcolor="#8139e5"] ;
307 -> 309 ;
310 [label=<entropy = 0.0<br/>samples = 88<br/>value = [0, 0, 88]<br/>class = Standard>, fillcolor="#8139e5"] ;
174 -> 310 ;
311 [label=<free sulfur dioxide &le; 15.5<br/>entropy = 0.58<br/>samples = 1449<br/>value = [53.0, 98.0, 1298.0]<br/>class = Standard>, fillcolor="#8f4fe8"] ;
1 -> 311 ;
312 [label=<free sulfur dioxide &le; 8.5<br/>entropy = 0.897<br/>samples = 174<br/>value = [3, 40, 131]<br/>class = Standard>, fillcolor="#a979ed"] ;
311 -> 312 ;
313 [label=<pH &le; 3.43<br/>entropy = 1.122<br/>samples = 47<br/>value = [1, 21, 25]<br/>class = Standard>, fillcolor="#ece1fb"] ;
312 -> 313 ;
314 [label=<fixed acidity &le; 8.05<br/>entropy = 0.991<br/>samples = 45<br/>value = [0, 20, 25]<br/>class = Standard>, fillcolor="#e6d7fa"] ;
313 -> 314 ;
315 [label=<volatile acidity &le; 0.365<br/>entropy = 0.965<br/>samples = 41<br/>value = [0, 16, 25]<br/>class = Standard>, fillcolor="#d2b8f6"] ;
314 -> 315 ;
316 [label=<chlorides &le; 0.052<br/>entropy = 0.779<br/>samples = 26<br/>value = [0, 6, 20]<br/>class = Standard>, fillcolor="#a774ed"] ;
315 -> 316 ;
317 [label=<volatile acidity &le; 0.275<br/>entropy = 0.503<br/>samples = 18<br/>value = [0, 2, 16]<br/>class = Standard>, fillcolor="#9152e8"] ;
316 -> 317 ;
318 [label=<total sulfur dioxide &le; 58.5<br/>entropy = 0.918<br/>samples = 3<br/>value = [0, 2, 1]<br/>class = Low>, fillcolor="#9cf2c0"] ;
317 -> 318 ;
319 [label=<entropy = 0.0<br/>samples = 1<br/>value = [0, 0, 1]<br/>class = Standard>, fillcolor="#8139e5"] ;
318 -> 319 ;
320 [label=<entropy = 0.0<br/>samples = 2<br/>value = [0, 2, 0]<br/>class = Low>, fillcolor="#39e581"] ;
318 -> 320 ;
321 [label=<entropy = 0.0<br/>samples = 15<br/>value = [0, 0, 15]<br/>class = Standard>, fillcolor="#8139e5"] ;
317 -> 321 ;
322 [label=<free sulfur dioxide &le; 6.5<br/>entropy = 1.0<br/>samples = 8<br/>value = [0, 4, 4]<br/>class = Low>, fillcolor="#ffffff"] ;
316 -> 322 ;
323 [label=<entropy = 0.0<br/>samples = 4<br/>value = [0, 0, 4]<br/>class = Standard>, fillcolor="#8139e5"] ;
322 -> 323 ;
324 [label=<entropy = 0.0<br/>samples = 4<br/>value = [0, 4, 0]<br/>class = Low>, fillcolor="#39e581"] ;
322 -> 324 ;
325 [label=<fixed acidity &le; 6.6<br/>entropy = 0.918<br/>samples = 15<br/>value = [0, 10, 5]<br/>class = Low>, fillcolor="#9cf2c0"] ;
315 -> 325 ;
326 [label=<entropy = 0.0<br/>samples = 6<br/>value = [0, 6, 0]<br/>class = Low>, fillcolor="#39e581"] ;
325 -> 326 ;
327 [label=<free sulfur dioxide &le; 7.5<br/>entropy = 0.991<br/>samples = 9<br/>value = [0, 4, 5]<br/>class = Standard>, fillcolor="#e6d7fa"] ;
325 -> 327 ;
328 [label=<total sulfur dioxide &le; 59.5<br/>entropy = 0.722<br/>samples = 5<br/>value = [0, 1, 4]<br/>class = Standard>, fillcolor="#a06aec"] ;
327 -> 328 ;
329 [label=<entropy = 0.0<br/>samples = 1<br/>value = [0, 1, 0]<br/>class = Low>, fillcolor="#39e581"] ;
328 -> 329 ;
330 [label=<entropy = 0.0<br/>samples = 4<br/>value = [0, 0, 4]<br/>class = Standard>, fillcolor="#8139e5"] ;
328 -> 330 ;
331 [label=<pH &le; 3.205<br/>entropy = 0.811<br/>samples = 4<br/>value = [0, 3, 1]<br/>class = Low>, fillcolor="#7beeab"] ;
327 -> 331 ;
332 [label=<entropy = 0.0<br/>samples = 3<br/>value = [0, 3, 0]<br/>class = Low>, fillcolor="#39e581"] ;
331 -> 332 ;
333 [label=<entropy = 0.0<br/>samples = 1<br/>value = [0, 0, 1]<br/>class = Standard>, fillcolor="#8139e5"] ;
331 -> 333 ;
334 [label=<entropy = 0.0<br/>samples = 4<br/>value = [0, 4, 0]<br/>class = Low>, fillcolor="#39e581"] ;
314 -> 334 ;
335 [label=<sulphates &le; 0.45<br/>entropy = 1.0<br/>samples = 2<br/>value = [1, 1, 0]<br/>class = High>, fillcolor="#ffffff"] ;
313 -> 335 ;
336 [label=<entropy = 0.0<br/>samples = 1<br/>value = [0, 1, 0]<br/>class = Low>, fillcolor="#39e581"] ;
335 -> 336 ;
337 [label=<entropy = 0.0<br/>samples = 1<br/>value = [1, 0, 0]<br/>class = High>, fillcolor="#e58139"] ;
335 -> 337 ;
338 [label=<fixed acidity &le; 6.05<br/>entropy = 0.722<br/>samples = 127<br/>value = [2, 19, 106]<br/>class = Standard>, fillcolor="#9a60ea"] ;
312 -> 338 ;
339 [label=<entropy = 0.0<br/>samples = 21<br/>value = [0, 0, 21]<br/>class = Standard>, fillcolor="#8139e5"] ;
338 -> 339 ;
340 [label=<pH &le; 3.31<br/>entropy = 0.808<br/>samples = 106<br/>value = [2, 19, 85]<br/>class = Standard>, fillcolor="#9f69eb"] ;
338 -> 340 ;
341 [label=<total sulfur dioxide &le; 119.5<br/>entropy = 0.637<br/>samples = 93<br/>value = [0, 15, 78]<br/>class = Standard>, fillcolor="#995fea"] ;
340 -> 341 ;
342 [label=<residual sugar &le; 1.5<br/>entropy = 0.804<br/>samples = 53<br/>value = [0, 13, 40]<br/>class = Standard>, fillcolor="#aa79ed"] ;
341 -> 342 ;
343 [label=<volatile acidity &le; 0.355<br/>entropy = 0.997<br/>samples = 15<br/>value = [0, 7, 8]<br/>class = Standard>, fillcolor="#efe6fc"] ;
342 -> 343 ;
344 [label=<free sulfur dioxide &le; 10.0<br/>entropy = 0.544<br/>samples = 8<br/>value = [0, 7, 1]<br/>class = Low>, fillcolor="#55e993"] ;
343 -> 344 ;
345 [label=<entropy = 0.0<br/>samples = 1<br/>value = [0, 0, 1]<br/>class = Standard>, fillcolor="#8139e5"] ;
344 -> 345 ;
346 [label=<entropy = 0.0<br/>samples = 7<br/>value = [0, 7, 0]<br/>class = Low>, fillcolor="#39e581"] ;
344 -> 346 ;
347 [label=<entropy = 0.0<br/>samples = 7<br/>value = [0, 0, 7]<br/>class = Standard>, fillcolor="#8139e5"] ;
343 -> 347 ;
348 [label=<alcohol &le; 10.75<br/>entropy = 0.629<br/>samples = 38<br/>value = [0, 6, 32]<br/>class = Standard>, fillcolor="#995eea"] ;
342 -> 348 ;
349 [label=<residual sugar &le; 6.3<br/>entropy = 0.503<br/>samples = 36<br/>value = [0, 4, 32]<br/>class = Standard>, fillcolor="#9152e8"] ;
348 -> 349 ;
350 [label=<entropy = 0.0<br/>samples = 22<br/>value = [0, 0, 22]<br/>class = Standard>, fillcolor="#8139e5"] ;
349 -> 350 ;
351 [label=<fixed acidity &le; 6.75<br/>entropy = 0.863<br/>samples = 14<br/>value = [0, 4, 10]<br/>class = Standard>, fillcolor="#b388ef"] ;
349 -> 351 ;
352 [label=<entropy = 0.0<br/>samples = 3<br/>value = [0, 3, 0]<br/>class = Low>, fillcolor="#39e581"] ;
351 -> 352 ;
353 [label=<total sulfur dioxide &le; 74.5<br/>entropy = 0.439<br/>samples = 11<br/>value = [0, 1, 10]<br/>class = Standard>, fillcolor="#8e4de8"] ;
351 -> 353 ;
354 [label=<entropy = 0.0<br/>samples = 1<br/>value = [0, 1, 0]<br/>class = Low>, fillcolor="#39e581"] ;
353 -> 354 ;
355 [label=<entropy = 0.0<br/>samples = 10<br/>value = [0, 0, 10]<br/>class = Standard>, fillcolor="#8139e5"] ;
353 -> 355 ;
356 [label=<entropy = 0.0<br/>samples = 2<br/>value = [0, 2, 0]<br/>class = Low>, fillcolor="#39e581"] ;
348 -> 356 ;
357 [label=<residual sugar &le; 4.4<br/>entropy = 0.286<br/>samples = 40<br/>value = [0, 2, 38]<br/>class = Standard>, fillcolor="#8843e6"] ;
341 -> 357 ;
358 [label=<entropy = 0.0<br/>samples = 34<br/>value = [0, 0, 34]<br/>class = Standard>, fillcolor="#8139e5"] ;
357 -> 358 ;
359 [label=<pH &le; 3.15<br/>entropy = 0.918<br/>samples = 6<br/>value = [0, 2, 4]<br/>class = Standard>, fillcolor="#c09cf2"] ;
357 -> 359 ;
360 [label=<entropy = 0.0<br/>samples = 4<br/>value = [0, 0, 4]<br/>class = Standard>, fillcolor="#8139e5"] ;
359 -> 360 ;
361 [label=<entropy = 0.0<br/>samples = 2<br/>value = [0, 2, 0]<br/>class = Low>, fillcolor="#39e581"] ;
359 -> 361 ;
362 [label=<citric acid &le; 0.285<br/>entropy = 1.42<br/>samples = 13<br/>value = [2, 4, 7]<br/>class = Standard>, fillcolor="#d5bdf6"] ;
340 -> 362 ;
363 [label=<residual sugar &le; 1.65<br/>entropy = 0.971<br/>samples = 5<br/>value = [2, 3, 0]<br/>class = Low>, fillcolor="#bdf6d5"] ;
362 -> 363 ;
364 [label=<entropy = 0.0<br/>samples = 2<br/>value = [2, 0, 0]<br/>class = High>, fillcolor="#e58139"] ;
363 -> 364 ;
365 [label=<entropy = 0.0<br/>samples = 3<br/>value = [0, 3, 0]<br/>class = Low>, fillcolor="#39e581"] ;
363 -> 365 ;
366 [label=<sulphates &le; 0.45<br/>entropy = 0.544<br/>samples = 8<br/>value = [0, 1, 7]<br/>class = Standard>, fillcolor="#9355e9"] ;
362 -> 366 ;
367 [label=<entropy = 0.0<br/>samples = 1<br/>value = [0, 1, 0]<br/>class = Low>, fillcolor="#39e581"] ;
366 -> 367 ;
368 [label=<entropy = 0.0<br/>samples = 7<br/>value = [0, 0, 7]<br/>class = Standard>, fillcolor="#8139e5"] ;
366 -> 368 ;
369 [label=<pH &le; 3.345<br/>entropy = 0.503<br/>samples = 1275<br/>value = [50.0, 58.0, 1167.0]<br/>class = Standard>, fillcolor="#8c4be7"] ;
311 -> 369 ;
370 [label=<volatile acidity &le; 0.475<br/>entropy = 0.408<br/>samples = 1142<br/>value = [27.0, 47.0, 1068.0]<br/>class = Standard>, fillcolor="#8a46e7"] ;
369 -> 370 ;
371 [label=<sulphates &le; 0.515<br/>entropy = 0.353<br/>samples = 1052<br/>value = [27, 29, 996]<br/>class = Standard>, fillcolor="#8844e6"] ;
370 -> 371 ;
372 [label=<chlorides &le; 0.036<br/>entropy = 0.242<br/>samples = 683<br/>value = [7, 16, 660]<br/>class = Standard>, fillcolor="#8540e6"] ;
371 -> 372 ;
373 [label=<pH &le; 3.155<br/>entropy = 0.284<br/>samples = 81<br/>value = [4, 0, 77]<br/>class = Standard>, fillcolor="#8843e6"] ;
372 -> 373 ;
374 [label=<entropy = 0.0<br/>samples = 52<br/>value = [0, 0, 52]<br/>class = Standard>, fillcolor="#8139e5"] ;
373 -> 374 ;
375 [label=<fixed acidity &le; 7.4<br/>entropy = 0.579<br/>samples = 29<br/>value = [4, 0, 25]<br/>class = Standard>, fillcolor="#9559e9"] ;
373 -> 375 ;
376 [label=<chlorides &le; 0.035<br/>entropy = 0.235<br/>samples = 26<br/>value = [1, 0, 25]<br/>class = Standard>, fillcolor="#8641e6"] ;
375 -> 376 ;
377 [label=<entropy = 0.0<br/>samples = 21<br/>value = [0, 0, 21]<br/>class = Standard>, fillcolor="#8139e5"] ;
376 -> 377 ;
378 [label=<pH &le; 3.205<br/>entropy = 0.722<br/>samples = 5<br/>value = [1, 0, 4]<br/>class = Standard>, fillcolor="#a06aec"] ;
376 -> 378 ;
379 [label=<entropy = 0.0<br/>samples = 1<br/>value = [1, 0, 0]<br/>class = High>, fillcolor="#e58139"] ;
378 -> 379 ;
380 [label=<entropy = 0.0<br/>samples = 4<br/>value = [0, 0, 4]<br/>class = Standard>, fillcolor="#8139e5"] ;
378 -> 380 ;
381 [label=<entropy = 0.0<br/>samples = 3<br/>value = [3, 0, 0]<br/>class = High>, fillcolor="#e58139"] ;
375 -> 381 ;
382 [label=<density &le; 0.998<br/>entropy = 0.222<br/>samples = 602<br/>value = [3, 16, 583]<br/>class = Standard>, fillcolor="#853fe6"] ;
372 -> 382 ;
383 [label=<total sulfur dioxide &le; 126.5<br/>entropy = 0.127<br/>samples = 443<br/>value = [1.0, 6.0, 436.0]<br/>class = Standard>, fillcolor="#833ce5"] ;
382 -> 383 ;
384 [label=<volatile acidity &le; 0.375<br/>entropy = 0.421<br/>samples = 83<br/>value = [1, 5, 77]<br/>class = Standard>, fillcolor="#8b48e7"] ;
383 -> 384 ;
385 [label=<total sulfur dioxide &le; 125.5<br/>entropy = 0.221<br/>samples = 68<br/>value = [1, 1, 66]<br/>class = Standard>, fillcolor="#853fe6"] ;
384 -> 385 ;
386 [label=<alcohol &le; 10.7<br/>entropy = 0.113<br/>samples = 66<br/>value = [0, 1, 65]<br/>class = Standard>, fillcolor="#833ce5"] ;
385 -> 386 ;
387 [label=<entropy = 0.0<br/>samples = 63<br/>value = [0, 0, 63]<br/>class = Standard>, fillcolor="#8139e5"] ;
386 -> 387 ;
388 [label=<fixed acidity &le; 7.2<br/>entropy = 0.918<br/>samples = 3<br/>value = [0, 1, 2]<br/>class = Standard>, fillcolor="#c09cf2"] ;
386 -> 388 ;
389 [label=<entropy = 0.0<br/>samples = 1<br/>value = [0, 1, 0]<br/>class = Low>, fillcolor="#39e581"] ;
388 -> 389 ;
390 [label=<entropy = 0.0<br/>samples = 2<br/>value = [0, 0, 2]<br/>class = Standard>, fillcolor="#8139e5"] ;
388 -> 390 ;
391 [label=<residual sugar &le; 3.35<br/>entropy = 1.0<br/>samples = 2<br/>value = [1, 0, 1]<br/>class = High>, fillcolor="#ffffff"] ;
385 -> 391 ;
392 [label=<entropy = 0.0<br/>samples = 1<br/>value = [0, 0, 1]<br/>class = Standard>, fillcolor="#8139e5"] ;
391 -> 392 ;
393 [label=<entropy = 0.0<br/>samples = 1<br/>value = [1, 0, 0]<br/>class = High>, fillcolor="#e58139"] ;
391 -> 393 ;
394 [label=<citric acid &le; 0.315<br/>entropy = 0.837<br/>samples = 15<br/>value = [0, 4, 11]<br/>class = Standard>, fillcolor="#af81ee"] ;
384 -> 394 ;
395 [label=<residual sugar &le; 4.25<br/>entropy = 0.619<br/>samples = 13<br/>value = [0, 2, 11]<br/>class = Standard>, fillcolor="#985dea"] ;
394 -> 395 ;
396 [label=<citric acid &le; 0.245<br/>entropy = 0.918<br/>samples = 3<br/>value = [0, 2, 1]<br/>class = Low>, fillcolor="#9cf2c0"] ;
395 -> 396 ;
397 [label=<entropy = 0.0<br/>samples = 2<br/>value = [0, 2, 0]<br/>class = Low>, fillcolor="#39e581"] ;
396 -> 397 ;
398 [label=<entropy = 0.0<br/>samples = 1<br/>value = [0, 0, 1]<br/>class = Standard>, fillcolor="#8139e5"] ;
396 -> 398 ;
399 [label=<entropy = 0.0<br/>samples = 10<br/>value = [0, 0, 10]<br/>class = Standard>, fillcolor="#8139e5"] ;
395 -> 399 ;
400 [label=<entropy = 0.0<br/>samples = 2<br/>value = [0, 2, 0]<br/>class = Low>, fillcolor="#39e581"] ;
394 -> 400 ;
401 [label=<free sulfur dioxide &le; 110.25<br/>entropy = 0.028<br/>samples = 360<br/>value = [0, 1, 359]<br/>class = Standard>, fillcolor="#813ae5"] ;
383 -> 401 ;
402 [label=<entropy = 0.0<br/>samples = 359<br/>value = [0, 0, 359]<br/>class = Standard>, fillcolor="#8139e5"] ;
401 -> 402 ;
403 [label=<entropy = 0.0<br/>samples = 1<br/>value = [0, 1, 0]<br/>class = Low>, fillcolor="#39e581"] ;
401 -> 403 ;
404 [label=<free sulfur dioxide &le; 21.5<br/>entropy = 0.435<br/>samples = 159<br/>value = [2, 10, 147]<br/>class = Standard>, fillcolor="#8b49e7"] ;
382 -> 404 ;
405 [label=<entropy = 0.0<br/>samples = 2<br/>value = [0, 2, 0]<br/>class = Low>, fillcolor="#39e581"] ;
404 -> 405 ;
406 [label=<volatile acidity &le; 0.265<br/>entropy = 0.388<br/>samples = 157<br/>value = [2, 8, 147]<br/>class = Standard>, fillcolor="#8946e7"] ;
404 -> 406 ;
407 [label=<residual sugar &le; 12.25<br/>entropy = 0.803<br/>samples = 18<br/>value = [2, 1, 15]<br/>class = Standard>, fillcolor="#995eea"] ;
406 -> 407 ;
408 [label=<residual sugar &le; 11.45<br/>entropy = 1.0<br/>samples = 2<br/>value = [1, 1, 0]<br/>class = High>, fillcolor="#ffffff"] ;
407 -> 408 ;
409 [label=<entropy = 0.0<br/>samples = 1<br/>value = [1, 0, 0]<br/>class = High>, fillcolor="#e58139"] ;
408 -> 409 ;
410 [label=<entropy = 0.0<br/>samples = 1<br/>value = [0, 1, 0]<br/>class = Low>, fillcolor="#39e581"] ;
408 -> 410 ;
411 [label=<total sulfur dioxide &le; 187.0<br/>entropy = 0.337<br/>samples = 16<br/>value = [1, 0, 15]<br/>class = Standard>, fillcolor="#8946e7"] ;
407 -> 411 ;
412 [label=<entropy = 0.0<br/>samples = 15<br/>value = [0, 0, 15]<br/>class = Standard>, fillcolor="#8139e5"] ;
411 -> 412 ;
413 [label=<entropy = 0.0<br/>samples = 1<br/>value = [1, 0, 0]<br/>class = High>, fillcolor="#e58139"] ;
411 -> 413 ;
414 [label=<residual sugar &le; 14.95<br/>entropy = 0.288<br/>samples = 139<br/>value = [0, 7, 132]<br/>class = Standard>, fillcolor="#8844e6"] ;
406 -> 414 ;
415 [label=<total sulfur dioxide &le; 193.5<br/>entropy = 0.404<br/>samples = 87<br/>value = [0, 7, 80]<br/>class = Standard>, fillcolor="#8c4ae7"] ;
414 -> 415 ;
416 [label=<fixed acidity &le; 6.6<br/>entropy = 0.556<br/>samples = 54<br/>value = [0, 7, 47]<br/>class = Standard>, fillcolor="#9456e9"] ;
415 -> 416 ;
417 [label=<entropy = 0.0<br/>samples = 3<br/>value = [0, 3, 0]<br/>class = Low>, fillcolor="#39e581"] ;
416 -> 417 ;
418 [label=<total sulfur dioxide &le; 192.5<br/>entropy = 0.397<br/>samples = 51<br/>value = [0, 4, 47]<br/>class = Standard>, fillcolor="#8c4ae7"] ;
416 -> 418 ;
419 [label=<fixed acidity &le; 8.85<br/>entropy = 0.327<br/>samples = 50<br/>value = [0, 3, 47]<br/>class = Standard>, fillcolor="#8946e7"] ;
418 -> 419 ;
420 [label=<total sulfur dioxide &le; 178.5<br/>entropy = 0.246<br/>samples = 49<br/>value = [0.0, 2.0, 47.0]<br/>class = Standard>, fillcolor="#8641e6"] ;
419 -> 420 ;
421 [label=<entropy = 0.0<br/>samples = 38<br/>value = [0, 0, 38]<br/>class = Standard>, fillcolor="#8139e5"] ;
420 -> 421 ;
422 [label=<citric acid &le; 0.615<br/>entropy = 0.684<br/>samples = 11<br/>value = [0, 2, 9]<br/>class = Standard>, fillcolor="#9d65eb"] ;
420 -> 422 ;
423 [label=<entropy = 0.0<br/>samples = 7<br/>value = [0, 0, 7]<br/>class = Standard>, fillcolor="#8139e5"] ;
422 -> 423 ;
424 [label=<sulphates &le; 0.43<br/>entropy = 1.0<br/>samples = 4<br/>value = [0, 2, 2]<br/>class = Low>, fillcolor="#ffffff"] ;
422 -> 424 ;
425 [label=<entropy = 0.0<br/>samples = 2<br/>value = [0, 0, 2]<br/>class = Standard>, fillcolor="#8139e5"] ;
424 -> 425 ;
426 [label=<entropy = 0.0<br/>samples = 2<br/>value = [0, 2, 0]<br/>class = Low>, fillcolor="#39e581"] ;
424 -> 426 ;
427 [label=<entropy = 0.0<br/>samples = 1<br/>value = [0, 1, 0]<br/>class = Low>, fillcolor="#39e581"] ;
419 -> 427 ;
428 [label=<entropy = 0.0<br/>samples = 1<br/>value = [0, 1, 0]<br/>class = Low>, fillcolor="#39e581"] ;
418 -> 428 ;
429 [label=<entropy = 0.0<br/>samples = 33<br/>value = [0, 0, 33]<br/>class = Standard>, fillcolor="#8139e5"] ;
415 -> 429 ;
430 [label=<entropy = 0.0<br/>samples = 52<br/>value = [0, 0, 52]<br/>class = Standard>, fillcolor="#8139e5"] ;
414 -> 430 ;
431 [label=<volatile acidity &le; 0.305<br/>entropy = 0.521<br/>samples = 369<br/>value = [20.0, 13.0, 336.0]<br/>class = Standard>, fillcolor="#8d4ce7"] ;
371 -> 431 ;
432 [label=<chlorides &le; 0.046<br/>entropy = 0.81<br/>samples = 156<br/>value = [16, 10, 130]<br/>class = Standard>, fillcolor="#985eea"] ;
431 -> 432 ;
433 [label=<total sulfur dioxide &le; 192.5<br/>entropy = 0.544<br/>samples = 80<br/>value = [10, 0, 70]<br/>class = Standard>, fillcolor="#9355e9"] ;
432 -> 433 ;
434 [label=<sulphates &le; 0.555<br/>entropy = 0.714<br/>samples = 51<br/>value = [10, 0, 41]<br/>class = Standard>, fillcolor="#a069eb"] ;
433 -> 434 ;
435 [label=<entropy = 0.0<br/>samples = 15<br/>value = [0, 0, 15]<br/>class = Standard>, fillcolor="#8139e5"] ;
434 -> 435 ;
436 [label=<sulphates &le; 0.635<br/>entropy = 0.852<br/>samples = 36<br/>value = [10, 0, 26]<br/>class = Standard>, fillcolor="#b185ef"] ;
434 -> 436 ;
437 [label=<free sulfur dioxide &le; 33.5<br/>entropy = 0.991<br/>samples = 18<br/>value = [8, 0, 10]<br/>class = Standard>, fillcolor="#e6d7fa"] ;
436 -> 437 ;
438 [label=<entropy = 0.0<br/>samples = 5<br/>value = [0, 0, 5]<br/>class = Standard>, fillcolor="#8139e5"] ;
437 -> 438 ;
439 [label=<fixed acidity &le; 6.95<br/>entropy = 0.961<br/>samples = 13<br/>value = [8, 0, 5]<br/>class = High>, fillcolor="#f5d0b5"] ;
437 -> 439 ;
440 [label=<residual sugar &le; 7.45<br/>entropy = 0.954<br/>samples = 8<br/>value = [3, 0, 5]<br/>class = Standard>, fillcolor="#cdb0f5"] ;
439 -> 440 ;
441 [label=<entropy = 0.0<br/>samples = 3<br/>value = [3, 0, 0]<br/>class = High>, fillcolor="#e58139"] ;
440 -> 441 ;
442 [label=<entropy = 0.0<br/>samples = 5<br/>value = [0, 0, 5]<br/>class = Standard>, fillcolor="#8139e5"] ;
440 -> 442 ;
443 [label=<entropy = 0.0<br/>samples = 5<br/>value = [5, 0, 0]<br/>class = High>, fillcolor="#e58139"] ;
439 -> 443 ;
444 [label=<sulphates &le; 0.73<br/>entropy = 0.503<br/>samples = 18<br/>value = [2, 0, 16]<br/>class = Standard>, fillcolor="#9152e8"] ;
436 -> 444 ;
445 [label=<entropy = 0.0<br/>samples = 13<br/>value = [0, 0, 13]<br/>class = Standard>, fillcolor="#8139e5"] ;
444 -> 445 ;
446 [label=<pH &le; 3.29<br/>entropy = 0.971<br/>samples = 5<br/>value = [2, 0, 3]<br/>class = Standard>, fillcolor="#d5bdf6"] ;
444 -> 446 ;
447 [label=<entropy = 0.0<br/>samples = 2<br/>value = [2, 0, 0]<br/>class = High>, fillcolor="#e58139"] ;
446 -> 447 ;
448 [label=<entropy = 0.0<br/>samples = 3<br/>value = [0, 0, 3]<br/>class = Standard>, fillcolor="#8139e5"] ;
446 -> 448 ;
449 [label=<entropy = 0.0<br/>samples = 29<br/>value = [0, 0, 29]<br/>class = Standard>, fillcolor="#8139e5"] ;
433 -> 449 ;
450 [label=<residual sugar &le; 12.1<br/>entropy = 0.943<br/>samples = 76<br/>value = [6, 10, 60]<br/>class = Standard>, fillcolor="#a069eb"] ;
432 -> 450 ;
451 [label=<sulphates &le; 0.575<br/>entropy = 0.585<br/>samples = 57<br/>value = [0, 8, 49]<br/>class = Standard>, fillcolor="#9659e9"] ;
450 -> 451 ;
452 [label=<sulphates &le; 0.535<br/>entropy = 0.855<br/>samples = 25<br/>value = [0.0, 7.0, 18.0]<br/>class = Standard>, fillcolor="#b286ef"] ;
451 -> 452 ;
453 [label=<entropy = 0.0<br/>samples = 10<br/>value = [0, 0, 10]<br/>class = Standard>, fillcolor="#8139e5"] ;
452 -> 453 ;
454 [label=<fixed acidity &le; 7.1<br/>entropy = 0.997<br/>samples = 15<br/>value = [0, 7, 8]<br/>class = Standard>, fillcolor="#efe6fc"] ;
452 -> 454 ;
455 [label=<free sulfur dioxide &le; 35.5<br/>entropy = 0.946<br/>samples = 11<br/>value = [0, 7, 4]<br/>class = Low>, fillcolor="#aaf4c9"] ;
454 -> 455 ;
456 [label=<entropy = 0.0<br/>samples = 4<br/>value = [0, 4, 0]<br/>class = Low>, fillcolor="#39e581"] ;
455 -> 456 ;
457 [label=<fixed acidity &le; 6.55<br/>entropy = 0.985<br/>samples = 7<br/>value = [0, 3, 4]<br/>class = Standard>, fillcolor="#e0cef8"] ;
455 -> 457 ;
458 [label=<density &le; 0.997<br/>entropy = 0.811<br/>samples = 4<br/>value = [0, 3, 1]<br/>class = Low>, fillcolor="#7beeab"] ;
457 -> 458 ;
459 [label=<entropy = 0.0<br/>samples = 3<br/>value = [0, 3, 0]<br/>class = Low>, fillcolor="#39e581"] ;
458 -> 459 ;
460 [label=<entropy = 0.0<br/>samples = 1<br/>value = [0, 0, 1]<br/>class = Standard>, fillcolor="#8139e5"] ;
458 -> 460 ;
461 [label=<entropy = 0.0<br/>samples = 3<br/>value = [0, 0, 3]<br/>class = Standard>, fillcolor="#8139e5"] ;
457 -> 461 ;
462 [label=<entropy = 0.0<br/>samples = 4<br/>value = [0, 0, 4]<br/>class = Standard>, fillcolor="#8139e5"] ;
454 -> 462 ;
463 [label=<fixed acidity &le; 9.3<br/>entropy = 0.201<br/>samples = 32<br/>value = [0, 1, 31]<br/>class = Standard>, fillcolor="#853fe6"] ;
451 -> 463 ;
464 [label=<entropy = 0.0<br/>samples = 31<br/>value = [0, 0, 31]<br/>class = Standard>, fillcolor="#8139e5"] ;
463 -> 464 ;
465 [label=<entropy = 0.0<br/>samples = 1<br/>value = [0, 1, 0]<br/>class = Low>, fillcolor="#39e581"] ;
463 -> 465 ;
466 [label=<chlorides &le; 0.058<br/>entropy = 1.324<br/>samples = 19<br/>value = [6, 2, 11]<br/>class = Standard>, fillcolor="#cfb3f5"] ;
450 -> 466 ;
467 [label=<residual sugar &le; 13.8<br/>entropy = 0.619<br/>samples = 13<br/>value = [2, 0, 11]<br/>class = Standard>, fillcolor="#985dea"] ;
466 -> 467 ;
468 [label=<total sulfur dioxide &le; 184.5<br/>entropy = 0.918<br/>samples = 3<br/>value = [2, 0, 1]<br/>class = High>, fillcolor="#f2c09c"] ;
467 -> 468 ;
469 [label=<entropy = 0.0<br/>samples = 2<br/>value = [2, 0, 0]<br/>class = High>, fillcolor="#e58139"] ;
468 -> 469 ;
470 [label=<entropy = 0.0<br/>samples = 1<br/>value = [0, 0, 1]<br/>class = Standard>, fillcolor="#8139e5"] ;
468 -> 470 ;
471 [label=<entropy = 0.0<br/>samples = 10<br/>value = [0, 0, 10]<br/>class = Standard>, fillcolor="#8139e5"] ;
467 -> 471 ;
472 [label=<total sulfur dioxide &le; 183.0<br/>entropy = 0.918<br/>samples = 6<br/>value = [4, 2, 0]<br/>class = High>, fillcolor="#f2c09c"] ;
466 -> 472 ;
473 [label=<entropy = 0.0<br/>samples = 2<br/>value = [0, 2, 0]<br/>class = Low>, fillcolor="#39e581"] ;
472 -> 473 ;
474 [label=<entropy = 0.0<br/>samples = 4<br/>value = [4, 0, 0]<br/>class = High>, fillcolor="#e58139"] ;
472 -> 474 ;
475 [label=<pH &le; 2.945<br/>entropy = 0.241<br/>samples = 213<br/>value = [4, 3, 206]<br/>class = Standard>, fillcolor="#8540e6"] ;
431 -> 475 ;
476 [label=<volatile acidity &le; 0.355<br/>entropy = 1.0<br/>samples = 4<br/>value = [2, 0, 2]<br/>class = High>, fillcolor="#ffffff"] ;
475 -> 476 ;
477 [label=<entropy = 0.0<br/>samples = 2<br/>value = [2, 0, 0]<br/>class = High>, fillcolor="#e58139"] ;
476 -> 477 ;
478 [label=<entropy = 0.0<br/>samples = 2<br/>value = [0, 0, 2]<br/>class = Standard>, fillcolor="#8139e5"] ;
476 -> 478 ;
479 [label=<volatile acidity &le; 0.438<br/>entropy = 0.186<br/>samples = 209<br/>value = [2, 3, 204]<br/>class = Standard>, fillcolor="#843ee6"] ;
475 -> 479 ;
480 [label=<free sulfur dioxide &le; 49.5<br/>entropy = 0.092<br/>samples = 196<br/>value = [1.0, 1.0, 194.0]<br/>class = Standard>, fillcolor="#823be5"] ;
479 -> 480 ;
481 [label=<entropy = 0.0<br/>samples = 147<br/>value = [0, 0, 147]<br/>class = Standard>, fillcolor="#8139e5"] ;
480 -> 481 ;
482 [label=<free sulfur dioxide &le; 51.5<br/>entropy = 0.287<br/>samples = 49<br/>value = [1.0, 1.0, 47.0]<br/>class = Standard>, fillcolor="#8641e6"] ;
480 -> 482 ;
483 [label=<residual sugar &le; 12.9<br/>entropy = 1.061<br/>samples = 8<br/>value = [1, 1, 6]<br/>class = Standard>, fillcolor="#a572ec"] ;
482 -> 483 ;
484 [label=<entropy = 0.0<br/>samples = 6<br/>value = [0, 0, 6]<br/>class = Standard>, fillcolor="#8139e5"] ;
483 -> 484 ;
485 [label=<total sulfur dioxide &le; 190.0<br/>entropy = 1.0<br/>samples = 2<br/>value = [1, 1, 0]<br/>class = High>, fillcolor="#ffffff"] ;
483 -> 485 ;
486 [label=<entropy = 0.0<br/>samples = 1<br/>value = [1, 0, 0]<br/>class = High>, fillcolor="#e58139"] ;
485 -> 486 ;
487 [label=<entropy = 0.0<br/>samples = 1<br/>value = [0, 1, 0]<br/>class = Low>, fillcolor="#39e581"] ;
485 -> 487 ;
488 [label=<entropy = 0.0<br/>samples = 41<br/>value = [0, 0, 41]<br/>class = Standard>, fillcolor="#8139e5"] ;
482 -> 488 ;
489 [label=<volatile acidity &le; 0.445<br/>entropy = 0.991<br/>samples = 13<br/>value = [1, 2, 10]<br/>class = Standard>, fillcolor="#a36fec"] ;
479 -> 489 ;
490 [label=<residual sugar &le; 9.75<br/>entropy = 1.0<br/>samples = 2<br/>value = [1, 1, 0]<br/>class = High>, fillcolor="#ffffff"] ;
489 -> 490 ;
491 [label=<entropy = 0.0<br/>samples = 1<br/>value = [0, 1, 0]<br/>class = Low>, fillcolor="#39e581"] ;
490 -> 491 ;
492 [label=<entropy = 0.0<br/>samples = 1<br/>value = [1, 0, 0]<br/>class = High>, fillcolor="#e58139"] ;
490 -> 492 ;
493 [label=<free sulfur dioxide &le; 62.5<br/>entropy = 0.439<br/>samples = 11<br/>value = [0, 1, 10]<br/>class = Standard>, fillcolor="#8e4de8"] ;
489 -> 493 ;
494 [label=<entropy = 0.0<br/>samples = 10<br/>value = [0, 0, 10]<br/>class = Standard>, fillcolor="#8139e5"] ;
493 -> 494 ;
495 [label=<entropy = 0.0<br/>samples = 1<br/>value = [0, 1, 0]<br/>class = Low>, fillcolor="#39e581"] ;
493 -> 495 ;
496 [label=<residual sugar &le; 1.625<br/>entropy = 0.722<br/>samples = 90<br/>value = [0, 18, 72]<br/>class = Standard>, fillcolor="#a06aec"] ;
370 -> 496 ;
497 [label=<pH &le; 3.235<br/>entropy = 0.954<br/>samples = 16<br/>value = [0, 10, 6]<br/>class = Low>, fillcolor="#b0f5cd"] ;
496 -> 497 ;
498 [label=<sulphates &le; 0.5<br/>entropy = 0.779<br/>samples = 13<br/>value = [0, 10, 3]<br/>class = Low>, fillcolor="#74eda7"] ;
497 -> 498 ;
499 [label=<free sulfur dioxide &le; 36.5<br/>entropy = 0.469<br/>samples = 10<br/>value = [0, 9, 1]<br/>class = Low>, fillcolor="#4fe88f"] ;
498 -> 499 ;
500 [label=<entropy = 0.0<br/>samples = 8<br/>value = [0, 8, 0]<br/>class = Low>, fillcolor="#39e581"] ;
499 -> 500 ;
501 [label=<citric acid &le; 0.01<br/>entropy = 1.0<br/>samples = 2<br/>value = [0, 1, 1]<br/>class = Low>, fillcolor="#ffffff"] ;
499 -> 501 ;
502 [label=<entropy = 0.0<br/>samples = 1<br/>value = [0, 1, 0]<br/>class = Low>, fillcolor="#39e581"] ;
501 -> 502 ;
503 [label=<entropy = 0.0<br/>samples = 1<br/>value = [0, 0, 1]<br/>class = Standard>, fillcolor="#8139e5"] ;
501 -> 503 ;
504 [label=<sulphates &le; 0.55<br/>entropy = 0.918<br/>samples = 3<br/>value = [0, 1, 2]<br/>class = Standard>, fillcolor="#c09cf2"] ;
498 -> 504 ;
505 [label=<entropy = 0.0<br/>samples = 2<br/>value = [0, 0, 2]<br/>class = Standard>, fillcolor="#8139e5"] ;
504 -> 505 ;
506 [label=<entropy = 0.0<br/>samples = 1<br/>value = [0, 1, 0]<br/>class = Low>, fillcolor="#39e581"] ;
504 -> 506 ;
507 [label=<entropy = 0.0<br/>samples = 3<br/>value = [0, 0, 3]<br/>class = Standard>, fillcolor="#8139e5"] ;
497 -> 507 ;
508 [label=<sulphates &le; 0.575<br/>entropy = 0.494<br/>samples = 74<br/>value = [0, 8, 66]<br/>class = Standard>, fillcolor="#9051e8"] ;
496 -> 508 ;
509 [label=<free sulfur dioxide &le; 22.5<br/>entropy = 0.276<br/>samples = 63<br/>value = [0, 3, 60]<br/>class = Standard>, fillcolor="#8743e6"] ;
508 -> 509 ;
510 [label=<fixed acidity &le; 7.25<br/>entropy = 0.684<br/>samples = 11<br/>value = [0, 2, 9]<br/>class = Standard>, fillcolor="#9d65eb"] ;
509 -> 510 ;
511 [label=<entropy = 0.0<br/>samples = 9<br/>value = [0, 0, 9]<br/>class = Standard>, fillcolor="#8139e5"] ;
510 -> 511 ;
512 [label=<entropy = 0.0<br/>samples = 2<br/>value = [0, 2, 0]<br/>class = Low>, fillcolor="#39e581"] ;
510 -> 512 ;
513 [label=<total sulfur dioxide &le; 242.5<br/>entropy = 0.137<br/>samples = 52<br/>value = [0, 1, 51]<br/>class = Standard>, fillcolor="#833de6"] ;
509 -> 513 ;
514 [label=<entropy = 0.0<br/>samples = 49<br/>value = [0, 0, 49]<br/>class = Standard>, fillcolor="#8139e5"] ;
513 -> 514 ;
515 [label=<sulphates &le; 0.555<br/>entropy = 0.918<br/>samples = 3<br/>value = [0, 1, 2]<br/>class = Standard>, fillcolor="#c09cf2"] ;
513 -> 515 ;
516 [label=<entropy = 0.0<br/>samples = 2<br/>value = [0, 0, 2]<br/>class = Standard>, fillcolor="#8139e5"] ;
515 -> 516 ;
517 [label=<entropy = 0.0<br/>samples = 1<br/>value = [0, 1, 0]<br/>class = Low>, fillcolor="#39e581"] ;
515 -> 517 ;
518 [label=<volatile acidity &le; 0.62<br/>entropy = 0.994<br/>samples = 11<br/>value = [0, 5, 6]<br/>class = Standard>, fillcolor="#eadefb"] ;
508 -> 518 ;
519 [label=<entropy = 0.0<br/>samples = 5<br/>value = [0, 0, 5]<br/>class = Standard>, fillcolor="#8139e5"] ;
518 -> 519 ;
520 [label=<citric acid &le; 0.25<br/>entropy = 0.65<br/>samples = 6<br/>value = [0, 5, 1]<br/>class = Low>, fillcolor="#61ea9a"] ;
518 -> 520 ;
521 [label=<entropy = 0.0<br/>samples = 1<br/>value = [0, 0, 1]<br/>class = Standard>, fillcolor="#8139e5"] ;
520 -> 521 ;
522 [label=<entropy = 0.0<br/>samples = 5<br/>value = [0, 5, 0]<br/>class = Low>, fillcolor="#39e581"] ;
520 -> 522 ;
523 [label=<total sulfur dioxide &le; 160.5<br/>entropy = 1.052<br/>samples = 133<br/>value = [23, 11, 99]<br/>class = Standard>, fillcolor="#a876ed"] ;
369 -> 523 ;
524 [label=<free sulfur dioxide &le; 25.5<br/>entropy = 1.024<br/>samples = 61<br/>value = [20, 1, 40]<br/>class = Standard>, fillcolor="#c29ef2"] ;
523 -> 524 ;
525 [label=<entropy = 0.0<br/>samples = 17<br/>value = [0, 0, 17]<br/>class = Standard>, fillcolor="#8139e5"] ;
524 -> 525 ;
526 [label=<density &le; 0.996<br/>entropy = 1.13<br/>samples = 44<br/>value = [20, 1, 23]<br/>class = Standard>, fillcolor="#efe6fc"] ;
524 -> 526 ;
527 [label=<volatile acidity &le; 0.292<br/>entropy = 0.977<br/>samples = 34<br/>value = [20, 0, 14]<br/>class = High>, fillcolor="#f7d9c4"] ;
526 -> 527 ;
528 [label=<alcohol &le; 10.45<br/>entropy = 0.702<br/>samples = 21<br/>value = [17, 0, 4]<br/>class = High>, fillcolor="#eb9f68"] ;
527 -> 528 ;
529 [label=<volatile acidity &le; 0.275<br/>entropy = 0.918<br/>samples = 6<br/>value = [2, 0, 4]<br/>class = Standard>, fillcolor="#c09cf2"] ;
528 -> 529 ;
530 [label=<entropy = 0.0<br/>samples = 4<br/>value = [0, 0, 4]<br/>class = Standard>, fillcolor="#8139e5"] ;
529 -> 530 ;
531 [label=<entropy = 0.0<br/>samples = 2<br/>value = [2, 0, 0]<br/>class = High>, fillcolor="#e58139"] ;
529 -> 531 ;
532 [label=<entropy = 0.0<br/>samples = 15<br/>value = [15, 0, 0]<br/>class = High>, fillcolor="#e58139"] ;
528 -> 532 ;
533 [label=<chlorides &le; 0.044<br/>entropy = 0.779<br/>samples = 13<br/>value = [3, 0, 10]<br/>class = Standard>, fillcolor="#a774ed"] ;
527 -> 533 ;
534 [label=<residual sugar &le; 1.45<br/>entropy = 0.985<br/>samples = 7<br/>value = [3, 0, 4]<br/>class = Standard>, fillcolor="#e0cef8"] ;
533 -> 534 ;
535 [label=<entropy = 0.0<br/>samples = 3<br/>value = [0, 0, 3]<br/>class = Standard>, fillcolor="#8139e5"] ;
534 -> 535 ;
536 [label=<total sulfur dioxide &le; 84.0<br/>entropy = 0.811<br/>samples = 4<br/>value = [3, 0, 1]<br/>class = High>, fillcolor="#eeab7b"] ;
534 -> 536 ;
537 [label=<entropy = 0.0<br/>samples = 1<br/>value = [0, 0, 1]<br/>class = Standard>, fillcolor="#8139e5"] ;
536 -> 537 ;
538 [label=<entropy = 0.0<br/>samples = 3<br/>value = [3, 0, 0]<br/>class = High>, fillcolor="#e58139"] ;
536 -> 538 ;
539 [label=<entropy = 0.0<br/>samples = 6<br/>value = [0, 0, 6]<br/>class = Standard>, fillcolor="#8139e5"] ;
533 -> 539 ;
540 [label=<chlorides &le; 0.061<br/>entropy = 0.469<br/>samples = 10<br/>value = [0, 1, 9]<br/>class = Standard>, fillcolor="#8f4fe8"] ;
526 -> 540 ;
541 [label=<entropy = 0.0<br/>samples = 9<br/>value = [0, 0, 9]<br/>class = Standard>, fillcolor="#8139e5"] ;
540 -> 541 ;
542 [label=<entropy = 0.0<br/>samples = 1<br/>value = [0, 1, 0]<br/>class = Low>, fillcolor="#39e581"] ;
540 -> 542 ;
543 [label=<free sulfur dioxide &le; 32.5<br/>entropy = 0.822<br/>samples = 72<br/>value = [3, 10, 59]<br/>class = Standard>, fillcolor="#9b63ea"] ;
523 -> 543 ;
544 [label=<residual sugar &le; 8.375<br/>entropy = 1.289<br/>samples = 22<br/>value = [2, 7, 13]<br/>class = Standard>, fillcolor="#cdb0f5"] ;
543 -> 544 ;
545 [label=<pH &le; 3.535<br/>entropy = 0.964<br/>samples = 18<br/>value = [0, 7, 11]<br/>class = Standard>, fillcolor="#d1b7f6"] ;
544 -> 545 ;
546 [label=<citric acid &le; 0.225<br/>entropy = 0.996<br/>samples = 13<br/>value = [0, 7, 6]<br/>class = Low>, fillcolor="#e3fbed"] ;
545 -> 546 ;
547 [label=<entropy = 0.0<br/>samples = 4<br/>value = [0, 4, 0]<br/>class = Low>, fillcolor="#39e581"] ;
546 -> 547 ;
548 [label=<fixed acidity &le; 6.85<br/>entropy = 0.918<br/>samples = 9<br/>value = [0, 3, 6]<br/>class = Standard>, fillcolor="#c09cf2"] ;
546 -> 548 ;
549 [label=<entropy = 0.0<br/>samples = 5<br/>value = [0, 0, 5]<br/>class = Standard>, fillcolor="#8139e5"] ;
548 -> 549 ;
550 [label=<density &le; 0.995<br/>entropy = 0.811<br/>samples = 4<br/>value = [0, 3, 1]<br/>class = Low>, fillcolor="#7beeab"] ;
548 -> 550 ;
551 [label=<entropy = 0.0<br/>samples = 3<br/>value = [0, 3, 0]<br/>class = Low>, fillcolor="#39e581"] ;
550 -> 551 ;
552 [label=<entropy = 0.0<br/>samples = 1<br/>value = [0, 0, 1]<br/>class = Standard>, fillcolor="#8139e5"] ;
550 -> 552 ;
553 [label=<entropy = 0.0<br/>samples = 5<br/>value = [0, 0, 5]<br/>class = Standard>, fillcolor="#8139e5"] ;
545 -> 553 ;
554 [label=<total sulfur dioxide &le; 168.5<br/>entropy = 1.0<br/>samples = 4<br/>value = [2, 0, 2]<br/>class = High>, fillcolor="#ffffff"] ;
544 -> 554 ;
555 [label=<entropy = 0.0<br/>samples = 2<br/>value = [0, 0, 2]<br/>class = Standard>, fillcolor="#8139e5"] ;
554 -> 555 ;
556 [label=<entropy = 0.0<br/>samples = 2<br/>value = [2, 0, 0]<br/>class = High>, fillcolor="#e58139"] ;
554 -> 556 ;
557 [label=<pH &le; 3.43<br/>entropy = 0.467<br/>samples = 50<br/>value = [1, 3, 46]<br/>class = Standard>, fillcolor="#8c4ae7"] ;
543 -> 557 ;
558 [label=<entropy = 0.0<br/>samples = 27<br/>value = [0, 0, 27]<br/>class = Standard>, fillcolor="#8139e5"] ;
557 -> 558 ;
559 [label=<chlorides &le; 0.057<br/>entropy = 0.808<br/>samples = 23<br/>value = [1, 3, 19]<br/>class = Standard>, fillcolor="#9a61ea"] ;
557 -> 559 ;
560 [label=<total sulfur dioxide &le; 343.5<br/>entropy = 0.569<br/>samples = 20<br/>value = [1, 1, 18]<br/>class = Standard>, fillcolor="#8e4ee8"] ;
559 -> 560 ;
561 [label=<free sulfur dioxide &le; 37.5<br/>entropy = 0.297<br/>samples = 19<br/>value = [1, 0, 18]<br/>class = Standard>, fillcolor="#8844e6"] ;
560 -> 561 ;
562 [label=<pH &le; 3.52<br/>entropy = 1.0<br/>samples = 2<br/>value = [1, 0, 1]<br/>class = High>, fillcolor="#ffffff"] ;
561 -> 562 ;
563 [label=<entropy = 0.0<br/>samples = 1<br/>value = [1, 0, 0]<br/>class = High>, fillcolor="#e58139"] ;
562 -> 563 ;
564 [label=<entropy = 0.0<br/>samples = 1<br/>value = [0, 0, 1]<br/>class = Standard>, fillcolor="#8139e5"] ;
562 -> 564 ;
565 [label=<entropy = 0.0<br/>samples = 17<br/>value = [0, 0, 17]<br/>class = Standard>, fillcolor="#8139e5"] ;
561 -> 565 ;
566 [label=<entropy = 0.0<br/>samples = 1<br/>value = [0, 1, 0]<br/>class = Low>, fillcolor="#39e581"] ;
560 -> 566 ;
567 [label=<residual sugar &le; 1.45<br/>entropy = 0.918<br/>samples = 3<br/>value = [0, 2, 1]<br/>class = Low>, fillcolor="#9cf2c0"] ;
559 -> 567 ;
568 [label=<entropy = 0.0<br/>samples = 1<br/>value = [0, 0, 1]<br/>class = Standard>, fillcolor="#8139e5"] ;
567 -> 568 ;
569 [label=<entropy = 0.0<br/>samples = 2<br/>value = [0, 2, 0]<br/>class = Low>, fillcolor="#39e581"] ;
567 -> 569 ;
570 [label=<free sulfur dioxide &le; 11.5<br/>entropy = 1.129<br/>samples = 1643<br/>value = [677, 42, 924]<br/>class = Standard>, fillcolor="#dfccf8"] ;
0 -> 570 [labeldistance=2.5, labelangle=-45, headlabel="False"] ;
571 [label=<citric acid &le; 0.225<br/>entropy = 1.262<br/>samples = 108<br/>value = [13, 25, 70]<br/>class = Standard>, fillcolor="#bb94f1"] ;
570 -> 571 ;
572 [label=<alcohol &le; 11.9<br/>entropy = 1.103<br/>samples = 15<br/>value = [2, 11, 2]<br/>class = Low>, fillcolor="#76eda8"] ;
571 -> 572 ;
573 [label=<entropy = 0.0<br/>samples = 9<br/>value = [0, 9, 0]<br/>class = Low>, fillcolor="#39e581"] ;
572 -> 573 ;
574 [label=<pH &le; 3.17<br/>entropy = 1.585<br/>samples = 6<br/>value = [2, 2, 2]<br/>class = High>, fillcolor="#ffffff"] ;
572 -> 574 ;
575 [label=<entropy = 0.0<br/>samples = 2<br/>value = [2, 0, 0]<br/>class = High>, fillcolor="#e58139"] ;
574 -> 575 ;
576 [label=<total sulfur dioxide &le; 9.5<br/>entropy = 1.0<br/>samples = 4<br/>value = [0, 2, 2]<br/>class = Low>, fillcolor="#ffffff"] ;
574 -> 576 ;
577 [label=<entropy = 0.0<br/>samples = 1<br/>value = [0, 0, 1]<br/>class = Standard>, fillcolor="#8139e5"] ;
576 -> 577 ;
578 [label=<volatile acidity &le; 0.415<br/>entropy = 0.918<br/>samples = 3<br/>value = [0, 2, 1]<br/>class = Low>, fillcolor="#9cf2c0"] ;
576 -> 578 ;
579 [label=<entropy = 0.0<br/>samples = 1<br/>value = [0, 0, 1]<br/>class = Standard>, fillcolor="#8139e5"] ;
578 -> 579 ;
580 [label=<entropy = 0.0<br/>samples = 2<br/>value = [0, 2, 0]<br/>class = Low>, fillcolor="#39e581"] ;
578 -> 580 ;
581 [label=<free sulfur dioxide &le; 5.5<br/>entropy = 1.106<br/>samples = 93<br/>value = [11, 14, 68]<br/>class = Standard>, fillcolor="#a978ed"] ;
571 -> 581 ;
582 [label=<density &le; 0.992<br/>entropy = 0.982<br/>samples = 19<br/>value = [0, 8, 11]<br/>class = Standard>, fillcolor="#ddc9f8"] ;
581 -> 582 ;
583 [label=<citric acid &le; 0.355<br/>entropy = 0.985<br/>samples = 14<br/>value = [0, 8, 6]<br/>class = Low>, fillcolor="#cef8e0"] ;
582 -> 583 ;
584 [label=<pH &le; 3.095<br/>entropy = 0.918<br/>samples = 9<br/>value = [0, 3, 6]<br/>class = Standard>, fillcolor="#c09cf2"] ;
583 -> 584 ;
585 [label=<entropy = 0.0<br/>samples = 3<br/>value = [0, 3, 0]<br/>class = Low>, fillcolor="#39e581"] ;
584 -> 585 ;
586 [label=<entropy = 0.0<br/>samples = 6<br/>value = [0, 0, 6]<br/>class = Standard>, fillcolor="#8139e5"] ;
584 -> 586 ;
587 [label=<entropy = 0.0<br/>samples = 5<br/>value = [0, 5, 0]<br/>class = Low>, fillcolor="#39e581"] ;
583 -> 587 ;
588 [label=<entropy = 0.0<br/>samples = 5<br/>value = [0, 0, 5]<br/>class = Standard>, fillcolor="#8139e5"] ;
582 -> 588 ;
589 [label=<alcohol &le; 12.35<br/>entropy = 0.993<br/>samples = 74<br/>value = [11, 6, 57]<br/>class = Standard>, fillcolor="#a36eec"] ;
581 -> 589 ;
590 [label=<residual sugar &le; 5.45<br/>entropy = 0.882<br/>samples = 53<br/>value = [4, 6, 43]<br/>class = Standard>, fillcolor="#9c63eb"] ;
589 -> 590 ;
591 [label=<free sulfur dioxide &le; 9.5<br/>entropy = 0.581<br/>samples = 36<br/>value = [0, 5, 31]<br/>class = Standard>, fillcolor="#9559e9"] ;
590 -> 591 ;
592 [label=<pH &le; 3.075<br/>entropy = 0.852<br/>samples = 18<br/>value = [0, 5, 13]<br/>class = Standard>, fillcolor="#b185ef"] ;
591 -> 592 ;
593 [label=<citric acid &le; 0.455<br/>entropy = 0.811<br/>samples = 4<br/>value = [0, 3, 1]<br/>class = Low>, fillcolor="#7beeab"] ;
592 -> 593 ;
594 [label=<entropy = 0.0<br/>samples = 3<br/>value = [0, 3, 0]<br/>class = Low>, fillcolor="#39e581"] ;
593 -> 594 ;
595 [label=<entropy = 0.0<br/>samples = 1<br/>value = [0, 0, 1]<br/>class = Standard>, fillcolor="#8139e5"] ;
593 -> 595 ;
596 [label=<residual sugar &le; 1.25<br/>entropy = 0.592<br/>samples = 14<br/>value = [0, 2, 12]<br/>class = Standard>, fillcolor="#965ae9"] ;
592 -> 596 ;
597 [label=<fixed acidity &le; 5.85<br/>entropy = 0.971<br/>samples = 5<br/>value = [0, 2, 3]<br/>class = Standard>, fillcolor="#d5bdf6"] ;
596 -> 597 ;
598 [label=<entropy = 0.0<br/>samples = 2<br/>value = [0, 0, 2]<br/>class = Standard>, fillcolor="#8139e5"] ;
597 -> 598 ;
599 [label=<pH &le; 3.125<br/>entropy = 0.918<br/>samples = 3<br/>value = [0, 2, 1]<br/>class = Low>, fillcolor="#9cf2c0"] ;
597 -> 599 ;
600 [label=<entropy = 0.0<br/>samples = 1<br/>value = [0, 0, 1]<br/>class = Standard>, fillcolor="#8139e5"] ;
599 -> 600 ;
601 [label=<entropy = 0.0<br/>samples = 2<br/>value = [0, 2, 0]<br/>class = Low>, fillcolor="#39e581"] ;
599 -> 601 ;
602 [label=<entropy = 0.0<br/>samples = 9<br/>value = [0, 0, 9]<br/>class = Standard>, fillcolor="#8139e5"] ;
596 -> 602 ;
603 [label=<entropy = 0.0<br/>samples = 18<br/>value = [0, 0, 18]<br/>class = Standard>, fillcolor="#8139e5"] ;
591 -> 603 ;
604 [label=<total sulfur dioxide &le; 77.0<br/>entropy = 1.086<br/>samples = 17<br/>value = [4, 1, 12]<br/>class = Standard>, fillcolor="#b185ef"] ;
590 -> 604 ;
605 [label=<entropy = 0.0<br/>samples = 8<br/>value = [0, 0, 8]<br/>class = Standard>, fillcolor="#8139e5"] ;
604 -> 605 ;
606 [label=<volatile acidity &le; 0.37<br/>entropy = 1.392<br/>samples = 9<br/>value = [4, 1, 4]<br/>class = High>, fillcolor="#ffffff"] ;
604 -> 606 ;
607 [label=<density &le; 0.994<br/>entropy = 1.252<br/>samples = 6<br/>value = [4, 1, 1]<br/>class = High>, fillcolor="#efb388"] ;
606 -> 607 ;
608 [label=<entropy = 0.0<br/>samples = 4<br/>value = [4, 0, 0]<br/>class = High>, fillcolor="#e58139"] ;
607 -> 608 ;
609 [label=<alcohol &le; 11.45<br/>entropy = 1.0<br/>samples = 2<br/>value = [0, 1, 1]<br/>class = Low>, fillcolor="#ffffff"] ;
607 -> 609 ;
610 [label=<entropy = 0.0<br/>samples = 1<br/>value = [0, 1, 0]<br/>class = Low>, fillcolor="#39e581"] ;
609 -> 610 ;
611 [label=<entropy = 0.0<br/>samples = 1<br/>value = [0, 0, 1]<br/>class = Standard>, fillcolor="#8139e5"] ;
609 -> 611 ;
612 [label=<entropy = 0.0<br/>samples = 3<br/>value = [0, 0, 3]<br/>class = Standard>, fillcolor="#8139e5"] ;
606 -> 612 ;
613 [label=<pH &le; 3.295<br/>entropy = 0.918<br/>samples = 21<br/>value = [7, 0, 14]<br/>class = Standard>, fillcolor="#c09cf2"] ;
589 -> 613 ;
614 [label=<residual sugar &le; 5.15<br/>entropy = 0.764<br/>samples = 18<br/>value = [4, 0, 14]<br/>class = Standard>, fillcolor="#a572ec"] ;
613 -> 614 ;
615 [label=<entropy = 0.0<br/>samples = 12<br/>value = [0, 0, 12]<br/>class = Standard>, fillcolor="#8139e5"] ;
614 -> 615 ;
616 [label=<residual sugar &le; 12.025<br/>entropy = 0.918<br/>samples = 6<br/>value = [4, 0, 2]<br/>class = High>, fillcolor="#f2c09c"] ;
614 -> 616 ;
617 [label=<entropy = 0.0<br/>samples = 4<br/>value = [4, 0, 0]<br/>class = High>, fillcolor="#e58139"] ;
616 -> 617 ;
618 [label=<entropy = 0.0<br/>samples = 2<br/>value = [0, 0, 2]<br/>class = Standard>, fillcolor="#8139e5"] ;
616 -> 618 ;
619 [label=<entropy = 0.0<br/>samples = 3<br/>value = [3, 0, 0]<br/>class = High>, fillcolor="#e58139"] ;
613 -> 619 ;
620 [label=<alcohol &le; 12.55<br/>entropy = 1.066<br/>samples = 1535<br/>value = [664, 17, 854]<br/>class = Standard>, fillcolor="#e4d4f9"] ;
570 -> 620 ;
621 [label=<pH &le; 3.245<br/>entropy = 1.04<br/>samples = 1234<br/>value = [469.0, 14.0, 751.0]<br/>class = Standard>, fillcolor="#d1b6f5"] ;
620 -> 621 ;
622 [label=<volatile acidity &le; 0.548<br/>entropy = 1.025<br/>samples = 784<br/>value = [257, 13, 514]<br/>class = Standard>, fillcolor="#c29ef2"] ;
621 -> 622 ;
623 [label=<free sulfur dioxide &le; 74.5<br/>entropy = 1.001<br/>samples = 776<br/>value = [257, 9, 510]<br/>class = Standard>, fillcolor="#c29ef2"] ;
622 -> 623 ;
624 [label=<free sulfur dioxide &le; 19.5<br/>entropy = 0.976<br/>samples = 768<br/>value = [253, 6, 509]<br/>class = Standard>, fillcolor="#c09df2"] ;
623 -> 624 ;
625 [label=<residual sugar &le; 7.825<br/>entropy = 1.107<br/>samples = 109<br/>value = [31, 5, 73]<br/>class = Standard>, fillcolor="#bb94f1"] ;
624 -> 625 ;
626 [label=<residual sugar &le; 6.45<br/>entropy = 1.148<br/>samples = 93<br/>value = [31, 4, 58]<br/>class = Standard>, fillcolor="#c8a9f4"] ;
625 -> 626 ;
627 [label=<density &le; 0.991<br/>entropy = 1.07<br/>samples = 86<br/>value = [25, 3, 58]<br/>class = Standard>, fillcolor="#bb94f1"] ;
626 -> 627 ;
628 [label=<volatile acidity &le; 0.135<br/>entropy = 1.26<br/>samples = 49<br/>value = [20, 3, 26]<br/>class = Standard>, fillcolor="#e5d6fa"] ;
627 -> 628 ;
629 [label=<entropy = 0.0<br/>samples = 4<br/>value = [4, 0, 0]<br/>class = High>, fillcolor="#e58139"] ;
628 -> 629 ;
630 [label=<sulphates &le; 0.38<br/>entropy = 1.248<br/>samples = 45<br/>value = [16.0, 3.0, 26.0]<br/>class = Standard>, fillcolor="#d4bbf6"] ;
628 -> 630 ;
631 [label=<density &le; 0.99<br/>entropy = 1.379<br/>samples = 14<br/>value = [8, 2, 4]<br/>class = High>, fillcolor="#f5cdb0"] ;
630 -> 631 ;
632 [label=<fixed acidity &le; 5.9<br/>entropy = 0.722<br/>samples = 5<br/>value = [1, 0, 4]<br/>class = Standard>, fillcolor="#a06aec"] ;
631 -> 632 ;
633 [label=<entropy = 0.0<br/>samples = 1<br/>value = [1, 0, 0]<br/>class = High>, fillcolor="#e58139"] ;
632 -> 633 ;
634 [label=<entropy = 0.0<br/>samples = 4<br/>value = [0, 0, 4]<br/>class = Standard>, fillcolor="#8139e5"] ;
632 -> 634 ;
635 [label=<free sulfur dioxide &le; 17.5<br/>entropy = 0.764<br/>samples = 9<br/>value = [7, 2, 0]<br/>class = High>, fillcolor="#eca572"] ;
631 -> 635 ;
636 [label=<entropy = 0.0<br/>samples = 5<br/>value = [5, 0, 0]<br/>class = High>, fillcolor="#e58139"] ;
635 -> 636 ;
637 [label=<total sulfur dioxide &le; 99.0<br/>entropy = 1.0<br/>samples = 4<br/>value = [2, 2, 0]<br/>class = High>, fillcolor="#ffffff"] ;
635 -> 637 ;
638 [label=<entropy = 0.0<br/>samples = 2<br/>value = [0, 2, 0]<br/>class = Low>, fillcolor="#39e581"] ;
637 -> 638 ;
639 [label=<entropy = 0.0<br/>samples = 2<br/>value = [2, 0, 0]<br/>class = High>, fillcolor="#e58139"] ;
637 -> 639 ;
640 [label=<total sulfur dioxide &le; 142.0<br/>entropy = 1.015<br/>samples = 31<br/>value = [8, 1, 22]<br/>class = Standard>, fillcolor="#b286ef"] ;
630 -> 640 ;
641 [label=<sulphates &le; 0.445<br/>entropy = 0.837<br/>samples = 30<br/>value = [8, 0, 22]<br/>class = Standard>, fillcolor="#af81ee"] ;
640 -> 641 ;
642 [label=<entropy = 0.0<br/>samples = 8<br/>value = [0, 0, 8]<br/>class = Standard>, fillcolor="#8139e5"] ;
641 -> 642 ;
643 [label=<total sulfur dioxide &le; 101.5<br/>entropy = 0.946<br/>samples = 22<br/>value = [8, 0, 14]<br/>class = Standard>, fillcolor="#c9aaf4"] ;
641 -> 643 ;
644 [label=<chlorides &le; 0.038<br/>entropy = 0.997<br/>samples = 15<br/>value = [8, 0, 7]<br/>class = High>, fillcolor="#fcefe6"] ;
643 -> 644 ;
645 [label=<chlorides &le; 0.02<br/>entropy = 0.544<br/>samples = 8<br/>value = [7, 0, 1]<br/>class = High>, fillcolor="#e99355"] ;
644 -> 645 ;
646 [label=<entropy = 0.0<br/>samples = 1<br/>value = [0, 0, 1]<br/>class = Standard>, fillcolor="#8139e5"] ;
645 -> 646 ;
647 [label=<entropy = 0.0<br/>samples = 7<br/>value = [7, 0, 0]<br/>class = High>, fillcolor="#e58139"] ;
645 -> 647 ;
648 [label=<fixed acidity &le; 5.85<br/>entropy = 0.592<br/>samples = 7<br/>value = [1, 0, 6]<br/>class = Standard>, fillcolor="#965ae9"] ;
644 -> 648 ;
649 [label=<entropy = 0.0<br/>samples = 1<br/>value = [1, 0, 0]<br/>class = High>, fillcolor="#e58139"] ;
648 -> 649 ;
650 [label=<entropy = 0.0<br/>samples = 6<br/>value = [0, 0, 6]<br/>class = Standard>, fillcolor="#8139e5"] ;
648 -> 650 ;
651 [label=<entropy = 0.0<br/>samples = 7<br/>value = [0, 0, 7]<br/>class = Standard>, fillcolor="#8139e5"] ;
643 -> 651 ;
652 [label=<entropy = 0.0<br/>samples = 1<br/>value = [0, 1, 0]<br/>class = Low>, fillcolor="#39e581"] ;
640 -> 652 ;
653 [label=<free sulfur dioxide &le; 12.5<br/>entropy = 0.571<br/>samples = 37<br/>value = [5, 0, 32]<br/>class = Standard>, fillcolor="#9558e9"] ;
627 -> 653 ;
654 [label=<entropy = 0.0<br/>samples = 3<br/>value = [3, 0, 0]<br/>class = High>, fillcolor="#e58139"] ;
653 -> 654 ;
655 [label=<residual sugar &le; 5.9<br/>entropy = 0.323<br/>samples = 34<br/>value = [2, 0, 32]<br/>class = Standard>, fillcolor="#8945e7"] ;
653 -> 655 ;
656 [label=<entropy = 0.0<br/>samples = 30<br/>value = [0, 0, 30]<br/>class = Standard>, fillcolor="#8139e5"] ;
655 -> 656 ;
657 [label=<citric acid &le; 0.455<br/>entropy = 1.0<br/>samples = 4<br/>value = [2, 0, 2]<br/>class = High>, fillcolor="#ffffff"] ;
655 -> 657 ;
658 [label=<entropy = 0.0<br/>samples = 2<br/>value = [2, 0, 0]<br/>class = High>, fillcolor="#e58139"] ;
657 -> 658 ;
659 [label=<entropy = 0.0<br/>samples = 2<br/>value = [0, 0, 2]<br/>class = Standard>, fillcolor="#8139e5"] ;
657 -> 659 ;
660 [label=<volatile acidity &le; 0.315<br/>entropy = 0.592<br/>samples = 7<br/>value = [6, 1, 0]<br/>class = High>, fillcolor="#e9965a"] ;
626 -> 660 ;
661 [label=<entropy = 0.0<br/>samples = 6<br/>value = [6, 0, 0]<br/>class = High>, fillcolor="#e58139"] ;
660 -> 661 ;
662 [label=<entropy = 0.0<br/>samples = 1<br/>value = [0, 1, 0]<br/>class = Low>, fillcolor="#39e581"] ;
660 -> 662 ;
663 [label=<pH &le; 3.21<br/>entropy = 0.337<br/>samples = 16<br/>value = [0, 1, 15]<br/>class = Standard>, fillcolor="#8946e7"] ;
625 -> 663 ;
664 [label=<entropy = 0.0<br/>samples = 15<br/>value = [0, 0, 15]<br/>class = Standard>, fillcolor="#8139e5"] ;
663 -> 664 ;
665 [label=<entropy = 0.0<br/>samples = 1<br/>value = [0, 1, 0]<br/>class = Low>, fillcolor="#39e581"] ;
663 -> 665 ;
666 [label=<alcohol &le; 11.767<br/>entropy = 0.937<br/>samples = 659<br/>value = [222, 1, 436]<br/>class = Standard>, fillcolor="#c19ef2"] ;
624 -> 666 ;
667 [label=<total sulfur dioxide &le; 86.5<br/>entropy = 0.869<br/>samples = 393<br/>value = [107, 1, 285]<br/>class = Standard>, fillcolor="#b184ef"] ;
666 -> 667 ;
668 [label=<citric acid &le; 0.225<br/>entropy = 0.48<br/>samples = 37<br/>value = [2, 1, 34]<br/>class = Standard>, fillcolor="#8c4ae7"] ;
667 -> 668 ;
669 [label=<entropy = 0.0<br/>samples = 1<br/>value = [0, 1, 0]<br/>class = Low>, fillcolor="#39e581"] ;
668 -> 669 ;
670 [label=<alcohol &le; 11.65<br/>entropy = 0.31<br/>samples = 36<br/>value = [2, 0, 34]<br/>class = Standard>, fillcolor="#8845e7"] ;
668 -> 670 ;
671 [label=<entropy = 0.0<br/>samples = 28<br/>value = [0, 0, 28]<br/>class = Standard>, fillcolor="#8139e5"] ;
670 -> 671 ;
672 [label=<chlorides &le; 0.037<br/>entropy = 0.811<br/>samples = 8<br/>value = [2, 0, 6]<br/>class = Standard>, fillcolor="#ab7bee"] ;
670 -> 672 ;
673 [label=<entropy = 0.0<br/>samples = 6<br/>value = [0, 0, 6]<br/>class = Standard>, fillcolor="#8139e5"] ;
672 -> 673 ;
674 [label=<entropy = 0.0<br/>samples = 2<br/>value = [2, 0, 0]<br/>class = High>, fillcolor="#e58139"] ;
672 -> 674 ;
675 [label=<residual sugar &le; 10.025<br/>entropy = 0.875<br/>samples = 356<br/>value = [105, 0, 251]<br/>class = Standard>, fillcolor="#b68cf0"] ;
667 -> 675 ;
676 [label=<total sulfur dioxide &le; 157.5<br/>entropy = 0.83<br/>samples = 320<br/>value = [84, 0, 236]<br/>class = Standard>, fillcolor="#ae7fee"] ;
675 -> 676 ;
677 [label=<sulphates &le; 0.71<br/>entropy = 0.886<br/>samples = 257<br/>value = [78, 0, 179]<br/>class = Standard>, fillcolor="#b88ff0"] ;
676 -> 677 ;
678 [label=<pH &le; 3.235<br/>entropy = 0.854<br/>samples = 240<br/>value = [67, 0, 173]<br/>class = Standard>, fillcolor="#b286ef"] ;
677 -> 678 ;
679 [label=<sulphates &le; 0.455<br/>entropy = 0.874<br/>samples = 228<br/>value = [67, 0, 161]<br/>class = Standard>, fillcolor="#b58bf0"] ;
678 -> 679 ;
680 [label=<sulphates &le; 0.425<br/>entropy = 0.954<br/>samples = 123<br/>value = [46, 0, 77]<br/>class = Standard>, fillcolor="#ccaff5"] ;
679 -> 680 ;
681 [label=<volatile acidity &le; 0.265<br/>entropy = 0.889<br/>samples = 98<br/>value = [30, 0, 68]<br/>class = Standard>, fillcolor="#b990f0"] ;
680 -> 681 ;
682 [label=<chlorides &le; 0.045<br/>entropy = 0.986<br/>samples = 58<br/>value = [25, 0, 33]<br/>class = Standard>, fillcolor="#e0cff9"] ;
681 -> 682 ;
683 [label=<alcohol &le; 11.333<br/>entropy = 0.987<br/>samples = 44<br/>value = [25.0, 0.0, 19.0]<br/>class = High>, fillcolor="#f9e1cf"] ;
682 -> 683 ;
684 [label=<alcohol &le; 10.95<br/>entropy = 0.706<br/>samples = 26<br/>value = [21, 0, 5]<br/>class = High>, fillcolor="#eb9f68"] ;
683 -> 684 ;
685 [label=<entropy = 0.0<br/>samples = 2<br/>value = [0, 0, 2]<br/>class = Standard>, fillcolor="#8139e5"] ;
684 -> 685 ;
686 [label=<chlorides &le; 0.025<br/>entropy = 0.544<br/>samples = 24<br/>value = [21, 0, 3]<br/>class = High>, fillcolor="#e99355"] ;
684 -> 686 ;
687 [label=<entropy = 0.0<br/>samples = 2<br/>value = [0, 0, 2]<br/>class = Standard>, fillcolor="#8139e5"] ;
686 -> 687 ;
688 [label=<free sulfur dioxide &le; 58.5<br/>entropy = 0.267<br/>samples = 22<br/>value = [21, 0, 1]<br/>class = High>, fillcolor="#e68742"] ;
686 -> 688 ;
689 [label=<entropy = 0.0<br/>samples = 21<br/>value = [21, 0, 0]<br/>class = High>, fillcolor="#e58139"] ;
688 -> 689 ;
690 [label=<entropy = 0.0<br/>samples = 1<br/>value = [0, 0, 1]<br/>class = Standard>, fillcolor="#8139e5"] ;
688 -> 690 ;
691 [label=<pH &le; 3.115<br/>entropy = 0.764<br/>samples = 18<br/>value = [4, 0, 14]<br/>class = Standard>, fillcolor="#a572ec"] ;
683 -> 691 ;
692 [label=<entropy = 0.0<br/>samples = 11<br/>value = [0, 0, 11]<br/>class = Standard>, fillcolor="#8139e5"] ;
691 -> 692 ;
693 [label=<pH &le; 3.18<br/>entropy = 0.985<br/>samples = 7<br/>value = [4, 0, 3]<br/>class = High>, fillcolor="#f8e0ce"] ;
691 -> 693 ;
694 [label=<entropy = 0.0<br/>samples = 4<br/>value = [4, 0, 0]<br/>class = High>, fillcolor="#e58139"] ;
693 -> 694 ;
695 [label=<entropy = 0.0<br/>samples = 3<br/>value = [0, 0, 3]<br/>class = Standard>, fillcolor="#8139e5"] ;
693 -> 695 ;
696 [label=<entropy = 0.0<br/>samples = 14<br/>value = [0, 0, 14]<br/>class = Standard>, fillcolor="#8139e5"] ;
682 -> 696 ;
697 [label=<density &le; 0.994<br/>entropy = 0.544<br/>samples = 40<br/>value = [5, 0, 35]<br/>class = Standard>, fillcolor="#9355e9"] ;
681 -> 697 ;
698 [label=<pH &le; 3.135<br/>entropy = 0.406<br/>samples = 37<br/>value = [3, 0, 34]<br/>class = Standard>, fillcolor="#8c4ae7"] ;
697 -> 698 ;
699 [label=<entropy = 0.0<br/>samples = 26<br/>value = [0, 0, 26]<br/>class = Standard>, fillcolor="#8139e5"] ;
698 -> 699 ;
700 [label=<pH &le; 3.16<br/>entropy = 0.845<br/>samples = 11<br/>value = [3, 0, 8]<br/>class = Standard>, fillcolor="#b083ef"] ;
698 -> 700 ;
701 [label=<entropy = 0.0<br/>samples = 2<br/>value = [2, 0, 0]<br/>class = High>, fillcolor="#e58139"] ;
700 -> 701 ;
702 [label=<chlorides &le; 0.046<br/>entropy = 0.503<br/>samples = 9<br/>value = [1, 0, 8]<br/>class = Standard>, fillcolor="#9152e8"] ;
700 -> 702 ;
703 [label=<entropy = 0.0<br/>samples = 8<br/>value = [0, 0, 8]<br/>class = Standard>, fillcolor="#8139e5"] ;
702 -> 703 ;
704 [label=<entropy = 0.0<br/>samples = 1<br/>value = [1, 0, 0]<br/>class = High>, fillcolor="#e58139"] ;
702 -> 704 ;
705 [label=<citric acid &le; 0.34<br/>entropy = 0.918<br/>samples = 3<br/>value = [2, 0, 1]<br/>class = High>, fillcolor="#f2c09c"] ;
697 -> 705 ;
706 [label=<entropy = 0.0<br/>samples = 2<br/>value = [2, 0, 0]<br/>class = High>, fillcolor="#e58139"] ;
705 -> 706 ;
707 [label=<entropy = 0.0<br/>samples = 1<br/>value = [0, 0, 1]<br/>class = Standard>, fillcolor="#8139e5"] ;
705 -> 707 ;
708 [label=<chlorides &le; 0.04<br/>entropy = 0.943<br/>samples = 25<br/>value = [16, 0, 9]<br/>class = High>, fillcolor="#f4c8a8"] ;
680 -> 708 ;
709 [label=<chlorides &le; 0.026<br/>entropy = 0.544<br/>samples = 16<br/>value = [14, 0, 2]<br/>class = High>, fillcolor="#e99355"] ;
708 -> 709 ;
710 [label=<entropy = 0.0<br/>samples = 1<br/>value = [0, 0, 1]<br/>class = Standard>, fillcolor="#8139e5"] ;
709 -> 710 ;
711 [label=<fixed acidity &le; 6.05<br/>entropy = 0.353<br/>samples = 15<br/>value = [14, 0, 1]<br/>class = High>, fillcolor="#e78a47"] ;
709 -> 711 ;
712 [label=<entropy = 0.0<br/>samples = 1<br/>value = [0, 0, 1]<br/>class = Standard>, fillcolor="#8139e5"] ;
711 -> 712 ;
713 [label=<entropy = 0.0<br/>samples = 14<br/>value = [14, 0, 0]<br/>class = High>, fillcolor="#e58139"] ;
711 -> 713 ;
714 [label=<density &le; 0.991<br/>entropy = 0.764<br/>samples = 9<br/>value = [2, 0, 7]<br/>class = Standard>, fillcolor="#a572ec"] ;
708 -> 714 ;
715 [label=<entropy = 0.0<br/>samples = 2<br/>value = [2, 0, 0]<br/>class = High>, fillcolor="#e58139"] ;
714 -> 715 ;
716 [label=<entropy = 0.0<br/>samples = 7<br/>value = [0, 0, 7]<br/>class = Standard>, fillcolor="#8139e5"] ;
714 -> 716 ;
717 [label=<chlorides &le; 0.033<br/>entropy = 0.722<br/>samples = 105<br/>value = [21, 0, 84]<br/>class = Standard>, fillcolor="#a06aec"] ;
679 -> 717 ;
718 [label=<entropy = 0.0<br/>samples = 20<br/>value = [0, 0, 20]<br/>class = Standard>, fillcolor="#8139e5"] ;
717 -> 718 ;
719 [label=<residual sugar &le; 1.25<br/>entropy = 0.807<br/>samples = 85<br/>value = [21, 0, 64]<br/>class = Standard>, fillcolor="#aa7aee"] ;
717 -> 719 ;
720 [label=<entropy = 0.0<br/>samples = 12<br/>value = [0, 0, 12]<br/>class = Standard>, fillcolor="#8139e5"] ;
719 -> 720 ;
721 [label=<pH &le; 3.025<br/>entropy = 0.866<br/>samples = 73<br/>value = [21, 0, 52]<br/>class = Standard>, fillcolor="#b489f0"] ;
719 -> 721 ;
722 [label=<entropy = 0.0<br/>samples = 11<br/>value = [0, 0, 11]<br/>class = Standard>, fillcolor="#8139e5"] ;
721 -> 722 ;
723 [label=<free sulfur dioxide &le; 21.5<br/>entropy = 0.924<br/>samples = 62<br/>value = [21, 0, 41]<br/>class = Standard>, fillcolor="#c29ef2"] ;
721 -> 723 ;
724 [label=<entropy = 0.0<br/>samples = 9<br/>value = [0, 0, 9]<br/>class = Standard>, fillcolor="#8139e5"] ;
723 -> 724 ;
725 [label=<density &le; 0.993<br/>entropy = 0.969<br/>samples = 53<br/>value = [21, 0, 32]<br/>class = Standard>, fillcolor="#d4bbf6"] ;
723 -> 725 ;
